svm_type c_svc
kernel_type wgkm
L 11
k 7
d 3
M 50
H 50
nr_class 2
total_sv 1116
rho 0.301209
label 1 -1
nr_sv 498 618
SV
0.3565408448947998 GCGGGCGCGGAGGCGGGCGGGGAGGCCCCGCAGCCCGCGCCGCCGCCAGCCGCCCCGAGCCGCGTGCGCGCGCGGCCGCATCAGCTGAGCGCGCGGCGCGTGTCACGTGGTGTGCGTGTCGAAGGTCACGGCGCGCTCACAATGGAGCTCTCGGAGTCTGTGCAGAAAGGCTTCCAGATGCTGGCGGATCCCCGCTCCTTCGACTCCAACGCCTTCACGCTTCTCCTCCGGGCGGC
0.9856731099310289 CGCGCGGCGGCTCACCACGCCAGGGACTGGCCCGTCGGCCCCGAGGAGGCGCGGGGTCCGGAGTCCGGGAAGCGGAGGCCTCGTGATCCAAGACCGGCAGCCGGACGTGGGTCACGGGGTGCAGAGGAGGAAGTGCCATTGCCGGGCCCGCCAAGATGTCACCAATGGGAAACGCGTGCCTGCAGGTGCGGCCCCGTGGCCCGCGCGCTGGGCCCAGGCAGGAAGTGGGGGAAGGA
0.7170466560248154 GTTTACACATTCTCTCAGGTTGTTGGCAGAACACAGCTCCCTAAAGCTTGAGGACTGAGGGCCCGTCTGCTGGCTGACTCCACCTGGGGCAGGCCACATGCATCTGCAGTCACATGACCCCTTCCCATCTTCAAAGCCCACTTGCGGTATCAATCTCTCTGACTTCCCTTTCTGCCACCAGTCAGAGAACGTTCTCTGCTTTTTAAGCACTTGTGGGATTCCATTGGGCCTGTATT
0.1203620125593749 CCCAGTCCACTTCCGCAGCTTCCTCCCCTCAGCATCGCAGGTCGGATCACGTGCGGGTTCTGTCACGTGACATCAGGTCACGTGAGGCCGGTCACGCCCCGGGCAGCTTGGCTGGGGCTAGGCTTCCGGGGCTCTGCGGTCCTCGGCCTGTGCTGGCAGCCTCGGAGCCCACCGAGCCGGGCGGCTGGGATGGTGAGGGCGGCGGGCCGGAGAGGGGCCGGCCTGGGCTGGGGCCG
0.6293692276182169 AGGATCCTCAGCATGCTGACCCCCAAGTTCATGCTGGCGCTCTGCTCTTGGCTCCTGGCTCCTGGCTGCTGGCAGCGCAGGCACAATGAGCCATGTGACCCAAGGCTCTGGGGACAGGACAAGACCCACGTGACTGATGGGGAAGGAAACCACTGTCACAGCCAGGAGGCTGTTCAGTTCCTCTCAGCCTCTCTGAAGACAGGGCTGAAGGAAGCCCCTGTCATTCTGGACTCCAC
0.02251151399516451 GCAACAGCCTCCGCCCGCCACGTGACCCGTAGTGTTGTGGTCTGGCCCGCGTGGGTGGCGGGAGCGCCGAGAGGGCGGGGGCGGCGATGGGGCGGGTCACGTGATGGGGTTTAAATCTCCCGCAGCCGGAGCCGCGGGGGCGCCAGTGCCGCGCGTCGAGCGGGAGCAGAGGAGGCGAGGGAGGAGGGCCAGAGAGGCAGTTGGAAGATGGCGGACGAGGCGGCCCTCGCCCTTCA
0.6855932332323772 CAGCCTTAATGACTTTATGCATATATGATTTTAAGACATTTTTGTTGCACTTTCTTTGTTAAAAAATAACTCTTTTGTGAAGAGAAATTCAATAGACCATTGAATTCAATGGACCATTAAGGCAAATCACGTGATGCCTCTGTGACTCAGGTTCTATAAATGGAGAAACTGCTTCCAGTTTGATCTTTCTCCTTTTAGGAACAATAAAAGTCTAAGGCAAGGTTTATAATCAGGGT
0.6540662210093366 GTGCCTTCCCTCCCCCCGAAGAGTGTAATCTCTTTCAATTTCTTTTTTTCTCTCAGGCTCTGCACGGAATTTTCCTCTCCTCTTCATCCTGATGGTGTAATACATGATCACGTGTTTGTTGTCTTGTTTTCCTCTGGGTCACATGGGTACTTCTATTTCCTTCTCCTTTTTCATCTTTTCTCTCATTATGGTCTCTAACAAGATCCTCTCCAGGGTCCCTCTGATCTCTATGCTAA
0.2292851655129361 TAATTTAAAAAAAGAATGTTACGGGGCATATCCTTTCTCTCAAATAATGGAACGAGGTTAAAAAAAAAAGGTTAAACATAAAATGGCGGCGGGCTGGATCGGATCACGTGACCGCCATTTCTTTCCTTCCCACCCAAAGGAAAGCCCTTCCTTCAGAGCAAGCGCAAGACATATAGCCCCGCTCATTGTTAAGCGAGGCCAAGGCAACCCTTAGGCGCGCTCTATTTCCCCTTTCG
0.3836451964557877 CTATTTAGTGTTTGAGTCCGCAAGACATACTCGTACCCTGAGCATTCGCAGTTGCTGCTCCACCACCCATTCTCTCACTGCTCACCCACGTGCTTCTGGACACTTGCTTACCAAAGTACTAGTTTGCATCACGTGACACGACTAGCAGGCCCCCTCCGCTCATGTATGACATCCCAAAGATGCCTGATTATTTTCCCTTCTTTAGGGAAAGGTGGTCCCAATCACCAACAAAACAG
0.3484489266331295 CCAGCCATTACATCAGTAGGAAAAAGCAAGAGGAGAAGGAGGAAATGCCTGTTGCCTGTACGAACACTTCCTGGAAGTAACATACATTGCTCTTCTTACATTGCATTGGTCAAAACTTAGGCATGTGACCACATCAGCTTGCAGAGCAGGCTGGGAAATGTAGTCTTTCAATGTAGCTTTATCTCAGAACCATGTGCCTGCTAAAATGGGAGGTTCTGTTATGGAAGACAAGGAAA
0.2746395002255625 GATTCCGCGGCGGAGAAACCAGAAGCTAGATGGGCAGTCGCAGCGGCGGCGGCTCAACACCGCGAGGAGCGCTGGGCTCTCCGCCCTTCCCGGCCACGTGACGCCCGGGGACGCGTAGATTGGGGCAGCAGCGGGGGTCACATGTTTCCTCTGTTTCACCCTCAGTCTGTCCCCCAACCCCCCATTCTTACTCTCCCACCCTGTTTTCCTCCCTCCCCCCCTTCTTTGGGCATCTC
1 CCAGATTAGAGAAACGATGCCCCCAGCACCTCCTGGGGCTGCTTCTGGACTCGCCGCTAACACATCTGCGGCATCCTCTCGGCCACCGTAGAGTGTCCCACGTGTCCGCTTCCTCTTCCGCTACTCGCCCGCGCGTCTGTCTGTCAAGAGAGACTTCCGGCATGCCTTTTTTTTTTTTTTTTTTCCCTTTCCCCGCACCGTCACCTGGTGGCGCTTACTGGAAGCCGCACCGAGGC
0.5451683440519117 GTTTGTCTTGTTTTATTTTCCATGGGGTGCTATGTAAGTACAGTACTGACAACTATAGTACTGAAACCCTGCAAATTTACTTTTTATTATTTCAGTTTAGTTACCAAAAATTATGTGATGCATCACATGACCAATCATGCAAAAATTCGTGCTTAAGTGCCTCAGAAACTTCTCCATGGTCTAAAGGTTCAACTCAGGATGTGGTTTCCACCCCAAAGCCAGTCCCAGCTGCCACT
0.8497871361652426 AGAACCCACCGCAAAGATGGCGGTGGGACGAAGCCCCTTCTCCCGCCGCCGAAGCCTCTCGCCTCACATTTCCCACAAACCCTTCGCGCCGCCTCGCTAGCCGAAACCTGCCCAGCCGGTGCCCGGCCACTGCGCACGCGCGGGACGACGTCACGTGCGCTCCCGGGGCTGGACGGAGCTGGCAGGAGGGGCCTTGCCAGCTTCCGCCGCCGCGTCGTTTCAGGACCCGGACGGCG
0.7723524859721325 GTGAGTGTGGTACCCACAGTTTTAACAACCACATGTGAAAATAAGTCTGCTCCCTGGGTTTATTTCAGTATTTAAGCACACGTGACCAGAGGGCCACTGCGTGTTGTGTGCATCCGGAAATAAACAGGGTGGTACCATCACCTGCCTGCCCATGCAGTTCCAGAAAACCACACTCAAGAGGACACGGAAATCAATATTGAAAATGAGACACTCAAGTTACCACAAAGAGCTATTTT
0.1912048027915221 CTCCGGAGGGAGGATCGCCGCCCCCAGAGGGGACAGCCCGGAGGCCCACGTACCGGATCGCGGCGCGCACAGCGCCCCGCCTGCAGGAGCCCGGGCGCGCTTCCGGGTAGGACCGCGTGATCGCGCACGTGACCGCCCGCCCCGGGAGGGGCCGGAGCCGCCGTCGCCTTCCGCGGGTTCGAGCCCCGCCCCTGCCAGGCCTTGCCCATGCCCCATTTTACAGAAGAGGAAACGGA
0.7395470747894913 CATCATCACCCAGGCGGAGGGGAACATAAATAATAGGGATGAGACAGCAGGCTCTAGGCGGGGCCAACTTCTCAAAACTGCTGCTGTCTTCTTGAGAGGAAGGGGGAGTCATGTGACTCTGTGGTTACTGGTCACCAGGACAACGCAATTGACGTGCCCCTCTACTCTAAGCTCTAAAATGAGCTGTGTCTTCACAGCAGACCCACAAGGATTTGGCAGAAGTTTATAAATGAGAT
0.9137772685335245 GCGCTCCTCACGACGTTTTACAGCGGCTTCCAACAGGCAGTTGGAAAGGGCAGCTGGGGGCGCGGCCAGGAGGGCACGTGGTGCGAGGGACTGGCCGCGAGAAAGCGGAGCCAAAAGGGGCGGGAGCTGTGAGTCACTCCCACGCAACAGGGCAGAGGTTCGCCCCGCCTCGGCTGGCAGGGAGCTAACAGGGGAGGCGCGACGGGTCGGGACGGGCATTCGCCGGCCCCGCCCCC
0.5504093878465222 GGGCATGAACAGAGCCTTGGCGCGATGCTCCTTGGGAGGTGTAGTTTCCACGCGTCCAGCTCGAACGCTGATGCCCCAGCGCGGTGGTAAAATGAGCCCACGTGATCGGAAAAGCAGCGGTTTCCCTTTGAGCCGGAACAGGATGACTGGGTTGACCGATGCTGGGCAGCTGAGCGGACCAATCGGCCCCCTAGACTGAGACGTTGGCGTTTGAAATCAGCCAATGGCAGGTCTAC
1 TTAAAAAAAGAAAGCCATTTTATTCTACATTATTCTACAACACAAAGGGCTGTGCTCCAGTGAAATTTGAAGTGCCTCTTGTGGATTGTGCTTTGGGTAAAGTTCATTTAAATCAGGTACTTATAAATGTTAGGTCGATTACAAATATGGTGTCCCATTTTCTTTTCTAACCTAAACGAGATGTTTTAAACGAGTCTCATTCTATCCGGTAAGAATAAGGAAGGAGGCAAGTAAAC
0.5159588121294859 GCACTGTGCTTAGAGACTTACTTGAGGGACTGATGAGAGCTTGCTTTGATGCAACCTTGAGTATTTTTGCTTGTTTTTACTTTTTCTGGACACATGGTGGCGGTAGTTGTCTAGAACCACGTGACTCAATTCAGTCTACACTTGATGTTCCAACTGAAGCTTCAGGGTTGTCCTGGACCCAGGGGCTGGGGCTTGTCGGGTTTATCCTCATTCCTCGGGGGCATAGATGTGGGTTT
0.5103997388388508 GCCCAGGCACGGAGCCGCAGGAAGCTGGCACCTGACGCGCCTGCGCCCACCCAACTCGAGTTGGTGGCGCGTCACCTTCCCCTGGGATCGCCCGCAGCAGGGGCGCCCACGCACGTGCCAGTCCACGTGGCCCCGCCCTAGCGACCGTTGCTAAGGGGCGTGGCTCAGCCGCACGGAACCCGAGCCCCCGGCGACTTATAAATATTTGCGTATTCAAATGAGGCCTGGCTCCCGTT
0.7458389913662503 GATCCCTTTCTCCCGAGCCCTCTCAATTTCTCACCAGGCTTGGAGTCCCATTCTGCCCTTCCGCGGATCTGCTGTCATGTGACGGATCACATGAGCTCTATATTCCACCACCACTACCCCTCTGCCTAGTAACTAGTGACGGTACTGGCTCCTCCCTTGCATGGGTGGTCCCAAATGCTAGGCAAGGGTGGGG
0.6332881075598442 CTCCTCGGGCCAAAAGCAGAGCGCACAAATTCCAGAAGAAATTACCAACGGCGGGACTATTTCAGTGCTCCGAGAAGTATCACCAGTAACCAATCAGCAAAAAGCTCTAGCTCACGTGGTGTATATTCAGCCTATCAAGCTCCTGATATTCATGAATGCTGTCATTTCCGCTTCCGCCTCCTTCTTTCTCGACAAGATGGCCACACCGGCGGTACCAGTAAGTGCTCCTCCGGCCA
0.8843502440211438 TTATGAACATTGTGGATATAGTATGTGAAACCTTTTGTAACTGATTGTTTTGCTTTTCTTTTTGTGGAACTTGAACATTTTTCGTTTTTGAACAGAAAGACTTGTCTGTAGGAACGACAGCTCAGGCAGCCACGTGGGCTGCGGACTGTGTTTGTGGACTACATCTCCCAAAGTGCTCCGCAGGCGCGCCCACAGGAAGTCGCCGGAGCATCTCCCGCCTCCACGCCGAGGCGAAG
0.6740485599413426 CGCCGAGATTACTTTGTGATTGGAAGACTGAAAGGAACAGGCAAGACTTAAACTCGTCCACTCCAACCAGTATTTACCGAGGCCTCACGGTGGGTCAGGTGGTATACGGTGGGTAATTAGTAGCCTATCACGTGGTTTCTGTAAAATGCTTGATAGCACGTAAAACGCTTTCAGGTCGGCGTCTCGTTTCATCCTCACAACAGCCAGGTAAGGAAGATAACCCCCTGATAATAACT
0.06175853575135299 CCCAAGGAGGAGACAAAAGTCATCTTCCGGGCTGCAACATTAACCGTCATCAGCGCGCCTCTTCAGCGCGCACTGCGCCAACCCTGCGGCAGGAGGAGGCGGAGCCCCCGCTCTCGCCCCGCCCCCACCTCACGTGACCCGCACGGCGCCTCGAGGCCGGAAGCGATTGCGAGCCAGCGCGCGCGCTTCGGCGTTCCCGGCGGTCTGCGAAGTTTCCGGAGCCCGGGTCCCGCCGC
0.6258433374686593 AAATGTCAAATATAAGTCAATTCAGTCAAAGATTCACCCCTAATTTTATGAAAGTACTATAATAAATTTAATTCATTGATTGTATTCACTGATACGTTCATCAAAAGCATTCAGATCATGTGATGCATCACATGGCATTCACCTGCTCTAAAGTCTCCAATGACTTCTCACCAGAAGAATAAAACACAAACTCCTTAACGGGTACAAATCTAAAGTCCATGTTATTAACAGCTAGG
0.3388572975031969 CTGCATGACTTCTGTCCTGTGCTTTCTTTCTGGTAACAGAATTGAGATTTTTCTTCAGGGCGCCATTGGCCCTTGAAGTTCAGATGGACCAGACTTTGTCTTGGTTTCAAGACAGGGCATGTGATCAGGCTTGCCCAATCAGAACATGACACTCTGTAGTCAGGTGACTGGCTCAGGAATGGTCATGTGATTCAGGCTGGGCCAATGATAGCCTTGGCTGGGACTTCTGCAGGATT
0.5034445522853652 AGTGTAAATTAGCCTGCCTGTCTTGTGCAGAAGAGAAACTGAATCTCAGGGAGATCAGCTTTGGACTCATCAGCCACCTTAACAGTTATGGCCACCCAGATAAAAGACTACATTTCCCAGCCTCCATTGCAGCTAAGAATGGCCATGTGGCCAGGCTGTAGCCAATTAGACATGAGTGAAAGTGATGTCTATAATTTTAAGGTTGTGCTCATACATGGCAGAGGTGTAGCATCCTT
0.3315848318684608 CATTGGAAAGTGTGTAATAGTCACTCAGGTGATGCTCTGAGTGAAGACAAACCTCCTAGCATCACCAGAATCCAAGCTTCTTAATAAAATCTCAGCTGTCATCCCGTGACAGCTGGCAGGCCCAGTCACGTGGGCTCCAGCGTCTGGTGCCTTAGCAGTTGGATGCTGGCTCCCTCTGGTGGCCTGAGGTGCCGCTGCACCTAGCTGGGTGCCCAGCTCCCAGGCTGCCTCATTCA
0.04096777562724031 AACCCGCCCTCGACACCCGCCGACGGGCGCTCGCTCTCTCACCCGGCTCTATAGCAGCCGGGAACACCGACGAGAAGAAAGCCGAGGGGAAGCGGAAGTGCCGGATCTGTTTGGGTCACGTGGGGGCGGATGTCGACGGGTGCCGCTGAGAACCATAAAACTTCTGGCCCTGCTGCCAGGACTTTCCGTGGGTGGGAACAGGGAGGCAACCCACCAAGCCAAGGCGCCAGGCTGCT
0.5930669388208671 GTGTGAGCCACCTTGCCTGGCTAAATCTGGTTCATTTTCTTCCTGACACACAAACTACAGTTCCCAGCTTCTCCTGCAGCTGGCTAGGTCCCTGTGGCCATGTGACCTGTTCTAGCCAATCAAATGTGGGCAGAAGGAACATGTGCTCCTTCCGTGGCATTCCTATGTGCTGTGATCTGGAAGGCCACATGTTGAGGATGGCAGGGCTCCACGATGGAGGGATCTCAGGTTTCAAA
0.5732117927351456 TCGGGAGGCGCAGCGTCAGGGCGGGCGGCAGCACAGAAACCCCCCGCGCCGCTAGAGGGACCCTCGCAGCAGCTGCGCGGGCGACCTCGCGGTCACGTGCGGCAAGGGCGGGACCAAACGAGCGTCCGGCCAATCGACTATGCCGTCGGCGAGCGTGATAGCCAACAGGAACCGGGAGCGGGGTCCCGGGACTGGGAAGAAACGGCGGCCGGGAGGGGGCTCCGGGGACCATGGGG
0.4646048158649527 CAATCTCCCACCAGATTTCGGTGGCAAGAGGAAGGTGGCAGCCAATGAAGAGGCTCGGAGCTTGCATCATCCTCCTGACCAGGGTGGAATAACCAGGAGGCAGGCGCACGTGACCGTTTCCATGGTGACCTCCCTTAGCAACCCTGACTGGTCCTGTTTATGAACGCTGGAAAATTCCAACCAGCCTCTGTCCTGATTTTTTTACCTACTCTGCCTCCGCCTGCTCCAATGCAGGG
0.00604098220660536 AGCAGCCATCAGAGATGCATTCTTAGCTGTCACTATCCCTCACTCTACCCCTTGTCAAGGGAAGGCTTCGGCAGCCATGTTCGTATGTATCACGTGACCCCCTCTCTCGGTCACTGTGGGTTGGAGGAGGGCTGATCACCTGACCCAAGTTAGCCAATCAGAGCTCTCTCCTGACACTGGCTCAGGTTGAAGTTCTAGAAAATGTTAATTGGGGGAGCTGTGGCTGGCAGAGAAGG
0.2145698520786233 CCGCCCCTGCGCCTTTAGATTTCGGGCAGCAAGTTTAATTGCTCGCTTGGAAAGCGTCCTCGGAAGGGCACCGCCAGCAACTGCGGCTTCGCGCCCCGCCCCTTCCCCCAAGCCCCGGGCGGCGTCACGTGACGGCTGAGAAAAGTAGGGGAAAGGTCAGCAGCAGCCCCGCCCCCAGGCTGGCGCGTCCCAGGCGCTCGGATCCTGTTCCACCCGCCGTGCCCACAGAGACCTTC
0.006393153347032103 GTCCCGCCCGCTAGCGCGTGATCGTTGTCAACCAATGGGAAGGCGTAACCGTACACGCAAGCACGTGATGCGGGGAAAGGGCGGGGCGGATCACATGACTTCATCTTTCCAGTCTCTAAACTGGCAGTAGTGGCCATCGTGAATT
0.416683184119339 GGCCTGTTACCACGGCAACCAGTGAGGGCGGAAGTGGCTCAGAAGACCGGTTCTCCCTAATCAGGTGACTCTCCCGCCTCCTGCACGTGACACCGGAGCCCAGAAGCGCGCTCTACCTAATCAAGACCCCACCCCTCTTTCCCTTTACTGACAATTGA
0.05699071877665661 AGCCGGGCAGGGTAAGAGGAACAGGCAGCTGCAGGAAAATGGCGGCGCCAGGCTCCTCCTCGGAGCTTTCCGGGCTGCCCCGGGTCACGTGACTCGGACACCGCCCCTCCTCCCTTCTCCCGCCCCTTTCCCCTTCCCTTTCCTCTTCGACGCCCGCCCTCCCTCGCTCAGCGAGGGAAGAGCTGGGCGGCGCCCGCGCGTTACGTGATGGAACTCGCCAGGCGGGCGCAACAGGA
0.3656225150059957 CTGTTCCCCAGCCCTTATTCACCTTTTGGCGTAGCAACCAACCCCGGTTGCCTAACATTCCCAAGGGCCGGCTGGGATAACTGCCCACTCCCTGGCCTGCAAAAATGTAGCTCTTTTGGTCACGTGGGTTCAGCGGCCCCTCTAGGAAACTCGCCAGATCAGGTGAGGCGCGCCAGTGTGTTTAAGAGACGTTGCAGAATAGTAGTCCGCCGTCTCTCGAGCGCTTACTAGTCGTT
0.09614978427014331 CATGCCCCGCCCCCGGCATGCGCGCGCACGCAAGGCGCGCGGCCCGGGGCCGAACAGTTCTGCGTGCTCCCGCGCACGCCCGGCTGACCAGACGTCGGTCACGTGATCCCGGCCCCGCCTGTCGCTGTTGGTCAGCTTCACAGCCGGTGGAGGCTGCGGGCCGCGCTGCCAGTGTCCGGGAACTGGGTTTGCGAATCCTGGGAGCCGCGTTCCTGAGTCTTCTCCGCTCTCTGCCC
0.6464606697143894 GGGGGGCCGCGGACGTCACTCGGGGAGGCGGGGCGCTTTCGCCGACCGGCGCCCGGCTCCATGGCAACCGCGGGTCACGTGCCGACGCGCGTCACTGCCCGGAGCCATGGCAACCGTGACCTCACCGGCGGGCTCGACCTTCCCGCGTGGGCCCCGGTTCCTGAGGCGCTGGCTCCCGGGTGCCCCCCTCCGGGAGCTGGCGGTGGGAACCTTCGATGGGCCCCCAACCTCGAAGT
0.07167261665659093 CAGCAGCGGGACGCTGTCACCCCGACTCAGGAGCTCCTGGGCCCGCGGGCTCCCGGAAGCTGCCGACCACGTGATTCGCTGGCTCAGCTCACGTGACAAAGCTCCCGGAGGTGGGAGCCCTGGGCCAAAATGGCGGCCTACCTGCAGT
0.2109084804384475 GGTGTTTGTGGTAAAGCCTAAGCCAGTGCAGCCATCCCCGTCGCCATGGCAACCCCAGCGCGGTTGGGGAGGACCCGCTCCTCCGGCGCCCCCTCCCATTCACGCAGCGGACGTGACACGTGCGGCGGGGTCACGTGTTGTTGTTGGGCCGGGAAAGCTGCTTCCGGGTCAATGCAGGACACTGGGCTCCGGCGGCCAGAGTGGGGGACTAGGTGAAGCGGCGCCGGGCCGGGGCT
0.2969156779702271 GTGCAACTCTACCTATCATGTTCATATTCTAGGTAGAAACTGGGGAAAAGAGAAAAGGCGGGAAAAAGGCGTTTCTCTACAAAGATCACACATAATCTTCTGTCTGCATCTCATTGGTCGGCATTTAGTCACATGGCCATAACTACCAGCAAGGGAAGCTGGGAAATGTAGTTTTTCAATGGCACATTGCTACCCTTAATAAAATAAGGATATGCTACCAACAAAGAATGAATATG
0.05328056688830715 CGGGAGGGGAGGGGGTCCCGGGCCGGGGCCGGGGGTGGGGTCTGGCACCGGAGCTTTCAGTTTGTTCCGCTGTTTGAAATTGGCGCCGGCGGAGCGTTAAGGTCACGTGACGGAACGTCGCCAATCGGCGCCGGCCTTGTCTCGGCATTCCGGGCTCGAAGGCTGTGCGGTCTGCCAGGAGCTGCGGCCCCGTCCGGCCCGGGCTGGTAAGGCGGACCGCAGGCCGGCTTGTGGGG
0.5503322781596937 GCCCGCCAGCGCCCCGGGGCCAGCGTCTGGAGAACTGTGGACGCGCACGCGCGTAGGACGGCGAGCAGGCCCCGCCCCTCCCCGGCCCCCTCTCACGTGCTGCTCAGCGTGCGCCCAGACATGTGCGGGCACACGTGACAGCGCCGCGTCCGGCCCCGGTTCCCTAACCCCGCGCGGCTGTACTTTGAACCCAGGCGTGGGAGACTGGAGCAGGGAAGGGAGGAAGGAAAACCAGG
0.7432425368219886 AACTAACAGGAGGTAGACTGGGAAGGAGCATGGCAAAGTCACCCCTTTTCACAGGGCAACGCTCCAAAGACCACGCTCAAGCTGGGGTGGCAGGGCTCTGAACATGGGGCCCCGACCCGGGCCTCGGCCTGGGGCCACGTGACGCGCGTGTTTACGTTGAGTGACGGGCGCTGTGTTGGGCGGGCCTTGGCGGAAATCAACTTCCGGGGGCAGAGGTGTTCGAAGCCGGGTGGTGC
0.8623381770791095 GGAATATAAAGTAAAGGAAGAAGAAGGCAAATAAGCTTTGTCTTTTTATTCTGAAAAGGACACTACCCTCAGAAACCACCACCTTCATCTTATTGCTAAAAGCAGCGTCACATGACCAGCACAAGTGCAAATGAGGATGGGAAAGTGAGTTTTTAAATTGAACACATGGCTATTTCAAATAAAAGCAGGGTTCTATTACAAAAAATGGGGTGTGTGTGTGTGTGTGTGTGTGTGTG
0.5759328257418643 GAGGAGGGAGGGAGGGGGCGGGGAAGGCCGCACCGCCGCGCTCGGGAGCCGCCGCCGGATCCCACGCAGCCTCCAGCTGTCGGGGAAACTCCTGCCTGGGCGCACGTGACCCTCGCCGGCCAACCAGCAGCCGCGCCGGAGACTTCAAACGCGGCCAGCGCGGCCCAGCACCCGCGGCGAGTTAGCCGGCGGGCGGTGCGGGGGTGGCCGCGGTGGCCGCGGCTGCCTCGGGCGCC
0.6817808928428845 AGGTTTCACCCAGAAAGAGGAGGGGCCAGGCTCCTCCCTGCAGACTTCTGTGGCTCCACCCCAGTGTGCAGGCCTGTAGGGGTTTTGCCGAGTAGCCTTTCCCACGTGACTGTCTCAGTGTAGTACATGTGATGTGGCCTAAATTGGGAAATACCTAAATTAGTAGCTACCTGTGAATTTGTCCTAACTTAGAGAATCTTTTGAAATGACTTAAAATTCTTTGGGTTTTCAGCTCA
0.4880927344885179 CGAAAACGAGGTCAGGGTGTGAGCAGGCGCGGCAGCTGGTGCAGGAAAGTCGCTCACCCCGAAGCTGCCGTGGGCAAGTTAGAAGGAAACCAAAACAAGCGCCGCGCCCGGAGCTGCCCACGTGATCACAACACAGCACGTCTAACGCCAGGGAGCCGGGCGCCCGGGGAACTACTGAGCCGCGCCGCGCCGGGCTCCGCCCCCCAGGCCGCTCGCCATTGGTCCATTAGAATGGG
0.9759968239598076 TTGGTTTGAACTTTTGAATCCGCCAATCAGCGCCGCGCGCCCCCACTCCGCGGGTGCGGCCGGGCGCAGGCCAGGGCTCGAAGGTGGGGCCGCAGCGGCACGGGGCGGGGTCTGGGGCCCGCCCTCCCGACACGTGGCCGGGGACCGGGTATATAAGGCCCTTCGGGGCCGGCCACCCTTTCACTACTTCTCCCCCGGACTCCTTGGTAGTCTGTTAGTGGGAGATCCTTGTTGCC
0.2806342745492292 CCGCAGGCACCGTCCCTCTCCCGCTGCAGCCTGAGGAACGCGTTCCGAGGAACCCCTAGCCACAAGTCAGGACCGCGTACAAGATGGCGGCGCGTCACGTGGGCAGCGCGGTGACGCAGGACGGCGGCCCGCGCGGAGGCAGCGCCATAGCCTACCCCAAACGCACACTAGTGCTCAGTTTTGCCCCCCTCCCCTCCCCCGCCCCCGCCCCCGCCCCCAGGCTTGTGTAGATCATG
0.7774996961389518 ACCCACCCCCGCCTCCCAGCACCACCACCACCACACACACAAAAAAATTGGATACATTTTGAATAAAGCGATTCGGTTCCTTATCCGGGGACTGGGTTGCTCCGTGTGATTGGCCGGAGGAGTCACATGGTGAAAGTAACTTTACAGGGTCGCTAGCTAGTAGGAGGGCTTTATGGAGCAGAAAAACGACAAAGCGAGAAAAATTATTTTCCACTCCAGAAATTAATGATCATGAG
0.6074818498265003 AAGCCCGGAGGAGCCACCGGCCCTCTGGCGCGGGGCCGCAGCCTTTCCGCCACCAGGCTCAGCTGGACCGGTCCCCGCCTGCGCGAAGAGCGAGGCGGGGCGAGCCGGGCTGGTCCACGTGACTCCGAGCGAACTGGGGCGGAGATTGGTGAAGAAGGAAGGAAAAGGGAAGCGAGTGCAGGGACTGTTTTATGTGAGGTCGATCTAAAAATCACAGCGCTATGAATTTTCTGCTG
0.02757318638330035 ACTCACATCCAGCTCCACCCCGGGAGATGCCCCAGAAGCCCCGCCCACGTCCAGGCACGTTCTTCTGGGGCTAGTCGCAGGGGCCGCCCCGGCACCGGCGCTCACGTGACCCGAGGTGTGACGTAGGAGGAAGGAGACGCCATTAGAGGGAGGCAGAGAGGGATCGTTCTTCGCTTTTCCTCCGGTGCCTGACGTGGTGGGCTGGGGCCCTTCATTCTCGGACTTTCCCTCAGCCC
0.7013998791061086 CTGCAGTACCCAGTAACTAACCAGGTAGAAAAGCAGCCATCTGGTGTGTCAGGACTGGGGTGAGTGGGGTGACAGAGAGTTGTGAAGGGAAAGTGGAAGTGGAGGCAGGTGACTACACCTTCAGCTGACCTGAAGTCAGCTGACGTGACTTCAGCTGATGTGATGAAATCCAGCTGGTTTCCCAGGCTGGGATGCCTTTTGCTTTCCACAATAGGAATGGCCAGTAGCTGCCAGCC
0.5133571816353398 AAGACTAACAGTGTAATAGTGCAAGCCAAAGATGCGTAATGAGTGATGCAGATCATAAGTGCAGTAGAGACTTGAAAGGAAGGGAAACCACAGTGGATTACAGTGGTCAGGAAGGGCCTCACGTGACATGTGAGACTTGAACTTTGAAGAATGTTTAAGAGTCAGTTAAGGGAAGACAAGAGAGCATTCTTGATAGATAGAGAGATGGATAGAGAAAATGGAAAGAGCAAAGTTGT
0.1545975175118899 ACCTTTACCGAAGGGAGTGAAAAGAACACCTCACCCAAACGCCCGCCCTTATGTGCGCAGCCCCGCCTCCTGTAGGCCCCACCCCACCAAAGGGTGCGCCTGCGCCGTTCTTTTTTCCGTCCACGTGACCCACTCAGGCTCCTCCTTGTCTCCAACATGGCGGCGCCCAGGGGCTCAAGCCGCACGTGAGAAAGTCTGGGCATCTGGGAATCGGAGAGTATAGCCTGTGAGCCGCT
0.3338079105164962 TGACGTCGGCAGAGCGCTCCTAGTCCCCGTCTTCTGGTCCTCCACCCTTCCCGAAAGGCCAAGCGGCGGAGCTGGGGCGCCAACGAGAAGGGGGTGAGCGTGATTGGGCTGTCCTACATCACGTGACGGCCAGTACGCGTGGGATTTGGCTCCGAGGAGGCGGAAGTGCAGCACAGAAAGGGGGTCCGTGGGGGACGGTAGAAGCCTGGAGGAGGAGCTTGAGTCCAGCCACTGTC
0.5383377550639326 GCCTGAGGGAGGATCAGTCTCTGAACTAATATGAGTTCCCTATGTTGCTTTAGCCACTTTGATTTTGCCTTGTAATGCAGTGAATTCTAACAAACACATCACGTGATCCAAGTACCATGACTACAGTTACTAAATCAAAAACAAATCCCGAAACCAAAAGCAACTGTTTGAAGGGAACTTATCCTCTACTTACTTATATAAGCAGAGAGGGAACTTCCGCTTTTCAATAGAGAAGC
1 CACCCTCTCACCCTAGACAGATGGGAGCCTCCTGGGGTGTCCACGTGAGCGCGCGTGAG
0.03912849398737652 CATTGGCTCTAGTTCTGGCTCTCTAGCCAACAACACAAACGTTCTGTTAAAGGCACAAGTTGGAAGGGCACATCTCACTTTCACCCGTGTCTCATTGGCCACACCAAGTCACATGCCCACACCTAAGTGGAGGCTGGGAAATGTAGTCTCTGGCTAGGCAGCCATGTTTCCAGCTAAAACTTTGGATTATTATTGAATAGGGGAGGAAAGATGTTGGGGGACAATTAGTGGTCTTT
0.4140198353864556 GTCCAGCCGCCGGGCCCTTGTCGGCCGCCATTCGGGCCGCGCGCTGGGAACGCAGAAGGGGGCGTGGCCTGAGGAGCGCACCAACTGCGTGGGGGGGGGGGAGGTGCGGTGACCACGTGACCTCCGCTGAGCTTTCGCCAGTGCCTGCGGCCCTCGGCGGCCTAGTACACACGCACCTGAGTGAGTGGCACCAGAGGACCCTCTCCATGTTTAGGGACCTCCTGGGCCTCAGGAGC
0.7795977362741755 CGCAGCCCCACGTGACCCCGCCCTACGCCCCGCCTCCGCTCCGCAGCGACAAGGGCTAGTCGCGCAAGATCTTCTCACCATTGGTCCCTAAGGAACGGCGGCCTCCTATTGGTTAAGTGCCGGGAAAGGGGGCGGACAATCGCGTGAGTGCTGCGGGCGTAGCTGTGCCCGGGTCCTAGCGCCGGACCCGGCGACGCCAAGAAACCACCCAATAGGAGGCCGGAAGCATCGGAAGT
1 CGCGCTGCCGCCAGTTGTCACCACAAGGCACAACACTACCGGGTCTACATCTCCGCCCGCCCTCACAATATCCCAGGAAACAGACATCCGCGTGCTCGCGGCATTTGTTAACCAATCAGAGCAGTCTGTCAGAGCACATGGGAGAGCGACAGCCAGTCAGAATGTACAAGAGTGCGGGGAGGGGTGCACCAAAAGACTGACTCCCTACAGAAACTTTTGCCGAGTGGGAGCAGGTT
1 CCTTTGGGGACACCACTCTCCCACTCTAAACCCCCAAGGTTTGGGTGGCTGACTCCGCCCCCTGGCAGGCCTACCCAATCAGTGTATTCTACCCACCAGGCTGCTGTGATTGGGTCAGTGCAGGCCACCTGACCCAAGTTGGTCCAATGAGACTCCGTGTAAGTCCATTTGGGCCACCACACCCACCCGGGCCTGCAAGGGGAGGAAGCTGACTTAAGAAGGAACTCAACGCAGAG
0.2244500305745909 AGGGGACGGGACCATGTGAAAAGGTGGGATCGTGCGAGCGGAGGAAGGACAGAAAAGCGAGGAAAGTCTATGCCGCCAGCGACCGGCAGGAGGCACGTCGGGCACGCTCGTCACCGTTTCCTGGCACGTGACCACCGCCCTGCCCTGTCGCTTTAGGGCCTGTCGCTTCCGGCGGTGGCGGTTGCCATGGGGACGGAGCTTGGGTGGCAACCAGAACTAGGGAGCTGGTGGAGAAG
1 AGACATCCTTTGACCTTGTCTATCCAGTTCTGTTTCCCTCTTCTTCCCATAGGGGTCTCCCTCCCTCCCCGTCCTTAAGTGGGGCGGGCACTTAGCCCAGGGTGGTGATATGACCCAGTCCTATCCAATCACCATGGTCCCGCCTCCTGGCTACCACAATTGGCTCAGGGATGAGCACGTGGCCCATAGCAGCCCAGTGAGAGTCAGCCCTGGGTGGGAACTGGTGGGAAAGAATT
0.386444731608906 CGGAACCCAAACGGTCCATTACCGCGGCTCTGGGGTGGGCGAGGGGTGAGGGGGCCGGGTTTCCGCGAAGGGGGAGGGGGAAGGCGAAGGCCACCTAGGAGAGTCACGTGACTACTGTTTCCGCCGGCGCTCACGGAGAGCTCGCGGTAATTCCGTTTCCCCGCCCTTTTTTCCCCGCGGCCTGTCGGGAAGAAGGTCCGCGTGCCAGGGCTATCGGGAGGTCGGCCGGAGGGCCG
0.4399387387353857 ATTCTGGACCCCTGACTTCTAGAGGCATATTATCAGAAGAGGTTTTAGCAAACATGGAACTACTAGTTGCCTACCCAACATCGTTCTTCCCTATTCTAGCTAGTGAAACTACATTTCCCAGGCTCCCTTGTGCCTAGGGGTGATCACATGGCACAGCTCTGGCCAATCAGCTGTAAGTGGAAAGCCAAAGGCGCCTTCTGAGATTGTTTTGCTTTCCTTATTTAAGCAACACTTCT
0.5175254672295894 TCTCAGGCAGGCTCTCCCGTCCTAAGGTAAGAATCTCACTGATACCCGACTACATCATGTGACCCTCCTTTGGACCAATGACTGCTGTCAGAGGATGGGATGACCTGATTGGCCAAGCCTTGGTCATGTGCTCCTCCAGGAGCCAGGGAGGCGGGGTCAGCCCCACCTGAACTACAGATGATGAGAGAAAAGAAGAAAGCTGTTTTCCTCAACGAGATCCGGGGCGCCATTACCAG
0.3305761996824134 TTCCTACATGCACACGTCCCTCATGCTGCCTTGCACAGTTCCAAGGAGGAAACCAGACTCCATTTCCCAGCATCCCTTGCAGTCAGGCCCCTCATGTGACCCGAATCCCATCATGTGACCCAGGCTCAACCAATCAGAAGTCTCCCTTGAGCCTCTGCTCAGGAAGAGGGTGAGAAGATGGCGCTGGGCAGGTCCATGTGTGGGCGCAGGAGCTAGAAAGGCCTGGTGGATTCAGG
0.04306590467129611 ATCCAAGATGGCTTCAGGCATCCACTCTCCTTCAGGGGCAAGTGGAGAGAAAGAAGAGGGCAGGCTTTAGGGGCATGACCTGGAAGTGCTATGCACCATTTCCTCTCTCATCCCATTGGCCAAAACATGGTCATGTGACCACGCCTTGCTGCAAGGGAGCATGGGAATTGTAGTCTTTATTCTGGGAGTTCGTGTGTCCTGCTAAATCCTGGGGACTCTATTGCCACAGAACAAAA
0.7205444433364626 AGGAGATGAACTGTACTCAGGAGATCCAGGGCCAATCCCAGGCCCACGTGTTTTGCCCGCAGCGGCTCTGACTGGCTGTCCACCTGCTCTGGCAGGGTCACGTGCCCCCAGCCTGCAGGCAGTGGGTTCAGTGGGTTTTGGTGACTTCGGCTTAGACCAGCTGGCCCCTCAGGTCATAGTGAGACAAGTCTGCTGCTGCGTGGCGTTAACACAGCCACAGCACCCCAGGGTGGTTT
0.2146155902831902 GCCCAGCCTTCCGACGCACAGCATTCTAGCACCAGAGCAGTCCCTTCCTCCAACGCAGATCCCTGCCCTGCTGCTTTCGCTGGGAGCGCGCGCTCCGCGTTTCCAAGGCAGCAGCCCACGCCGCCCCACGTGACGGCCCCGCTTCCGGGTCTGGGCGCGGCCTCAGGACGTGGGCACGTTGTCGTCCAGAGAGCAAGAGCGTCGCTCCCCCTCGCCTTCTCGGCCGCCCTCCCGGT
1 AAGTGGTGGGTTGGGGGGGAAGCCGGGTGCGGTAGGCTCACGCCTGTCATCCCCGCACTTTGGGAGGCCAAGGGCAGGTGGATCCCTCGATCCAAGCCTTGGCAACATGGTGAAACCTCGTCTCTAAAAAAATACAAAAACTAACTGGTTCCATATCCTGGACTCAAAGTTAATAAATAGATAAATAGGCCGGGTGCGGTGGCTCACGCCTGTAATCCCAACACTTTGGGAGGCTG
0.08726175363432298 GCCTGACAAGGAATTTCCTTTCGCCACACTGAGAAATACCCGCAGCGGCCCACCCAGGCCTGACTTCCGGGTGGTGCGTGTGCTGCGTGTCGCGTCACGGCGTCACGTGGCCAGCGCGGGCTTGTGGCGCGAGCTTCTGAAACTAGGCGGCAGAGGCGGAGCCGCTGTGGCACTGCTGCGCCTCTGCTGCGCCTCGGGTGTCTTTTGCGGCGGTGGGTCGCCGCCGGGAGAAGCGT
0.7826965822968247 CAGGTTCGTAGGTCGCCCTCGAATTTAAAGCTCCCAAGGCTGAGTGGGTCCCGGCCAATGGAGAGGCCCCCTTTAAGTCATGTGACCAGCGGGGCTGCCCCGCGGGCTGCTCCGCGGGCTGCACTGGAGCACGTGGGAAGGCTTTTTTTCCTGTTCCTTCTTTCCCTTTTTAAACGCCCACCCACTTTTGCGCGGGCTCGGCCGCGGAATTTTTCTCGCGAGAGGCGCGCTGCCCT
0.710544979500666 CCCGGCGGTGTCACCACTTTCTCAGCCCCTCTCGCTACTGAAGCGCTTTTCTCTCTCACACTCCGGTTTTAACTCGGGCAGGGGCTGCGGAGGCTCCGCCCCTGACACGTCCCCGAGCCACGTGATACACCGCCTCGCCGTTCTACTGGTCAGGCCCTATCCTTTCATTAGCATATTTAAACAGCTCAGGGGCGGGGGAAGCTTGTAGGCCGGCTCCGGGGACAGTTATTGAGCAC
0.6114678219205154 GCCAAAGCAGATTCTTGTCACCTTCATTCTCAGTGTTGGGGAAGTATGCTGCTGGAGCGTGGCCTTCACCTTTTCTATGGCCCCTCTCAGCATCCGAAGCACAGCAAGGTATCACATGATGTGACTGTCACTAGTAAGCTCATGTGACATGACACAGGGAGGACTTATCCAAAACAATAAAGGGAACTGAAAGTCAGAAAGCAGAAGTGGCCACATATTAGATTTTGTATGCATTC
1 GACAGTTATATGTGGCTTCTTATTGTGGCTTACACTTCCTCAGTAGATGGTGGCTGGGTTCCAAGAACAAGCATTCTGAGAGAAAGTCAGATGGAAGCTCTATCACCTGTTATGATACTGTCTCAAATGTCACATGGTATCCCTTATGCCATATTTTGTTGTTAGAAATGAGTCACTAAGTTTAGTCCTTATTCAAGAGGAGAGGAATTCATCTCTACTTCTTGATGAGAGGAGTT
1 CCCGCCTGGCAAGGCACTGGGAGGTGGGCTTGCGGATCCTACGACTAGCGTTTTTCTCGATTGGTTGAAGGAGTAAAGGCACGTGGTATGGGGGCGCTCTCTTATTGGTCGTGAATGGTACCTTGTGGTACAGAGACGTGATGTGGTTGGCTAGAATGAATCCCAGCTTCCCACTAGATGCCCCTAGCTGGCTGTTGCTATGAGGAGTCCAGGGCCTTCCGGCTGCCGTTCGGGAT
0.7897266339273543 AGGGGGCAGAGGACCCTGTGCGGGGGTGGGATCAAGCACAAAGAGAAAACTTTCCCAAAACCCTTCAACAGACTTTTTTGTTTAAGAAAATAATAATGTTTCCGTCTCTGAACACCAAGTCAGGTGACCCGTTTTTCCTTCATGTGATTTGTGAGCTATTTCAGAACCTCGTAAGTCTCTCTGACAGGTCAGGAATGGGGAAATGAGAAGTGTCATCCTGTAGAGTTTCTCTTCTC
0.4011249564541656 TTCCTGGTCCTGTGAAGGCAGCTCTCCTTTTCCATTGGGGAGCGACGCACAAACGTCAACTGTCACATGACCTGCCAGATGCTGCTGGGCTTGCAAAACCTGCACGTGACTAGAGGTTCTGCAAGCTATTGGGAGCGACGCCCATCGCGCTACCTCCAGACCAGGAGGTAGGGCTAGGCTGCGTCT
0.286594968016651 GAGAGAAAGAAAAACGAGGGAAAATCAACAAAATGTGCGATGCAAAGAGTCGATTTTCGCGGGGTTTGTCAACTTCGCCACTGCCGCACGCGAATCGACGTCGTCACGTGACGGTCTGCCTCCGCCCTTATTAACTCTCAGCCCAGCGGCGGTTTCCAGGACCTCAGACTTTTTGCCGAGGCGGCAGTCCCTAGACGAAGCGAAGGAGGCGGCGCCTGCCCCGCCCACAAGAGCTG
0.4658853477498953 GCCAGCAAGCTGCTGTTCCACCCTCCCACCAACACCAAAGCTCTCTAGGCATGTGGCCTCTAGGAAGAAGAGCCAGGGGAAGCACGGGGTCACGTGGTCCTGGGTGTGGGGGCAGTTTCTGATGGGCGAGGCCTTGATAGAGGAGGAGAGTAACATCCCCTTCATGGTCTTTGCTCTCTCGGGTTTACTCCACCTTGAGTCCAGGCCAATCAGAGCAGACGTTGCTTCTCTGTCTC
1 GGCTGGAGCTGAGCCAGCAGGGCAGGGCCCCCCTGCTGCGACAGTGGCATCCTGATAGTGAGATGCTCAGATGCTGCTGCCCTCTAGTGGCCGCCAGTTCCCTGCAACTCAGACCACGTGATTTCTGGGAAAAGGCCCTCCCTGGAGGAGAACTGAAACTTAGGGTGGGGACTGTAGAAAGGGGCGGAGAGATCAGCCGCCCAGCCAGGAGTTAAGCTGAGGTCGTCTGAGCCCTG
0.4889646661279802 AGTAGGAAGTCTTTTCCTGTCCTTAGAGAAAGAGTATGGTAGAAAAAAAGCATTATAGTTCTGGCAAGGGAAGGTAACCATGGAGATACACACACCCCATGTGGCAATGACCACGTGATGAAAAATAATATCACCTGACATTTGTGGTTGTATGTTTTTCAGGGTCAAAAGAACCTAACTCCCGGCAGTATTCTTTGTCCTTCCAGATCTGAGATCTACCCTGTTTTCCCTGCCAG
0.03321087926790497 CTATGAAAGAGATGGAAAATGGTTCTCCTTCAGAGGCGACCCAAGCTCACCAAGCCGGATTTTAAAGGCCACGATAAGCCCGCGTTTTCCTTTATCGTGTGCCTTTGGCGCGTGCGCACCACGTGACCCAGGAGTTCATTAGTTCCGGCTTGAGGGAAGCGCCTTCTTTCACAATTTCTTTTCATTGTTCATTGCGGATATCTGGAAGCCTTCCAGGTCCCCTGAATGTAGTAGAC
0.2857543301753634 GACTTTGGCCTAGTCTCAACACCTGACGTGGACTACATAACCCAGCATTCATCACGGCAAGTGGATTTCCGGGTCAAGAGGTCCGCGCTGGGTACATCACCATGGAAGCAATCGGTTTGGTCACGTGGTGCCCTTGGTTACGCCCGGTGGCAGCTGTGGGGTCTAGGGCTCAGACGGGGGCCATTTTGCCAGAGGCTGCCTCCCGGAGTTGGGGGCGGCCTGGCGGCAGGCTGAAG
1 CACTCGGGCGCCTTTAAGAATGGCACGGCGGCCGCCTCCCTTCCTGCCCCGGCGCCTGGCCCAGTCGCCCCCACCTATCAACGCGGCCTCAGCGGGCCGGCACGTGATGGCGGACGGCAAAAGGCGCGGCTCAAAATTAGACAGAATGCGATCGCCTGATTTTTTTTTTTTTTTTTTTTTTTTTTTTTTTCTTTTCCCTGCTCCCTCTAGAGGAGGACGCTCTGCCTGGCTGCAAG
1 GAGCCTCCAGCGCCCGGGCTCCCTTCCCACTGGGAGACGCCATGATGGCCTGAGAGGAGAGCCAGTCACGTGGGATTTTGTTTTCAACCGGGTGCATTCTGGGCCAGGAGGAGGGGCCTGGGGAAGGGGGGCTGGGATGCCGGCGAGCCCCCGGACCCCTCCGCCGCCGCGTGTTCCTGTCCCGGGCACTGTTGTTTTTCCGGTCTGCTGAGGGGCAACAGGTCCCGAAGCAGGGG
0.5692713733671397 CGCTCTCTCACTCACACACACACACAACACGGGCAAGAACCACCTCCTCACTGCAGCACCGGATCAACGGCGGCACGCACGCCCGGTCGGCCCCCGCCACGTGACCAGGCTCGCAGCGCTGGGGCAGCCGAGACTTGTAGTTCTTGTCCCTCTAACAGACGGCCCGGGTAGCTCCAGAAAAACTACAAATCCCGGAAGAAACCGCATCCAGGCGACGCCAGCCCGGCTTGTTGACG
0.002929165671976105 TCAGGTGACAGAACCCACTCCGAACAGCGGTGGTGGGGGTGGTGACAAAGACTGAAAGCCCCACTCCTATTGGCTCAAGGCAGGGAAGATGAAAATTAAGTGCCATATTTGTTTGAGTCACGTGACGCCACCTCTCCGGGAGTAGGGAAAGCTAGAAAGCTCGGAAAGAGGAAATCAGCTACCTGGCTGCGGACCATCTCCCTCAATTGTGACAGCTCCGGCGCTCAATACTTTCA
0.9368676260253527 GTTTCTCTTTGGGGGCGTGGCTTATGGAACCTCGTTTTCCCGCCGACGGTTGGCCACGTCACGTGACATGGGTTGGAAGATGGCGTCTCCCACAGACGGTAAGAGCCGGCTTAGAGATCTTTGCCTGCAGCCTCCTTCTTTGCTCTACTGGGAACATCCACTCTGTCTCTGCCCCTCGAACATACATTTCTTTCTTGGGCTCTTCTCCTTTCCCTTTTATTTTTTTTCTTGAGATC
0.6441481328735796 ACGGAAAAGGGCCGCGCCGGGCTGGTGGGCCAGACAAACCAGACATGGTGCTGGAGACTCGTTCACCACCGAAGGCCTCAACCGCGCCGGAACCGGGGGGACCCACGTGACTCACCTCTGACCTTCTGATGCCGTCCGCGCCATTTTGGAGACTGGCATGTAGAGAAAGACTCTATAGCGAATCTTTTGAAAAGGGAAGAAAGGATAGGTACCATGTCAAAACCGCAAGTTTAAGC
0.838355293391172 GACCAGCCTGGCAGGGCCGCACCGCGCCTGGAGCGCGAGGGAACCGGCATGGACACGCCGGGAGTCGGCCTCTGCTCCGGTTGTGCAGCCGCCCTGGGCGCCGGGAGGGACAGCCCCATGACCTTGTCACCTGGGCCCGGCGCGCGGCCACGTGGCTCGGGTGACTCGCATTGCCCCGCCCCCCTGCAGTGACTTCTCCAGTTTGGCACACCAGTGGGCTTTCATGTGACCTGTCC
0.466030098313206 ACTTGCAAAGCGTTGCTGGAAAAGACGGGAGTTCTACTGACACTCCAGTCCAAAGCTAGGTGGGACCGCCTCCTGTCGCACGTTTCCGCCTGGTCCCGCGCTTTAGGAGCTAGGAAATGTGACAGAGGCGGTGCCTACTGCCTCGCTAGGAATGGCCGCGGAGGAGGACTGGTCACGTGGCGTGGCTTCCGGCCTCTGGCGCGTTCCTATTCGGGAAGGTTTTAAATGCGGAGTCA
1 GGTGCTCAAGTGGAGAAGACACAGTTGCCCCAGGCTGTGCACAGGTGGCCTGGTGCTTCCTTCCTCTGTGAGGCCTCCGTTTTCAGAGTAACAGTGGCCGCTAGGTGATGCCCGACGTCTGCCAATGAGAGTGTCAGCCCGGAATGAATTGGGATCCCCAGGGGTGGGGTGGGGGGAAGGATGGAGGCCCCCACAGCACAGTGGGTCACCGCGCCCTCCCAGGAGATCCCCACAAC
1 AAAGTCAAGGCTTGGTTCAAGCCAGATAGCACCTGAGGACAGAACATATCAGGTATTGGTAGTGTTTCTCCTCTGTTCTCTCTCCTGCAAGGCCCTTTCAGTCCTTGTCACTGCCCTTGAGAACTCCCAGGTCACATGAAGGCAAAGAAAGTAAAACTGAAACTGCCTTTGAGCCACAGGCTTGCTGGGGATGAGGTGACAAAGCTAATCGAGGTGGCAATTGGGGAAGGGGTTCT
0.1997033606941196 TGCCCCTCTCCTCCGCCCACCCCGCCCCTCCCCGGCCCGCCCCGGTACCCCGCCCACGTGCCGCACGCAGACCAATCACCCGTGAGGATGCGAGTGTCGTGAAGCGAAGAGCGAGTGAACGCCGGGGACACGTGACCTTGGTAGCGCGTCCTCCTAGCTTCTGTTAGCGGGCCTTCTGGGGGATGCTACATCGCCACCTGCTGTCTGGAGGATCTTCTCCGCTTCCCACCCATTTC
0.8619025462789588 CCGTCGTCCCGCTCAGGGTCACGTGGCCCGACGTCGCCGCGCGAGTCGGGCCGCGTGGGGGGGCGGTGCGTTCGCTGGATCCATGGGAGCGGAGTGCGCGCGCATTATTTTTGCTCGTCGGCTGGGAGCCGGGCGTCGGGTCGCTGGGAGTTTGCCTCTTGTGGCAGCATCCTGCTTAGTCCAGCGAATTGTGACACATTATTAAATGTATCAGAATATAAGAACTGTGTCACTAC
0.3446669642242349 CGGGAGATAGGAGAGGGATGTCGAGCTTCCTCTTTAAAGCAGTAACAAGGCAAATTATAGGTATGCCTTCTATTCACATCCCATTGGCTGAAATTAATCACCTGACCACTCTCAATGGCAAAGGAGCCTGGGAAATGTAGTCTGTAACTTAGTGACCACATACCCACCTAAAGCTATAGTTCTAAACTACAACTAAAGCTAGGGTTTAGGAACCATTACAAAAGGGAGGAAGTGAG
0.4916031696310105 CAGGAGTCCCGCCCCCTGAAGGGCATGGGCCAATCACAATGCCTCTCCTTCCTGGCCGCTGGGATTGGTCCGAGGGTGCACATGACCGGACTGCGGGACATGTGACCGTGCCGATCTAGGTCGTGTGACCCGTCTGGTGTAGTCCTGGAACAAGGGTTTTGCTGCGG
1 CTTGGACCCGCCAGGAGTCCCTGCAGGAGTTGGGAGCCCCGCCAGCCACAGCTACTTCCCCGACCCTCCCGGCTTCCCACCGCTGATTGGACCAGGCATGGGCATCTGACTGAGGGGAGCCTATCCATAGGCTGGCCAGTGATCTATCAGGGCTGGCCTAGTGAGAACACGGCCAATCAGATGCTTTCCTGGAACCCGGGGCCAAAGCTGCCCCAGGGGAGTGTGGTAGCCGCAGG
1 AGGTCTCCCCGCGCCCAGTCCGGCCCCGCCCCGCCAGCTCCCAGGTCTCCGCGCGTCTGGCCCTGAACTGAACGCGCCTGCGCCTGGGGCCCACGTGGGGCCCTCGGGCGGGCGTGGCGGGGCAAACAGAGGTTTGGACTCTCTCGCTTCTGCCTGGCTCAACTTCTCCGCCGAGGCATCCGTGCCGGGGTCGGGAGGAGCCGGGCACGGCAATTCCCGGGCGGTCTGGGCTCCGA
1 TGAGAGACTCTGTCTCAAAAAACAAAACAAAACAAAAACCCTCGGGCCTGAGAATGAAATTATTAGTACTACAGTTTAACCTAACAGTGGCTTAAAATAGTCACGCGGCCTAGCCACACTATCTTACCACGTGGTACAGCTTCTACGGCGGAAATTTTACATTCTTAATAATTGAATTACAAAAGCATTTCTCCCTGTTACCTCAATTCTGGGACCCAATCCGGATCGAAAGAGTG
0.6419767357426737 CTGGTGGCTGGTTCTGTAGTCTCCAAGGTAACAGAACGCGGCTGGGTCCCGCAGAGCGATCATCGGGTTCCGGCCGGCGGCACGTGATCTGTCGGGACTCTTCCCCGGAAGAGCTTTCCTTGCGGCATTTTTTCACGTGGTTCTTGGCCAGCTGTCCTTTGCAGTTGAAAAGCGGCGGTTTGTGGGTCATTAATAGTCGACGGCGTCTGCTCCTCTCGGGGAAGGCAGTGAGACCG
0.847960215291155 GGGCGGGAGAGCCCCACATCACAGGTTCGTGCCACGCCACAGACATGGGAACAGAGGAAGGTTCCACGCCAGTACTCGGCCCACTGAACGCTGCTGCTTCTGGGCATGTGACCAAGTGAAAGGGAAAATTGGGTTTCGCATCTCACTTTCCATCTCAGATTAAATACCAGATGAAGAAGCAGGCCCATTTAAAGAAGGCTGAGCCCTGGAGAAAGACAGCAACATGGTATTATCAG
0.5018915720571667 ACGGTCACGTGCTCGAGCCCGCGGGAGCGCCACATCGCCAGCCGCACCCCTCCACCCCCAACCTGCCCACGTGAC
1 ATCACTTATCTAGAGAGTGGGAAGTTGCTGATCTCATCACTGCATGGGGTGGGGTGAGGGAAGCAACCCTGCCCTTCCCCTTTCTCGGAAAGCAGCTGGCTTTGAAGAAAGAGAAACCAGGACGGGAAAGTCCTGATTTCTAATCTGAAACAGCGCTTTTTGTCCAGAGACCGGTGACGAGCGACCCTGGGCTCGGGTTTTGATTGGGCAGTTCGGAAACTGTAAAAGCGAATTAA
0.3101705295645391 GGCGGACATCGGGTTAGGCATTTTGGATCCAATTTCTCATTTAATCCTCACGACCATCTTGAGGGAGCGCATTTTACCCGTGTTTTACGGGGGACTGAAGCTTAAGGAGCAGTAACTTGCCCAGGTCACGTGGCTAGGAAGAGACAAGGTCAGGTCAGAGCCACAAGAGGGCGCTCTTCCCCTTTCTATTCTATGTTGTCCTGTGGTTCCCGCTTTTCCTCAGGGGCACCTTCCAC
0.8026769803483728 AGCTCCTTGCCCGCCCGCTGTCTCTAGCTCTGGCGCCCCGGCTCCCCGTCCCCCTCGCTCGGCCAGTTCTTTCTCTGCTGTTTGCCCTGTCAAAACACTGCCTAGGTCACGTGTCCCAACAACAGCCAACCCACCCCGGTCGTCACTTCCTCCCCGGCGGCCTCCGCGGCCCTGGCGCCCGGTTACTATGGCAATGCCGCCGCTCGCCCCGGGGCGCTAGTTTGGGGCCGGGTTTT
0.4077320875097923 CCTCCCTCCCCCTCGTTCGTTTCCTTCCTCCTTTCCCCGCTTTCCTTCCCTTGCTCGTTCCCTCTTCTCTCCCCCCCTCCTTCGAAACTCAGACCTCCGCCTCCTTCCTCACCACGTGACGCGCGGGCACCCAACTGGCACGCGGAGCCGCGCCCCTACCTCCCGCCCCTACCCGTCCCCCAGGCGCTTCAGGGGCGCGCGCATGCGCGCGGGGGACGGTTCCCGTGCTGCTAGGC
0.8725353363775642 ACCTTAAGTGAAGGTGCAGATCAAGAGAGAGAAACCAGAATTTCACAGTTTTGTTATACGTGCAGCTCCCTTGGGAGCAACAGCACGCCACACAAGGCCACTCAGGTGAAGCCCCAGGTCAGTCACGTGGCAAAGGGGGAGAAGGGGTGGCTGTGGAAATTCTCCTTTCTTGTGGTCTCTGTGGGAGATGGGGGAACATGGCTTACTACTGGCTAATTTGAATAATTTCACTGGGC
0.04847756836817616 AAACAAAACAAAAACCCTGCTCTTCTCCAGCAGTTTCAGTTGGAAAAAGAAGGGACCTAATTGGCCTTATGTGAGTCATGTGCCCATTCCTGGGCTAGTCATGTGACCAGGGGAGCCTAAATGATGATTGGCTCAGACTCAGTCATGTGTCCATCTCTGTGGCCCAGGAAAAAGAACCATGAAGCATCCATCAGTATTGGTTGAAATCTAAATAAAGCCATTTCCAAAAATAAGAT
0.03522782025874312 ACACAGCTCCCCGCCAGTCCCACCGGTGACAGCCACACAAAGGCAGGGTCACAAGCACACCGACCACCCCACAGCCCAGATTCGGCCCCAGACACACACTCACAAGGGCACGTGATCACGTGCGTGGTCACATGGACCGGCCCACTCAGAACACACTCACAAAGTCACACCAACCAAGGCAGCCACGCGCCACACACACACACCTACAACCCCGCATACCGCACACCCAGCCGCTT
1 GTGCCCTCTCAGCATCAGGAGCCGGCAGCTGCCTTTCCCTCCGGCACTTTTCCCTTTTCTCCTCTCTGTGTCGTAGGCGTGCCAATCCCCAGGAGAGAGGCGTGATAGGCCCAGCCTTTGACATGTGGGGAAACACAGGCCTGTGATTGGCTACCGCATGACACCCAAGGGACAAGTTGCTATGGCAACGCGTGGGCGCGCTGTGGGCTCGTAGAAGCCAGGTGCGGACGCTGAAC
0.2788061321569069 ACAGTCAAATTAATTCTAATTATCTCTCTAACAGCCTTGTATCGTATATGCAAATATGAAGGAATCATGGGAAATAGGCCCTCTTCCTGCCCGACCTTGGCGCGCGCTCGGCGCGCGGTCACGCTCCGTCACGTGGTGCGTTTTGCCTGCGCGTCTTTCCACTGGGGCCGGGGCGGCGCGGAGGGTTCAGACGCGGGCTCTTACTCAAACGCTGATCCCCGAAACTACCGAGCAGT
1 GAGATAGACTAAGCTGATTTAAATGCTCCCCGGGGCAGAGGGTTCTGTGGGATTTCCCTTGTTCTTACGGGTGGAGGAGAGGAGGCAGGACTGGAGACCTGCACGTGTAGCACCCGCGTGGTGCAGCACGTGGGTTGCAGATGTTCTAGTGAGGGGCTGGCGGTGACAGTGGGAAGGAGCGAGTTGGTGACATCTAGAGTCGTGTGAGAGGTATGGTGACTGGGACTCTGGATGTG
0.148442730067475 TTCCCTCTGCCTGGGAATTCCTCACGTGTGAGTTTCTCGCTTCTAAGGCAGCTGCCACTTACTGGTTTTCCTGCTCCTCGGCAGCCAGAGCTCAGTCACGTGACCTCAGCTCTGCTAGCAGATATGCTCACGTGGGACCTCAGCCTGCAGTCAGGCGTCTGAAGAAGCAGATGCTGTGAGACCCCCGTCCAGCAGGAGTGCCAGCTGCTGGGCCCCCTCTCCCAGGGGCAGCTGTG
0.8872694166546848 GTTTGAGGATTTGAGGAAAGTTCCGATCACCAGCATTTGGCCTCTTTCTGTTTTTGTCTCACTTCCAGGACCTGATGCAGGAAGCACACTATGACATGGTCACATGCAGACACACGTGGTGCAGGATGGACTAACCTCAAGCTCCACTGAAACCCTGGCTCCCGGCCGACCAGCCGTGGCCAGTGACCACGTGCAGTCTCCGATCTTCATTTGTGCGTCGATGTGGGGAAATTCAA
0.5787129508360027 CTTGTGTGTTAGCAGGTTTCTCTGGCGTTACCCCAGAAGCTCCTAGAAAAGCCTGCCCGGCAGCAAGCCACAGGCCCCGCCACGCCATTGGCCAGGATTGAGTCACGTGCCCTCCCCAGAGCCAATGGGAGCGAGGGGGCAGGGTGACCGGGAATGACCTTAGACTGCCCGCCCTGCGCGGAGGGAGATCCACTACAGGCTGCGCCTCTGCCCCTGCGAGGGGCACCCCTGGGTCT
0.6022277805052986 TTTCGCCCCCTGCACCTCCAGCGGGCTGCGGTCCGCTCCCGGCCTCACTCGAGCAGGCCCCGCCCTCCCAGAGGCAGTTAGTCCAAGTCACGTGATCGTCGACTCAGCTGACCCTGCGGGACCGGAAAAAGAAATTCCCGGGCCCTGGCTTCTTGGCGCGATGGTGAGGCACTAGGGGCGAAGCGAGGCTTGGGCTGCTGGAGCGGGAATGAGGGGGCGCCAAGTGGCTCCGGAAA
0.02960214184811753 CAATTTCATCTTCATGTCAAGGGGCAGGAAGAGAAAAGGGCTTCCTTCCTGGAGCCTGACTTAGGAAGTTGTGTACTCCACTTCCACTCATTGGCCACAGTTTGATCATGTGACCACATGCTAGCTGCAAAGGAGTTTGGGAAATGTAGTTTTATACTGAGAGGTGACATGCCCCTTTATTCTACAAATAGTTATGAAGGGTAGAATAGAGAGAGTGGGACAATTAGCAATCTCTA
0.6390735269300152 AGGGCGCTGGGGCGGGGGTTGGGGTTGGTGGCCAGCTGAGCCTGGTTGAAGGGCGGCTTGGGCCCCGCCCACCACCCCAGCACGTTCGAGGAGGGCTAAGCCCAGCGTGAGGCTCGTTGGCTCGACAGAGGCACGTGACGGGTCCTGAGCCAATCCGTGGAAGGTAAAAGCTGCTTCCTGTTGGGGCATGAGTCCGGCGCGTGTCGGGTTTTGAGCTGCCGCGGTCCCGGGACTGA
0.160253393702911 GCGCCTGCCCCTCAGCTACACCCCCGGGGCCTCAAGGCCACGCCCACATGGGAGCTGCCCCCCCCCCCAACGACCAGGACGGTTCCCACGGGGGCGGGGCTTCACACGTGACCCGGGACAGCCAATCGCGGGCGCGCAGCGGAGGGGCGTGTCGCGCGGAACAAAAGGCCTTTCCCGAGCGGGGCGGGGCGGGGCCGAGATCACGCTGATGCCCACAGGACCGGCACGGCGTGGGG
0.08769172314083397 TCGCTGCGGGGGACAGCGTTCCGAGGCAGTTGGTCCTCTCCGGGATGCCGTAGGCATCAGCTGACCGGCCCAGCCCACGTGACTACAGGGGCACTTGATGGGAATCATGGCAGCATCCAGGCCATTGTCCCGCTTCTGGGAGTGGG
0.1170214559753506 CCGGGTCCCAGGCTCCGGCTCCGGGTCAGCATCCTCGCGCTCAAGGCGGTCATGCCGGACTCCTGCGGACTACACATCCCGGCGGCCCATGCGGCCCCGTCACGTGATGCAAGGATCGCCGGCCTTTCCGCCAGAGGGCGGCACAGAACTACAACTCCCAGCAAGCTCCCAAGGCGGCCCTCCGCGCAATGCCGCTACCGGAAGTGCGGGTCGCGCTTCCGGCGGCGTCCCGGGGC
0.6953332488514674 GCGGTTGGGGGCGGGTGTCTGCCATTGCCCGCTAGCGTTGGCGCCCCAAGCTCGGTTTCACTCCCTCCGGAAGTGGGACCAGCCGGCTGCTTTTCCCGGATGGAACTTCCGCCTGCCATGTGACCGGCGGGTGTTCTACAAGGGCTGACCAGTGGGCGGGACAGAACGCAAAGGGCGATATTAAAAGCCGGACTCTTCCGGTGAAGCGGAGGTGTGGTGGGGCTTGCTGGGATCAT
0.8604225686320941 CAATTGGTCCCTCGCTCATCCAGTCCCCGTAGGCCAATCTTCCCTTCTCATTGGTAGGCGGTGAGTGTGTGGAGAAACCTGACCTAATGGGCGCTGGAGTTCGCAAAACGTGACCCGGAAATTGGTCACGAGCAGGCGCCGTGGGCTTGTGGACGCCTAACTTGCGCGCTGAGATTTCCGGCGTGGGAGCAGAGGTCTGAGTCTTGCGTGGGTCCTCTATATAGGGTGAGAAGCGT
0.7741387256717472 TTGGACCAGGGCCGAGGCCCGGGACGTCACGGTGGGGGGTGGGGTCTCGGGAGGCACGTGATGCGCCGTGATGACGTCAGTGGGAGCGGAGGCGATTTGGCCTAGAGCTGGGGCTGAGCACGTGGGATGGTCGGGGCCTGTTTGCCCAATGTACACGAGGCTGGAGAATAGGGAAAGAACCGTCCCTGTGAGCGCCTCCTCTTCACTCATGCCAGCAACAGGGCAGGGCATCTTCC
0.1545933680117893 CGAATAGTGCAAGCCGGAGGAGAAGCCAGCGACCCGTGGAGGTCGCCATATTGGACCGGGGCCTCGGGTCATGTGGGCTCGCCTCACGTGACTCAAGTCCCAGGGTGGCCGCTTTCAGCTCGGACTGAATT
0.2353290033175215 TCAGGATGAGTAAAATGCAGGAGCACGGAGGTCAGCCCAGGAGGTGGTTACTAGCAAGGCCACTAGCACGGGGTTGGGGGAATGCCTCTCCTTGCATTCCTTTGGCCCAAATCCAGTCACGTGCCCACCCTCAACAGCAAGGGATGCTGGGAAATGTAGTCCAGCCACAAGCCAAGGAGGTGGCCAGGAACAGCCTTTGGCCAACTCGGAGGCCCTGAGTGATCTGAGTCTGAGCT
0.6282101274551649 CTGTGGCAAAGACTTCATACTCATGATCCCTCAAGACCCATTCTCACTTGGTTTTCAGCTGGGGCAAATGGCTACACTGAATAATGACTACATCTCCCAGCCTCCCTTGCAACTATGTGTGGCCATGTGGTACGTTCTGGCCAATGGGATGTGGGTAAAACTGTGGGAAAGTCCTTGAGAGTGTTGCCCTATTTCTCCTCTTTCCGCCTTCCACTGATCTGGATTGCAGGTGCAAT
0.02882519877562884 AGAAAAAAAAAAAATCAACCTGCCAATCTGGTCTTTCCTGCAGTAAATGAAAACTAGCTCTGTTCCTGCATAGAACAGAAGAGTCCAGGCAGCTAAGTCACATGACCGGAGACAAACCAGACAGAAAGAAGTCACGTGGGACCACAATGAACAAGAGGCAGAGACAGGCCGGATGATGGCCAAATGCACAATGAAACTGGAACTGAGGTTCCTAAAGATGCTGGCACAGCGTTGCA
0.07479051651108883 GCATGATTGCACAACTGGCCCAATTCTTCATCTCTTACTGGAAACATGTCACTGTCACGTGATTCTGTGGTCCCTGCCACTTAAGAACCAGGATACAGTTCCTCACCTCTTGACTTTGAGTTTGATCACGTGACTTAGTTTGGCCAATTACGTGAGGGAGACGTGCCAGTGTGCCGGTTTTGGCTTTTGCCCAGGGTGTCTAAGACCGTAGGGAAGAGATTGTCTGGGAAACTCTG
0.1005239046782639 AAACTCCCACTGGACCAGCTGGGAACCTGACAGCTGCTGCACTGTTGGTTCCACTTGCCTGCTGCCGTCTTCTAGGAGCAGAAAGTCATGTGACCCGGGCCTGGCTACTGTGATTGGCTCTGTGATGAGCACATGACAAAGCTGGGCCAATCAGAATCTTCCCTGAGACTTTTTTTGCCAGATAGGAAAAGACTCCCCAACCCTACCGTTGCTAAGCTGGTGCCCATTGGGAACAC
1 CCTGGAGGTGAGTGGGAGCAGTTCCCTCACATAAGAGTCTCAAACACTCCGGCTTCACTGTGCCCAAGAACAGCACGGTCCGGGGTGGTCCAGTCTGATCCCAACCGGCCCACCCGGGGCATCCGGTGGAAGTCTTCGCCGGAGGATCCGAAGGCAGCATCAACGCGGTTGTCTCTTGACACTGCACACAGCATAGCATTTAATCTTCGGATGTTCTAGTCACCACACAAATAAAG
0.929561807603375 GGGACCTGGAGAGACTCAAGGGAAACCAGTAAAGCAAGAGGCAGGACGGGTCATAAATTACATTTCTGAGACACTTGACAGCCCACCACGTGATCTCCATCTGCAGGGCTCCCCAGGAAGCAGGTGATGTCAGCCCCATTTTACAGAAAAGGAAATTGAAAGTTTCAAATGGAGAGTCCAAAGTCTGCCATACTGCTCTTCTGCATCAATATTACACGATTTCTTTTTTCTTTTCT
0.5751260065305789 CAGTGGGGCTGGCTGCAGGGGTGGGTGTTAAGACCCAGGTCTAGCCATTCAAGACAGTTCACCCAGCCTCGCCAGTCTCACTGATTGGTTCGGGTGTGGTCATGTGACACTCAGAAGGGCCAATGAGGCTCAAACCCAAGACATCTGCTGCAGCTATTGGACAAGACAGAGTGTATTGCCTTGGGGTTGCTAGGTAGGATAGAGGCAGGAGTGGTTGGGTGTCACCTTTGCCTCTG
0.01539621375304391 GAAAGCATGCAATGTCCCTTAAAGTACACTGTCCCTTCTACTCACAAAGCAAGTCACTTGGCCAAGCTCAAAGGCAAGGGACCAAGAAGGAAGTACATTCTACCTTTGTGGTCACATGACTGCAGAGTCACATGACAGAGGGCATGCTGTTGGGAGGAGGGGAGTCGATGATTCATATGTTCACAGTCCCTGTCAAGATAGCCATAATACTGAAAATAGCACAATAGCTAACACTT
0.0945984655122469 AAAGGGCAGGGACCACGCCTCTCGCGTTGGCATAGTGCCTAGCTCAAGGCACTTTCTGGGTTAACACTCGCTGAGGACCGGAGTGAACGCCCCCGCCCCAAGTCGTCACGTGACTGACTTTCTCCAACTGCCGGTTTCGGCTCACATAACACACCTACTATCCAAAACATTTCTATTTTCCTAACACAAAAACTATAGCTAAGTTTTTATATTCTATGTAGCCCCAGCCTAGGACG
0.7894858725899931 TTCTCAAGTTCACATTCAGCATGAAAAGGCTGATCACCTCTTCCAGTCACTCAAGCAAAAAGCCCCAGGTTTGCTGCAATGGGCTAGAATAGTTTGACTGTAATCACATGACCACCTCTAAGCCAATCTCTGTGGCCAGGCACCCCAGTGGTTGGTTTAGGCCTGGATCTTGTGACACACTCCTGAACACATGACTCGAGGGTGGGGCAGAGGCAGATCCTCACACAGAAGCTGGT
0.4338701598040343 ACGCCCCACACACCTCAAAGCGCAGCCGAGCCAGCGAGCGAGCGGCGGCCGGCGGGGCCAGCGGGCGCGCGCGCGGTCCGCCCAGCTGAGCCGCTCACGTGACGTGCCTCCCGGCGCCGCCCGCCCGGCGCTGAAGCCGCCTCGGCCGCCATGTTCACTGTGGGACGGTAGCTGCCTCTCCAGCCGGACGCGATGCCTGGAGGCTGCGGGCGCGGTCCTGCTGCGTGAAGCCCGAG
0.7405074143514602 GACAGCGTCTTCCCACTCGCAGTTCCAGAGAACTGATCTAACTGCCAGAGAACTGATCTAACTCCTAGCTTTCCAACAGGGCACATGACTCAGGCTTGGCCAATCAGAGCATTCCTTTCCCAATCTGAAGATTGGTTCAGGGACAGGCATATGATTAAAACTGACCAATGAGAGCTTTTCCTGGTAGCATCATTGGAACCATTAGGAAAACATGCCTTCTTTCCTTTGGGCTTTGA
0.08662341345110196 TCACATGACATGTGAGCCCGGGCGGAACGCCCAAGAGGCTTCCGTAGTCGGGTGGCAGGTCACGTGTCGAAGGCTTGCCCGCGGGGACCCCTTCCACCCTGGCTCCCGCGTCACATGACCGGCTTTAAGCAACATGGCGGCTGCCGTGGTGCAGCGCCCGGG
1 GAGCCAAGCACTTGGGGGTGGAGGTGATAGCGAGGCTGATGGCCCCTGTGTTCTCAGCTCTCTGCCTGGGTAGCCCCTGGGTGATGGGGGAGAGGCCAGCTGTCACGTGGGGTATCAGGTGGCTCTGCCAGAAACTCCCTTGGCACACAGAGCACTGGGTCGGCCCTCGGGTGTGGCTGTTTGGGCAGGACAGCCCTCTGTATGTAGCCTTGAGCAGGTAGGGGGGCCACCTTGAG
0.3975454562338889 TTGGAGGAGACCGAGGGAACCCTGCTCAAGTCTGGGAACTAGAGGCGCGGGAAGGTCCTGCTTCCCCGCCACCCAGAGATCACGTTTCCCAGTAAACCCAACTTCCGGGTCCCATTCCAGGCCTCCAAGCCCACGTGACAACAAGCTCCGCCCTCTGCTGTCCCGCAGATGCCACTCGGTGATTGGCCGCGTCTGAAGCCGCGCCCCGGCGTCGCGTTGCAGCCTTAGGTCCAGCC
0.03970522812012821 CCGGGAGCCCGATGGAAATCCGGTACCCTGAAAACGAGCCGGAGAGACTTGATTGGGCCATTCACGCCTCAGGATGAGGACTGGCCAGTCTGCGCCTGGAGGGCGGGCCGGTCCCGCTGATCACGTGACACGATTTTTGAAAGGTGATTGGCTGTCAAGGAGAGGGCTTGCCACCGAGGAAGGGGCGTTTCCTAGGGGACTGAGGGAGGGCTGGGGCGGTACGAAGCGGGGGTGGG
0.3685667933173339 TGCGGAGACACGTGAGCATGCATCACATGACGCCCGCTCGGGCGGCCGCGGGACACGCTGGGAGTTGTAGTTTCCGCAAATGTGA
0.1115636781459097 CTGCCACGCTCCGCCGCCTCGCCCTGGAACCCGGGCCCGGACCCCGCTCCAGCACACCTGACCCTGGCCGCTTAACAACTCCCGCCCGGCACTAGCGGGACTCACGAGACAGCGGCCATGTTACTCGAGTCACATGACTCTACAGCACTTCCGCCTTCCGTCGCGAGGGCCCGCCCCTCTCCAGCCACGCCCCCACCGCAGGCCGCAGGTGGATTGGCCACGCCCTCGGAAGGCTC
0.1646326886225242 TACCCACCAAAATCTGTTCTGCCCTTGCACAATAATAGAGTTGTAGCTGGGAAGAGCTGGTCCAGCCGGAACTACATCTCCCAGCCTTCCTTGCAACTTGATGTGGCCATGTGACTAGTTCTCACCAATGGGGTTTAAGTGCATGTGACCTGCTCTACTTCGGACTGGGGCAGCTGTGCCGCCTCCTCACACTCTCCCTTGGTTGGCTGGATGCGTGGGGTGAAGCGGCCCTGGGG
0.3774010136192543 GGCGGTGGCGCTGTGCCGGCTGTGACGTCACCTCGCCCGCGGTGGGGCGGGTGGAGCCTTTCGTAGGCTCGCGACTGCGTCAGGGGAGGGCCGTGTGGTCATGTGACCAGGGGCTCCGCTCTACGATCCTGGGGTTGCTTCCTTTCCCAGAGTTGGGGTTTTGCTTTTCTGTCACCTCGGCTTCCGTCGTTTTTTGTCCCTGTACCCTCTTGCGTTGCTCCTCGCATTGCCTGTTG
0.1551365158646198 TCTCTTCTTCCACAGTAATATAACATTAGCTGTCCACCTCCCAACCCCCAGAATAAAGACTACATTTCCCAGCCTCCCTTGCAACTAGGTGTGACCATGTGACCACATTGTGGCCAATGGGATGTTAGTGGAAGGTCATGGTGGTGGCATCTGGGGATCTTACTGGCTGGCAGGCAAGTGCCCTCTGCCCCTCCCCTCTCCACAGTGTCTGTAGCTGTCCCCTTGGACCCAGAGGA
0.4747663199880842 CACTGCAATGCACATCTGCGCTTCTTCATTCACCAGCATCCCTTTCTCTAACAACTGGGATCACGCTGGAGCTGCCAATCATGAAACCCCGCCTCCCTGCCCAAAGGCGTGTGCACGTGACCCAAGCTGGGCCAATCAGGGTCCTCTTAAGAGATTGACGGACACTGAGGAAAGAGGCCTCTCTCTTCTGGGATCCTGACCCAGAGGGACCACCATAGCATGGACCGTTTCTTTGG
0.1536890139925545 TTCTGGAGGGAAGAGACATCCCAGAAGCACCCCCATGCAGACCCGAACCCAGCGACCTCGTCTCACATTTCATTGGTCAGAACTGGGTCACATGTCCATTCCTGAACCAATCACATGCAAAGAATGGGATCACATGATTGGTTCAGATTAATGGTTGGGCGTGGACTGGAAACTGAGCGTCAAGCTCCTTGTCCTCTGCCCTAAAAGACCAGGATTCTATGGGCCTTGCTGGGCTC
0.7494132598022666 AGTGGGTGGGGCTTTGCCAGCAGTGCCCACGGGGGTCATGGGGCCAGGCGCGCTCCGGCGCCTGCAGAACTGATCGGGGATAGTCTCAGGAGGCGCTAGTCACGTGCCCCGGTGATCGGGGATAGTCTCAGAAGGCGCTAGTCTCCTGCCCCGGTGATCGGGGATAGTCTCAGGAGGCACGAGTCGCCTGCCTCGGTGATGCACCGTTTCTCACACCGGCTGCTCTGGCCCGAGCT
0.9732049523792258 CTGTCCGTCCTCTCTCATGAATGAAAGTCCTGGCGCCTCCGACCAGCAGGTGTCCCCGGGGAGCCGCGGAGAGACTGCCGCTGCCATGGCAACCGGCGGAGGCGTAGCTCGCCCACGTGCCCAGTGACGTCATCGGCTTCCTACTCTTCCGAATTAGCTCAGAGCTCCCGGCGGCCCTGCCCCCTCCTGCCGCCAGGAGCTCACCTGGAGAGGCCAGGCCAGCCCTGGGCACAGCC
1 GGAGCCCACTACAGCCCCGCCCCTATCTCCTCCTTTATGGCCCCGCCCAGCGGGTATCCCCCGCCCCCGCTGGCCGATCGGCGATCGATCGCAATGTCTGCGCTCTCCGCGTTCTTCCAGCGCTGTCTTTTTAGTACCACATGCGCAGGCAGGTGATGGCGGCGCTGGTCGTATCCGGGGCAGCGGAGCAGGGCGGCCGAGACGGCCCTGGCAGAGGTGGGTGCTGGAACGCTGCG
0.7892271642106703 GAGCTCATCTCGCCGAGATCCGGCCCCACGAGTCAGGTGGCGGAGGTCAGGTGACAGCGGACCCGCCTCTCCCAAAGTCTAGCCGGGCAGGGGAACGCGGTGCATTCCTG
0.3361815298790473 TCTCCTCTCCAGACCCAGTTTACCCACCACTAACCCTTCCGTGTGGCTCTGGGTGCTGAAACGGGGATGACTTGGCCCGCTAGGTGAAGAGGAGACGGAAGCTTCCTGGCAGTCCCCGCGTCACGTGGGGCCCTACCTAGTCAGCCTCCTAACGCCCCTCCTTACGCATGCGCCCATTCACTGCTGGTCCCCAACAATGCCTAAATCCCGCCCTGCCCTTCTCGTTCCGCCCCTGC
0.0219330745691396 AGAACGCTTAAGTGCCAAAATGAGTAGACCAATAGGGACTGGAGAGGAGGTTGGAAAGGTAGGGACTACGCCAGCGCGGAGGAACACTGCGGGACTTGAGTTAAATCATGTGATCTCAAAGAGGGCGGAGCGTCACGTGGCGGGTGCGCGAAGTAGGGCCGGCTTGGGAGGGCGCCGGGGAGGCGGGGCCGGCTGGGCGACAGCTGGGAGGGGGACCGACGCCTTCCCGGACAGCG
0.1748671051596249 CACCGTCTCTCTGTGTAGGGGAAGCTCCTCACTCCTCAACTCCCCATTCCCTGATGTGTTGGTGCAATGACAGCCAGGAACAGGCACGTGACCCAAAACTGGCCAATTAGAGTACTTCATCCTTCTGACTGCAGATTGGCTCAGGGAAGGGCACATGACCCAATGTATGACCAGTAAAAATCCTCCACAGTGTTGTTTGTTTCTAGCTTTGTGGAGAGTGTGAGACGCCTTTCTGT
0.9180080766794665 TGCGCAGGGGTTTGAGAAGCCCCGTGGATGTGGTGAAATAGCTGTGGGGAGAGTATTTGGCAACGCTCAATAGATTCAGGAGGAGCTACTAGGATGAATGGCTGCCTTGTGCCACAGCTCTACAGGCTTTCACGTGTGTCATCTCACGTGATCTTCTGGGGCGCTGGTGTCTCCGTTTACTAGAGGACCAATCGGAAGCTTAAAGAGAATGAGTAATTGGCCCAAGACCACCCAGC
0.1210162307076501 GCGCCGCCAGCGGCCATGTGCCAGGCCACGCCCAGCCCCCCATGGCCACGCGCCAGGCCACGCCCTATCACGTCCTGCCAATTGCCACGCACCAGGCCACGCCCCCGTCACGCAGCGCCAACGGCCACGTGCCAGGCCACGTGCCAGGCCACGCCCAGCACCCATGGCCACACGCCAGGCCACGCCCCCGTCACGCCCCACCAACGGCCACGTGCAAGGTCACGCCCTCAGCCCCC
0.08116231386922235 AGAAAAAACGTTATAAGAGGTTGGCAGGCTTTTTTTTTTTGCTTCACCAATGGTTTTTATTAAATTGCTGATGGAACCCGTCCTCTCCCTACATTGAGAGTATGGAAGGTGCGGGAGACGGCCGTCACGTGACGCGGAGAAGGCGCGGCGCCCGTGGGAGGTTGGTTGCAGAACTCGGAACCGCTGTGCGCGCGCATGTGTGGGATTCGGTCTTCCTCCCTCAGTGGGTCTTTTTT
0.08366688658988471 AATTCAGAGTTCAAAATGGCCACTTGTTTTTATCCAGGCAGCAGGAAGAAGAAAGGAGGAAAGAATGAAAGCCACCCCCTAACCCTTGCGCCACCTTCTTCTTTCATCTCATTGGCCAAAACTGAGTCACATGGTCTCACTTTGCCACAAGGGAGGCTGGGAAATGTAGTCTTTTAGTTGGGCACATTGCTGCGCTGTCTAAAAATCAGGATTTGTAATTAAAGAAGCAGGGAAAA
0.08392107703487489 ATCTAGGAATATCCCCGCCCATAGAAAGTACTGATTGGAGAAACATTTGTTTTCTCTACGGCTGGTTGGTGTAAGGAGTGTTTCACCACACGGAGATGTGGTCACGTGACTTGTCAACTTTCACCCAGGATGTCTCCCTTCTGACTTCCCCTTAGCAACCAAGTCGCGGCGCTTGGTTCCCCAGCAACCGGGAGACGCGTCTGCTGCGTGGAACCGCCGAGTTCCCAGCGCTTGAG
0.5821373573672897 TAATCGGACTCCTTCTTGCGGGGAGCCGCCAGACACTCCCATCCAAGGCCTCTTTCTCATGACTTTTTAATCTCCTGCTCGGAAGTCTACGAGGACGCTTCCGGGTCACGCGGCGCGGACACCAGGAGTCATGTGATGTCAAGATGGCGGCGCCGCGGTAGCAGGATCCGGGTTGTGGCGTCCTAGGAGCCGCGACGGTTTCTGCCCTCGGGCAGTGAGGGGCAGCAGCGCTTGGC
0.6666122637037105 AGAGTAAGCCTCTCCAGTCCCGGCGCAGGGATGGAGACGGTGTTTCGTGGGCTCCGATTGGCTCAGTAGCCTATCTTTGGAGCGAATCAGCGAGCGGAGAGGGATGAACTTCTCTGACTGGCCAGATCCAGTCACATGCCAACATGTGACGCGTGGAATCTACGCCAGCCACAGCAGAGAGGTGGGGGTTGTGACCGGAGTTAGATGCCAGCGCAGAAGGGACGTGAGCCCAGCCG
0.4976102204970374 CGTGGCCGCGCTCGGCTCCCGCACTGCTCACTCCACCCCCTACATCCCAGCCCGCTGCCAGAGCCGGGGAGAGGGCGGGGGCCGCGTGGGCGAGGCCGTGAACAGCGGCTGTCACGTGGGCCGCCCAGGCCAATAGGGGTGAGGCTTTGGGTCGAGCTCAGTCCTCCCCCGGCGCCTCCGACTGGCAGTGGGACTCAGCGGGCGTGGAGGTCGCGGCTGAGCGAGCGAGCCCTGGG
0.3740195495962009 ATTATCAACAAGCCGCCCGCCCGGAGTTCCGGTCCTTCCCCGCGCTAGGCTTCACGGGAGGTCAAGCGCCGGCCCCGCCCCTTTTCCCCATCCCCCTCCCGCGGGTGCAGGGGCGCACGCCCGCATCGCCCACGTGACCCGCGCGTGCTACCCGCGCCTCTTTCCCGGGCCCTGGGTGCCTGGAGCGAGCCACCGTTCCTGCAGCTGTTTTGTGGCGTCTGTCGCCGGCCCCCGGT
0.4456364310178297 ACCGCAGGCGGCGGCGCTGAAAGTGACACTCGGCGGCGGCGGCAGCAACAAAAAGGGTGGGGGGGGGGCCAGGAAATCAGCTGTGAGGTCACGTGCGGCGCGCAGCCAGTGGACGCGCGGCCTTTTTGTTTTGATACATTCCAGTCACCTCTTAAAGGGGCCGCGCCGGCCGCGTTCCTCTCGCAGCCCCAAACAAAACAACACGGGCCGCCGCCGCGCCGCGCCGGCTACTTTTC
1 TGACCCCGCCGCTCCACACCACCCCACTCGCGGCTGAAAAGCTGAAGGCAGCCGCACACTCGCCCTTGCAGCTTGCCCTGCAGCCCGCGCGGCCATGTGAGCAAGCGCAGCCAATCAGAGGCTCGCCCTGGACTCCGTCCCGGGCTGGGGGGCGTGGCTGGAGGGCGTGGCCGGGCGGTACCCGCGGCGTCTCTGCGCTGCCGCCTTTGCTTGCGCGGCTGTGTAGGGGGTTGTGG
0.3313705575931035 GATTATTCGCTCCTGTAGCAGTCAGTGGTTCACGGTGGCGACGGCGGACTGAGTTCTATCCCTTTTCTGCCCTGCCGGGTGTGGGTTCATCCACTTCCTCGCGCCGCTCGCACCCCATTGGCAGTATTGGGTCACATGGCCAGCCGTGGCCGCAAAGGACGTTGGGAAATGTAGTCTTCATAAGGGAGCCAGTCGCTCCCGGGACAGTGGGGTCCACGGCTGCGGGAGGGGAATAG
0.05455020446797133 TGACGGAAAAGATGCGTCCGCCATCCCTTTTGCTCCACCCCTGACGTTGGCCTCGGCCTTCGATTGGCTGCTCCTCCCACCAGCCCCGCCTCAGGGGCGCCCACGTGACCCGATGGCCGCCGTGGGATTGGTTGTTCGGCGAGAGCCGCGCTAGGCTGTAAGACCTGAGCCGGGCGGAGAAGCAAAGGAGAGGGAAGCTGGAAGCACCTTTGGCCCGGGACAGAAATCTGGAGAGC
0.5785605128931367 GATGGTGGAGGATCCTCCAGAAACAAAACCTCACCTCGCTTCGACATCTTGAACGCCGGAAAAAAGAAAAAAGGAAGTCGATTCAAAGGACACTGGGATATGAACTTTAACGCCCCGCCCACCCTCCTCACGTGGCCGGAGCAAAAACCGGCCTCTTCCGCCTCTGGGCGCTGCCTTATTACGTAATAAGTTTACGACGTCGCTTTTAGCCCTCTCTGCGAAGTGGGAGTTGAGGT
0.9428504244650441 CATTCAGGTTCCTGAATCCTGGGTTTACCAGGGTACAGCTTTCTGCCATTTCTGTTCTGGTCTTGCTTTGTGGACCACAGGCCTGGCTTCCTTCTCTGAAGCATCACGTGCTCCATGCTGGGCCAAGCCCAGTGCAGGACCCGTAGGGGCACGTGGTTTCTTCTGGCACTTTGCCAGGGAGTTGGGCCCACCCAGTGAGTGTGTGAGTTTGGTGTGCAGGGAGGCCTCTATGTTCT
0.5403334254041189 ATTTTTTCTCAGCTAATAAAACATCCACCCACAACCCCCCGAACGCCCGCAAACACCAGGCCACTCTAGCAAAACCTCTCTCACTCCGCCTGCGCAATCCAGCTGACTTCCGGTTACAGATAACCACGTGATTGGGAACCCTTGCTGCGCATGTCTAGTAGGAAGTCGGACTATACCACTTTCCCTACGGAAGGGGTACTTTTTTATGTTTTTAAGTTTAAAACCGATTTCTGATA
1 CCACATTCACCCTGAAGGGGGCACTTTTGTTCAGTCGTTAGCTGGTGCCAGCTGAAAGCGAGCTCCAGGAAGGAAACATAACAATTGGTCACATGTTGGGGTGAGGGTTCTCGCAGGGGCTGCTGGGACAGGGAAGGGAGGTCCACGTGGAGTGGGCGGAACGCGCTGAAAGTTTTGGCGGGGCTAGCAGAGGGAGAAAAATACCCAAATTTGAGTTGTGATTTTTAATAGGGGGA
0.8729005963669302 CGGGTCCCCTTCGGCCCTGGAGCCGGGGTCACACGCTCCCCACCGCGTGCGGTCACGAGACGCCCCCAAGGGAGTATCCTGGTACCCGGAAGCCGCGACTCCTGGCCCTGAGCCCGGGCTTAGCCTTCGGGTCCACGTGGCCGGAGGCCGGCAGCTGATTGGACGCGGGCCGCCCCACCCCCTGGCCGTCGCGGGACCCGCAGGACTGAGACCATGGAGGCGGTGGCGGTGGCCGC
0.6835538723848218 GGCTAGTCAGTCCCCTGACCCGGAACCGCACTGGTGCCGCCGCTAGCCGGCTGCCCACGTGCCTGCAACAGTGGCCACGTG
0.7825664109660899 AATGCCCCAGACACGCGCTATCATCTCTAGCAAACTCCCCCAGGCGCCTGCAGGATGGGTTAAGGAAGGCGACGAGCACCAGCTGCCCTGCTGAGGCTGTCCCGACGTCACATGATTCTCCAATCACATGATCCCTAGAAATGGGGTGTGGGGCGAGAGGAAGCAGGGAGGAGAGTGATTTGAGTAGAAAAGAAACACAGCATTCCAGGCTGGCCCCACCTCTATATTGATAAGTA
0.5429776378798643 GACGAGTAGCCCAAGACGTGGGCTGCTCCAAAGAGGGTGAGAGCTGAGGATGAACGAATCTGATCAGGCGCCTCGGGACCACCCTGAAAATGGGGGGAGGGGCCTTCGGGCAGATCACGTGGTCAGGCTGTTAGCGCAGTTGCTAGGCAACCACAGCTGCGGGCGTGGTCTGCGCGGGGTTGCCCTCCTGTTCTGGTTTATCAGGGGATCCCCAAAGAAAGCAAGGGGACCAAGGC
0.2725504866244768 AAAGAACTCATAGCCATTAATTTCTGGGAATTGCCCACAAAATATACTAAAATTTATTCCGACCCCTGACTCGTTTTCCTGTTTCCGAAAGCCCTCCTACTTACTGTCAAGTGAACAAAGTTAGGCGCCCACGTGATCCTCCGAGCCAATGGCCGCCCCGCCTGCGATTCCCGGATAAGGAAATCTGCTCACCCGGACCCCACTCCAGCCAAAGAGGTTTATTTCCCCTTCTTCCC
0.4154545568483607 ACATCCCAGGGGCTGCTGATTGGCCTGTACAGAAGAGGGCTGGTTCTCCAGCGCCACCAATGAGAAGACGCAGAATAGGGGAGCGTCACACCCAGTCCCAGGTAGTATGCAAATATAATGTCACGTGACGTCAGGCTGAGCTGGAGAGTGGGCGCGGCGCTGGGTGTAGGTTGGAGTCAAACACTAGTGAAATAATTTTTGGGGGCGGGAGTAGGGAGCAGTGTCAAACTTTACAC
0.8340062822134732 AGGAGTGAACACAGGGGAGGTGGGAACTCGGCGCGGCCTCCCCAAAACAACAGGCCGCCCCGGCAAAGCGTGGGTTAAGGGGGCGGGCCCGGGGGAAGCCACGTGCCGGGGCGGAAGGCTATTGGTTCGCCCGGAGTTGTTTGTGAGTGGCCATTGGCGACGTCGAGGCGCCATGACGAGCCGATTGGCTGGGCGTTGGAATGCCCGCCAGGGCAAGGGTAGGGAGGAGGCGGCCG
0.5089301903068392 CCAATGTTACTAATACTTCTACAGAGAAAGGACCCACCCAAATCCCCAACCGCCAAGGAACCCGTCCGTGCTGCTGAGGCAGGAGAAAGACAAGTGCTCTTCAAACGCCCTCACTCACGGCTCCACCCAGGATGTGTCACGTGACCAGCGACACCGTCCCTCAAACCTGGAGTACCCCACACACTTCCCCTCGCATCCAAGGTCCTCCGCGGGGATCAGTGTCACCTCCTTCCCTC
0.2493182130068286 CACCCGGAAGATTGGCCCTCCCGGAGGAACTCCCACACGGGGCGGGGCTGGGTAGGGGAGCGGGAGTTACGTAGAGGGAGGGAGTGCTGGTCACGTGGCAAGAGGCTGCGCAGGCTCCTTCCGGCCCCCGGGGCTTCGGCGGCGGCGGCCCGCGAGGGGCCTGGGCGCATGCGCAGCGAGGTTCCACGTGAGCGCCTGCGTTTCTCCTCAAACCTAACGATGCCGCCGGAGCGGAG
0.3829393093268467 CACGTGGCTTCTACAGATTCTTACAAGAAGTAGAAAGAACATGGAGGAGCACACACGGGAGGCATTCCAGCCAGGCCCAGTGGGGATGGAAACATCACTTCCGCCTTCATTCCATTGGCCAGAAATGAGTCATGTGGCCATCCCTAACTACAAAAGAGGCTGGGAAATGTAGTCTAGCCTGTGCCCGGGAGAATGAGGAAGTAGGTTTTGTGTATAACCAGCCAATTTCTGTCCCA
0.2911676310648421 GCGCCGCCTACCCCCATTTCGCCATTTTTACCGGCGCGCCCGCCCCGAGGCGCAGAAGTAGGGCGAACGGTGGCCGCAGCTCCTTTCTCCCGGCTCAGCCGCCGGCCAGCAGCCGCGCCGGAACCTCGGCCCACGTGACGCGGGCGCGCGCCTATGGAACTGACGGTGGAGTTCAGCGAAGAAGGTGCCGCAGAGAATTCGCAAACACCAACCGTAACCAGAGCAGCTGGGGGCGC
0.8344863499010532 AACAGGACACATTTTCATACACTTTAGTACCATTTGAAGACTCTGGGTGTCAGTTGTTGCTGGGACCTGTTTTTGACTCTGATGAACCTTTACTGGTTGTGGTTTGTCTGGCCATCACATGACTTCTCTGAAAATTCCCCCTCCCCTTCATTTCCAGTAAACTGTTTGAGCAGGAGTGAGTCACAGTGAAACCAGCTTCCCTGTAACCACAGGGCTTGTTAAAGAATTTGTCAGCG
0.3512296888835202 ATTTTGTGGGCCCAGCGGGCGGTGTTTTTCCCCCTTTAATCCGAATTCACGGGTTTTCCCTTCGCTTTAATGGCGGCCACAGGGACCAGCTCGCCCTCTCTGCTCACCCATTGGCCGCCTTGAGGTCACGTGGGCCCGGGCTCGGTTGGGAGGGGGAGAGAGAAGTGAGCGAGGGAGGGCCGGGAAGCTTTCGGCGGAGGCGGTGAGCTCGGGGGACGGGGCAGCCAGCTGGTGGC
0.9253003913676485 CGGTGGAGTCGCTGAAACGCAAATGGATTTGAGACTGAGCGACTCCCATCTCTATGGTTGGTATGTGACCCATCTATCCTCTGGAGGACTCAGCAAGGACTACCAGTCACCAGACAACTTTACGCGCACGTGGTCGCAAGGTGAACTTGCTATTGGTTAATGGCAGTAAAGCCCGCCCATCAGCGCTGGTCTGCTCCTTTAAAAGAACGCCATCGACGCTCCCCTGTCTTTCAGCG
0.4873596802538222 TCCCAAGCCCAGCCCCGCCCACCCTCGCCACTCGGAGATGTTTACGTCTCCAAAGAGCCCTCACGTCTGTAACCAAAAGAGGGGGAAGGCGGGGCCTGGCGTTGTCACGTGGCTGTACCACCCCGGACCACCGAGAGAGCGGTCCGCACTACTTTCCCGTTGACGTCGGCGGAGGGATACAAAACGAAATAGCTCACCGGAAGTGCGCTGCTCGCACCCCGGGACCCGCCCGGGCT
0.629593100129575 TGTAAGAAATAAATGTGTTTTCTTTACAAATTACCCAGTTTCAGATATTCCATTACAGCAACAGAGAACAGATGCCAGCTCCCTTTACACATCTCCTTACACCCCATTGGTCATAAGTTAGTCACATGGTCACAAATGACTGCAAAGAGTGCTGGGATATGTAGTTTTATTATGAACAGCCCTGTACGATGGGAGGATGTAGGAGTGGATGTGGAGATTTCTGGAAATCTCTGTTC
0.3388003087423131 AAAGGAGCTTATTTTACTTAGCCGCGCCCCTCTCGGGAGGCTCTCGTCGCTCACTGATGACGCAGACGCCCTTGCCATTTGATTGCGAATCCTCCCACGTGACTTCGTCCTAGCCAATCACGAGTCCGGCTCCAAGCGAGCCTTCCCGCCGTTGGGAAATAACCAGAGTGCGGAAGTCTGGGGCGAGGGAGCTCCTTCCCGGAGCCCAGCAGCCTCCTTCTTCGACCCCGGGTGTT
0.3482787638160749 CTCTCCAACAGGGGTCCCGAGACTCAAAACGCAATGAGCTTGCGCCCCTCTTCGCCCCGCCCCTAGTGGCGTCTTCTTATTAGAGTCAGCCAATCAAAGCTCGAGTGCGGAGGCTGGCCCAAACACCTGACCCGAACGTCACGTGGTAATAGTTTACTCCCTCCTTCCAGTTCCTCCTGCGCAACAAACAAGATGAAGACTACAATTCCCAGCAGGCAACGCCCCCGCAGCCTCGG
0.9409654644636969 GGTTCCTGGCTTTACTCCCTGTGATATTTCGGGCCCAGGAAGGAGGGGGTAGGGCCCGAGTCAAGGGCTGCACAGACAGCAGCTGTGGCTCAGGAAGGAGCCCCTCTGGGAAGTGAAACTGACCAGAAAGTGTCACGTGGGTACATCTGTTACCTACGGCAGAACAGTGAGCCCCCAGGCCAGCCCCCTTACCTCAGGCAGCATGCTGTCCTGCTCGCCAGGGGCCTGGGTCTCTT
0.7773956895090188 GGGCACACACACTGGCCGGAAGGTTTCACTCTCTTCACCTCAGTCATGCGGGCCGGAAGATTTCACACCCTTCACCTCAGTCACATGGGCCGGGAGGTTTCACACGCTTCACCTCAGTCACACGGGCCGAAAGGTTTCAGACCCTTCACCTCAGTCACATGGGCTGGAAGGTTTCACACGCTTCACCTCAGTCACATGGACATGCACACTGGCTGGAAGGTTTCAGACCCTTCACC
0.230663709368427 GGGGCTGGGCTTGGGCTGTGCTCCTGTTGGGTTTCCATTAACCAGGGGACCAGCTGGGCTGCTGTGATTTCACTTTCGCAGAAAATGAAACTGAAGCCGTGGTCACGTGACAGGACATGTAGTATATAGCAGGCTGCCAGCGACTCCTGCTCTTGCTTCTGGATCTGCAGGGCAGTCCCAGCAGGACCCATGGAGTGTCCTTCGTGCCAGCATGTCTCCAAGGAGGAAACCCCCAA
0.3778367388983399 TTCCAACCGCACGCCGATCGCCGGCTCCACCATAAATAGAAACGGGTGGTCTCTAATTGGCCTAGCTCTAATTGGCCTAGCTGTTGTCACGTGCTCTCCGATGGCCCAATCACTAAGGCTGGACGATGCTGCACTGTGAATGGCCAGGCCCGAGTCATGTGCCCGGAGAGGGCGGGGCTGGGCCCTTCCGCTCGCCGCGTCTGGCGATCGCGGCTACGGAGACCCAGGAGGGCCCG
0.6325405564115095 GAGTAAGTGTTATCTTTACTTTGTAAGCTGTAAGGGCCCAAATCAATGTACTTGGTAAAACTATCCATAGTGAACACACGCAAATGTCAAATGGCCATCATTTAGCATCTGCCCTCGGGCTTCCGGGTCCATCACGTGGTTACTGACAGGCAGGCCGCGCATGCGCGCTGCTACTCCGCCGAGCCTACGTGACACGACGTCAAGTGGCAATGGCGGCGGACGAGGGCTGTGCCCCC
0.3047644076506647 GCCAAGTGAGGGCGGGGCCTCGATTTTCTAGTGCCTCGGGCGACAGGAGCCTTACTTTGTTTTAAAAAAAAAAAGTTTCTTCCGGTCCCCATGGCAACCCTGCGGCAGGTCACGTGGGACTGAGAGCCCAATTGCCAAAAAGGAATGTTAAAGTGCAAAAAAAGTCTAGGGAATGAATGTTTTATAATCCCCTTTTGATCACTAGTAGCACATCTCCTTTGCTTACTTACATCTCC
0.5706484142158311 GCAGCCCCGCGCCGCGCTAGGCCGGCCTGGAGGGCGGGACAAGCGCTAGAAGCTCCCGGCCGGGGGCGCGCACGTAGGCACGCAGAGGCCGTCACGTGGGTCGCCGAGGCTCGCAAGTGCGCGTGGCCGTGGCGGCTGGTGTGGGGTTGAGTCAGTTGTGGGACCCGGAGCTGCTGACCCAGCGGGTGGCCCACCGAACCGGTGACACAGCGGCAGGCGTTAGGGCTCGGGAGCCG
0.3305331806748761 AGCCGCGCCCACTAGCAACGTGCTCGCGACCTCCAGTGCCCGCTCAGTGAAGCTTCTGCATGCCGCGCGCGGCACGTCGGGACTCGTAGTTCCGGCGCGGAGGACGTGCGTCGCGGCACTCTCGCCTGACCGTCTCCACGTGACTCTCGCACCTCCGGAAGTGACGTAAGCAGACACGCGTGGCGCGGGCCGCCGTTTCCGCAAACAGAATCGCGTTTGGCTGTGCTGGTGAGTGT
0.2906314784637594 GACCGCCCTCGGGGAGAGGGGAGGAGCCTCCAGCGCCGGGCGGGGCGTGGTTAAGGCCGGTGGGCCCCACCGCAGCCAGACGCTGCCCGTTTAAGCGCAGAGGGCCGCGGGTCACGTGGTGGGCGGGGTGGGGGCGTGGCACCAGGAAGCGGCGTCCGCGCCGGGCCCAGAGCCGCAGCCGCAGCCGCCGCTACAGTCCGGGCCGGGCTCCACCGCGCATCCTGCTCCACTCTGGC
0.5692854542317132 ACGGCAAAACCTTGGTCACTGCCCGGCCGGAACCGCCATGTTGAGGCCGAACCCTGACCAACCGGCAGTACTACTCCCAGCTGCCCCCGCGCGCGTCCCTCACGTGACTGTGTTAAAGGAGACGGTAGGGGCAAGGGAAGAGAGCTGAGGAGAGGGAAGTGAAAAACGACGGAGGCCGGTTGGGAGGCTGGAGCCGGAAGTGTTGTGACGGAAGCTCCCTGGGCGGGGCGGGGCTA
0.7248417114016188 TCTATATCTGTCCAACACAAAAGCCACAAGTCACATGTGGCTGTGGAGCACTTGCAATGTGACTAGTGTGACTAAGAAACTGAAAATTTAATTTATTTTTAATTAACATAAATGTAAATAGAAAGAGTCACATGTGGCACTCTCGTAGCTACTGTATTGGCTAGAGTGGCTCTAGTATATGCTGCCAAATCCCACAACTGTTATCTCAGTGCTACAACCCACTTCAACAGCCGCCC
0.2991611616598915 GCCAGGAGGCGGCGAGAGAAGAGGGAAGCGACCGAGAACGCGGCTAGGGACCAGACCCCCAGGCGCGCGCGCCAGCCAGGTGGTCACGTGGCACGCGGCGCGCGCGGGCTTCTGGAAACTGTAGTCCTTTGGGTGTTATTCGTGCCTCCGCCCTCCTAGTACCTCCTGGGCTACCGCAAAGCCACGTGGCGAAATCGAGAAGCGCAAAAACAGCCGTGCGCGGTGGCTCACGCCTG
0.5265739635268095 ATCACAGTTGGGCTCCCATTGGCTCTGAGATGTGGGCGGGGTCACCACTCCTGGAGCTGCCACTAGCTCCACCCCATTCCATGCAAATGAAGTCAAAGCTGTGGTGAGTCCACGTGATTAGTCACATGGTTGATGACACACTCTCCCCACCCCTTTAGTGACGTCATTGCCCACTCAAACTCTCACGAGAGTTTGCACAGATGTGGAAAGGAGCTGGCAGGGCAGTTCCCTGGGAC
0.6057569797797449 TACTTCCTGATCCGGGCGTTTAGGTGCGTCAGGCGCACGTGGGCGCCGTCTCTCAGCCTTGGCCAATTAGCGCGCGCCTA
0.7979089421300674 GCGGGACCCGAAAGCCCAGCGTCGACGACGCAGCCACTTCCGATTCCGGTCGGAGCACCGCCCCGTCCCCGAACACGTGACACACACTTCCGGCCTCCTCTCCCGCCGGCCCGCCGCTCATCGCGGGGCTCCGCCCCGTCTTAAAGGGATAGTGCCCTTGAGACTCGGATCTCAGCCTCTCAGGCGAACCCGAACCTGGACGCGCTACGATGAGAGCGAGTTCGAGTCCAGGCTCC
0.5342241700960091 TCCCAGCGGCCGCCACTTACCACCGAGGCCGCCTCTTCGTCCACAGCCTGACGCCAGCCACCGCCGCCGCCGTCTCCACTGCCGCACGCACGCCGCCACTTCCGCTTCCGTCCGTGCTGCGGCCCCGCACGTGACGCAGCGCCTTCTCGCGCCCAGACTGAAGCACCGCCCCCCCTTAAAGGGGCCGCGGACTAGAGCTAGCTGGATGCAGCTTGGGATCCCGGCCTCGCCACCGC
0.017420609324554 TCACTTTGTACTCACGCTCTGCCTCCAGCTCGTCCCGAAGGGCCTGCCGCGCATGCGCACGAGGCACCCGGCGCGTCTATACAGCGTGTTGCCGCCGGGGCGGAGCCCGGTCGCATCACGTGACGAAGAGTCAGCTTGTGCAACAGCGTCGGAGGCTCACTAGAAAAAAAAGGGCAGGGTCCCATGCATCGCCTGGGTCCTGTTTACACTAGCTACACTAGCCAGTGACCTTTTTC
0.1579018084282943 TGGCTGACTCCAGCCGGTCGCCGAGCTGACCACGTGGTGCTGGGCCGGCCACGTGGTGCAGCCGCGTTTGGACACCTGGACTCCAGAGCG
0.3909911017333428 ACCATGGTGGCGGATGGCGGTGGATTCTCCCAGGTAGAACCGAAAGAAGCGAGTCGCGCCGAGGATGGCGGCGACGACGGCGGAAGAGAACGCTGACGTCAACACTCAGCTTTTTATAGGCGGACGCCGGTTGGGCGGGTCATGTGACTGCGCTGCGAAGGCGGGGCGAAGGGACGCCGCGCAAGCGCACGGAGGCGTGTCCCCCCGCCCGTTAACCCATTCGGCGCCGGCGCGGC
0.2648506485564071 CCCGGGTTCAAGCGATTCTCCCACCTCGGCCTTCCAAGTAGCTGCGATTACAGGTGCCTGCCACCACACCTGGCTACGCTTGCAAATATGAAAGACTACATTTCCCAGCAACCCTTGCAGCCAGGTGTGATCAGGTGACCGTGTTCTGGCCAATGAGGTGAGTGGAATGCTGGTTGTGACAAGGGACACATCTTTTTGTTTTGTTTTTAGACGGAGCCTCACTCTGTCGCCCAGGC
0.9146034462131478 GTCTCTGGGTTACGCCCCTTGGGTCTGTCCGTTATCCAATCCCGTTAACTGCTGTGCTCCAACCTCTGTTCTTATTGGTCGCCTCCCTTCTCTGTCCCCTGCACGTGGTCCTGATCGACGGCTTTGCCGGCCCGTGACGGCCGGAGGGCTGAACTTCCGTTGGCGCAACGCCCAATAAGCGCGCGTCGGCAGGCTGCCCAGACAGCCTCCCCCGCCCCCTCGGCGTCCCGCTCCCG
0.8879535678381741 GGACCCTCAGCGCAGCCACTTCTCCAGGCACTCGGCAGAGAGAACGCGCGTAGGCGTTGCCCTGGCAACGCCGGGATGCCCAGCAACAAGTCCGCGGCGTGTATCACGTGCTCGGCGCGGACCAATCCGAGGGCCCGCCGGGAAGCAGGTCAGCCTGGGCCAAAGTCCGCCTCCTCCCTCGCGGCGAGAGGCTCCCAGCTAATTACCGTAATTGCGGTGGGAGAGCTGCCGGATGC
0.5957870680377547 CCTCCACCTTTCCTGGTATTAGAACCCCGACTCGGGAGGCACACGGCCGTTCAGAAAGGACTACATTTCCCAGGGTTCCTTGCGGCAGGAGCAGGGCCATGTGATTATATTCTGGCCAATGGGATGAGGGCAAAGGCCGGTCTATGCCCTCCAAGAAGAGGCGTGCACTTCCCGCTTCCTGTTCCCTTTTGCGGGAGCGGGAGCCACGTGTTTTATAACAAATAGCCAGGCAGAAG
0.581816755011916 GCTCGCCGCCATAGCCCGGCCATACTGGCGGCTCACACAACTCGCGTCATTTCCGCTCGCCGCGAAACGCACGTGACGCCCGGCGCGTGCCTCGGTACCCGATGGGCGCGTGGCTCGAAACAGCCGCTTCAGGGAGCTGGGCCTACGCGGAGAAGAGGGGGCGGAGTTCGAGCATCGGATCGTCTCCGCCTCTTCCGGTCTCCCACTTTATGCGCTGAAGGCCTTTTCCGGTCACG
1 CTTCAACCCCAAGACCCGCCAGTAACGGCCGCTGGCAGAGCACATGCGCCGTACGTCCATATGCAGGGACTACAATCCCCAGTATGCAGCGCGGGCCTGGCCTCAAATCCCACCTGCCCTAGCATGCACGTGGTGTCCTTCGCGCATGTGACAGGCCCCAACGTGCACGATCTCAGGTACCTCCGCTGACCACCCTGCAGGCGGAAGAACGGCCCGGAATGAAGAGCCGGTGGCTT
0.4035998430357188 AGGAGCCAGTGTCAAATCTGATTAGTCAAATCTGATTGGTCACCGCCTGTCTGGTAGCGGGTTGTTTGCCTGTTTTGAATAAGACCCCTGGCAACAGGTGATTCAATTCTCTCGTCCCAGCTGATTGGGTCAGGTTGGACACGTGACTTGAGCTGGGCCAATCAGGTCTCCCCAGAAATGTGGGTGGGCTGGACCACAGAGGCTAGAGAGTGGAGAAGAGGAAGTTGTGCAAAGAC
0.1558152494808355 GGGAGTGAATATTATGGTATGTAAGTTACAGCTCAATAAAGCTGTTTCTAAATTAAAAAAAAAAAAAAAATCCCTCATGCCCAAGCCAATCAGCATACAGCATTCCTCTGGTCACATGATTGGGCACTGGATGTCACATGACCTCAGTCTAGCTGGGAATGCTGGGATGCACTCTGTCTTCCTCTGGGTTTGGCACTGCAAAGAAATGAGGTTTGGAACCACTACAACCACCGGTG
1 AGTGGAAGAGACAGGTCCGTCTGGAAGGGACAGCCAGGACCCGGTGCAGAGGCAGGCTGTGGTTATCTGCAAACAGCCCCCTTCCTTCCAGCATGTCACGTGCTCCCGCCTGAGCCTCTGGCCGCAGGAATCAGGTGACCCCAGGCAGCGGGCCAGGCTGCAGGGGCGGGTGAGTGAGTCAATGTATGCAAGTGTGTGTGTGTGTGTGTGTGTGTGTGTGTTTTCATCTCTGGGAG
0.4555346944578727 CCGGAAGTGCCCCCAGGTCTGTTCCACCAGGTGCCCCTGGCAGCCTGCAGTAGAACCCTGGCACTCACGCCTCCCCGGGCCATGGAGGCGGCCATGACATGCATCACGTGACTCACCGACTGAGCATGCGCCGCGCCAGGGAGGCGAGGGAAAGCCCATAATCAATGGAACATAAGCGCAGATGTTTGCTTAGGGCCTGCGGTGACCAGGTGGGAAGAGCAGGGCGGAATCCATCT
1 TCATCTTCTCAAAAACAGGTAAAATGGGGCGGCCTGAGGTTCAGCAGGAAGTGGATGTGGATGTGTGGTTGCCAGGAGTTGCTGGGGGCGGAGGGTGGAACTTGGGTCCTGGGCTGTCATTGGACATTGAATTCACGTGTTCCACATGTGTGAGGAAATTGAAAAACGGCTCAGTGAACACTTACACACCCACACTGCAAGCCCTCAGCTGTGACCAGAATGCCAGGTGCCATGTG
0.1103599818970865 GCAGGACAGAGGAAGGGACAAAGGAGAAAGGGTGCAAAGGTCACATCCAGGTGTTTGTTAAGAAAGGTTCCCGGTAGCTGATGCAAGGTGCTTCAGCTTTCATTTTGTTGGCTAGAATGTAGTCACATGATCACTGCCAGCTGCAAGGGATGCTGGGAAATGTAGTTTTCAATCTGAGCGGCCATGTGCTCAGCTGAATTTAGGGTTCCAGTTTCCATGGACAAAGAGAGAACATA
0.1558515307293886 TGATTCAGAATTACTTTTATTATTATTAGTGGCAGAGACTAGCTAGTGGCCCTTAAACAGCTTTGCCCTTCCTGGGTGTACAGCTAAACTAAGTTTCCTGGCCTTTCATGTGACTGGGGTCATGTGACTGTTTCCAGCCAGTGAGGTGTGAGAAGAAGAGAGGAAGCCCATTTCCAGGCCAGATCCCTCAAATGGCCCATTGAGGGTCATTGCTGCCCTTTTTCTTCCCTTGCTGA
0.01956148904943531 AGGCATAGCTGGGGCCCCGCCTCATCCCCCGAACTGGTGAGGAACCGGCGGGGCCAATCTGCGCGTGGCGCCACAGGGCTCCCCCGGGCACGTGCCTGAGCTCGCGGCTGCGGTCCCCAGGGTCACGTGGCTGCGGCCACCAGGGCCTACGCGCCTCGCACGCCACCTAGCGGCCGCGCCTCGCTCCCCGCCCCTCTCTCTAGCGGCCCGCAGGAGGCGGCGGCCTCAGCATCCTC
0.4248843863833035 TACGGCGGCCCAGAAACGCGTTAAACCCCGACGCGCGCGTCTCCGCAAGAGCACAGGAAGTAGGGAACGTGCTTTGGGCGAAAGACCGGAAGTTGGTTTATCACGTGACCATTTTTAGCCCCTGTAAACCAGGTCGCCGCCATTTTTGTGCGTGTGTTCCGTAATACGGAAGCCGCGAGGAGCCTTTAGGCCCTTTCTTTCTTTTTTTTTTTTTTTTTTTTTTTGAGACGGAGTCT
0.7250252022713257 GAAAATATAATTTATATTTCTCCTAAAAGGCAAGTAATGAGGAAATTAACTCATGCTCCTAGCTTCGCTAGGAATGTGATAGAGAATTTCCCCTGTAGGTTCTTCGTATGGTGCGCTCCGCTGGATCACGTGAGCCAGTTCCAAAATGGCGGCAGGGGTGGCCGGGTGGGGGGTTGAGGCAGAGGAGTTCGAAGATGCTCCTGATGTGGAGCCGCTGGAGCCTACACTTAGCAACA
0.4331769879613014 GAGTGGGGACACCAGAGTCACTTTGCAGCCCCGTGACGTCACCGATAACGGGCATGGCGTCACTCAGGAGACCACGTGTGCGGGCCGAGCAAGAAGCCCCGCCCACAGCGCGGAGTTTAGTCTGCGCGTGCCTCGCTCGAGAACGCGCTCGTGCGCATGCCCACAAAGGCCAAGGAGGGAGTGCGCAGGTCACGTGCGCCGGTGGTCAGCGCGCGCATTGCCTGCCCCGGAAGTGG
0.8967106598107811 GCCCGCCCCGAGTCCGAATCCCTCCCCGCGCTGCCTAGCCCGTCCTCACCTGCTCTCGTAGCCACAGAAAACCGAATTAGTCAAGGTGCACGTTTCCCGAATTAGGACCTGGGCGCCGCCATGTTGGCACAGTGGGTGGGCGAATCACATGATAGTGGTTGGCCAGTCAATGAGGAAACGTACGGTGGGCGGCCGGGATCAAAATGAAAGCCATAAAGGAAGCGCGCTGATCGTGC
0.6833587759529343 TCATAATAGGAAACATTTGAGGAGCTTGAACTGGGCGCCCAGCAAAGGCCACCCAGTTTAAGGAAGTGACATCACTTTTGCTTGCCTCCCATTGGCCCAAACAGTCACATGGCTACATTTAGCCTCAGAGGAGCCTGGGACATGTAGTCTTTGCTGGACACTGGAGACATGGCCTTGAGCAAAAAAGGCAAAAATCCACACTCTCTCTGGACATGGTGGGTCACACCTGTAATTCC
1 AAGCATACTGAGAGGCAGCGATAGTCTGGGAATTCAGTCCAGACTCTGGAGTTGAACATAGCTCTGCTGGCTTCTCCCTGTGCTTGAAGCTAACGTCTCTAAGCTTTGGCCAGAGTCAAGATTTTCTGCCTTGTGGGCCACGTGGTCCCTTTCAAAATGACTCAACTCTGTCGTCATCCCAGGAAAGTAGCCATTGCCAGGCGCAGTGGCTCATGCCTGTAATCCCGACACTTTAG
0.2429211530304762 TAAAAAAAATAAAAAATAAAAACACCCCACCCCTCGCCCGCCGCCAAAAACCCTGTCTGAAATAAAGACTACATTTCCCAGCATTGCCATGAAGCTAAGTGTGGTCATATGACTATGTTTTGGCCAATGAGGTGAGAGAAAAAAATCACGTGTACTACTTCTCCACTGTGGCTTAAAAGGCAGGGAGTGAACCCCAAACTTTCTCCTTCCTCTAGCCGCAGTCTGCAATGCTTGTG
0.01638766888095753 AGGCGTGAGCCACAGTGCCCGGCTCCCTGCCCCACTTTCTGAGACCCAGATCCACTTCCTGGTTTCCTGTGTGGTCATGTGACCACACTTGGCCAATTGGAGCCTTTTGTTATCACAGGCACAGGGATTGGGTCAGGGCTGGGCACGTGATCCTGCCTGAGCCAATCATGCTACGAGTTTGGAGACTCCCTGGAAGAAGGCCTAGAAGTAAGGAAAACCATCTTGGACGCATGATG
0.01437333774334191 CCTCCCTTCTCAAAATGAAGGCTGCGTGTCACAAACCGGTTGGAACTGGCCGTTGCCATGGTTTTCACGTTGGAAGGCACAGTTAAAGGGTCATGTGACCAAGGAGGGAAATGCCTTTGTCACATGACTTTTTGGTGGCCTGATTAGCATACAGGAAGTTCACTCCCTGCTGGCTGCTGGGATGCTGAGTGATCATTGATGGGTGGTGACATCATCTCTTGGATGAGTTATTGATT
0.2741156000908713 TCACCTGACCCACCCGCGGCTCACGTGATCCGTCCCCAGCGCCGCCATTTTGGAGCTCCGGATGAGGAGGGGGAAACCGGGGGAAAAG
0.5516827787506993 TCTCACCCGCGGTCCGGCCGGGACACCCATGCCCCTCTCCACGCCAGCGGGAAAGAGCGAGGGAGGCGCAGCACTCACCCGGTGGCCGCCGCCATGTTCGCCCGGCACCGGCGTCACGTGAAGTGCGGCGTCAGCTGAGCCCCTCCGGGTGCCAATGCATGGGGCGGGGTAAGGGCGGGGCAGGGGGCGGGGCATGGAGTCCTTGACCCACCTCCTCCAGAGCCAAATTCCACGGG
0.5480776748040692 AAGCAGCCTCTCCTACAACCAGAGAGAGAGATGTCCCCTTCCACACAAACTCTTTCCCAATCACTGCAGAAAAAGTCCCAGGCAACAACAACAAAAACCCAGGCCCAGCTCCCATTGTACAGATTTGGGTCACGTGCTCATCCCTTGGCAAATCACTGTGCACCGGATGTACGCGGTAGGGGTGGAGCGGGGTGGAGTGGGAGGCGCTAGGCCTTCAAGAATCGTGTGACCTGAGT
1 GCCGCCCGGAGCCGGCGGGCGGGCGGAGGCGGAGGCGGCGGCGGCTGCAGCGGCTGCAGGAGCGGCGGCGGCTGCGGCGGCGGCGGCGGCATCTCCTCCTCACATGACCCCACTGTTTGTCCCCGTGATCAGCGCGAGCGGCTCCCGTATCTCCTCCGTCCCCTCCTGCCGCGCGGCGTGAGCGCCGGGCTCGGGGCCCCCCCGGCCGCCCGCCCCCTCCCCTCCCTCCCTCCCCT
1 GGGCCATAGCGAGTACTGTGCACCTGCGCAAAGCCGGCCCTTCGTCACCCCGACTTTCATCACG
0.8778187340324766 ATCCCTGTCCTGAAAGAAAAAGAAGGTATCTGTCCCGAACTATCATGCAAAACCTCAGAGCTCCTGTCTGATTGGACTAGCACTGGTCATGTGATCTTCCCCGAACCAATCACTAATAAGAGGGGTGAGCTCACACTAGCAGGCTGGTTGCAAAACCTGCCATAGAGGAAGGGCGGGCTGGGTGCTGGGATTGGAACCAGGACACACATGCCACTGTATCTGCATTCTCTTCCTCA
1 ACCACCAGCCCCTAGGGACCCGGCGTCCCGCCCCCCACCCAGGAGGCCCTCCTGGGCCTGCTGAGACCGGAAGGCGGGGCCCGACTGAGCTTGGCAATCGGCACCTGCCATGGCAACAACTGTACCATTGGTCGCTGGTGCCAAGAGCTCAGCCAATCACAGCCTAGGGCAGCTGTTGCTAGGCGACGAAGAAGCGGCCCGCGGAGCTGAGCCCAAACAAAGGGCGGGAGTGGGGC
0.7794621384263555 GGGGAGCCCGAGCTCAGACCTGCCCACTGGCTGAGGGTATCCGGCGGACGCGGCAAGCCAGGGCCCCGATTACCCAGTAATGCAACCAGCAAAATGGCGACCACAACAAACCGGCCCCCCCACGCCCTGGACTCCGCCCCCATCCCTCCCTCTCCGCTCCCCTCACGTGACCCACACTGACACTCCGCCTGCGCGAGATGGCCGCTTACCTGCACGCATGCGCAGCGAGCTACCAA
0.894391764496413 ACTTACCTCTGGAATACATCTTCAATCAGGTTTTCTCTCTGTGGCAAGGTGACTCTAAGCAGCTGCTTAGCAACTCTTTCTTCCCTAGCAACAGCAAAAATCACAAGACTGATTTTCATTGGCTTGAATTAAGTCAGGTGGCCATTCCTGAACCAATTACTGTGGCCAGTGTGATGAAGGCCTTCCATTATTGCAGCCTGGATCATGTGTCCTGCTGTATTTTTAGTAGAGGCAGG
1 AACTGCGGGGGTCGGTAGCGCCAAAGCCTGTTGAGACTACATTACCCAGAAGGCAAAGTGCGGAACACTTCCGCTCCCTTCACAAAGCAGGTGGCCGCACCACGCGCGGCTAGGCGCGGGCGTTTCTGGGAGTTGCAGTTTCCCAGCCAAATGGTACCTGCTGCCCTCTGATGGCAGCTCTGAGTCAAAAAGTAAAAATTTCAGTCGAGCCCCTTGGCCTAGGGATTCCAACGCGG
0.6843703153102919 CATTCCTATTGGCCAAATTACTGGTTACACGTGACATACTCGGCTTTTAAAATCCCTATTGGTCCACTCCAGACTTTCCTCGTCGCACAACCTGGAAGAGCCGGCCCAGCTGTTTCTCTATTGGCGGTTCCTCCATTCATGTGACTCTTCTGCACGCTCACTCAAAGCTGATGCTGAGAACTTGCTTCCTGATTGGTAGCCGGGCGAATCCACGTGACTTGGCCGCTAATGCCCGC
0.7542933975640526 CCCGGGGGGCCAGTCGGCCCCGCTCCCGCATCCATCGCGGAGGCGCGGCCCCTTTAAGGCTCCCGGAAACGGTCCCACAGGACCGGAAGTGACCCTCTTTATTTCCCTTCCTCACGTGGTGCAGGCAGGAAGTGACGCGCCTGGCCCGGGAGCTGCGGTCGCAGAGGCCGACGGAGCCGGAGTCGCGGACGCCGCGGGGTCTCCGGGACAGGTGACCTGGGGGAGGGGGCCGGGAG
1 ACTTGCCTGATTATGATGGATAAAATGAGAGCTTTTCTGTCCTAGCAACCGAGTGTAAATTCCACAAAAGGGCCCTGATTGGCCCTTCTTGGATCATGTGTCCGCTTCTCAGGCCAATCCTTGGTTAGAGGGGGAGTAGACTACTAAGACTGGCCAGGTCTTTGTTACTTGCCTACCCAATAGGGGTTCTTTGTCTTAAAGGCCCTCAGAACCATGTAGAATCGAGGAAGGGCTGT
0.5762760337279758 GCCCCACGGTGTTGCTGCTGGATCCTCCTCCACCAATCAGCAGGAGCCCTCGGCTCGCGCTGGGGCGGGGGGTCCCCCACTCGCCCTCCCCGCGGAACTCTGGCACAGTCAGCTGACCGCAGACACTCACGTGACAGCTCGGGGCCCACGCCCGGGTTTGACAGTTCTGCGCAGAACTTAGTCCCGCCCCCGCGGCTGGTCTCGCCGGTTTCTTCACTTGGAAAGGCGTTTGTGGG
1 AGAGTAAGGATTATGGAGGACATTTCAGGCTGAGTCTAGAAATGGGCTGTGTCCCTTCTGCACCCATTCCATTGGCCCAAGACCAGTCACATGGCCTCAACTTCACTGCAAGGAGACCTGGGAAATGAAGTCCTCCTGTGTGCCTAGGAAAGAAGAAACCAAGTTGGTGAGCATCAAAGCTGCAGTGAGCCGTGATTGCACCACTGCACTCTGCCACCTACCCTTCGACTTCTGGT
0.749253675366181 GAAGGGGTAATGGCGCTTCCACTCACAAACATGGCGGACAGAGCGTGTGAACGAGATGAACAGCCCCTCAAAAATATGGCCGCCGAGGCTGGACGGCCGTGCCCCAGCAGCACCGCCTCCGCGCCCCACGTGATCTCTCGCCGGGCACAGCGCTGACCGCGGAGGTCCAACCGGAAGAATGTCCGGATTGGACATTCGGAAGAGGGCCCGCCTTCCCTGGGGAATCTCTGCGCACG
0.4198753509235655 GTGGTGCAGCTCTCAGACCCTCCCACTTGTTTACTTCGTGGCGAGAGGGCGAACACTGCGCCTGCGCACTCTCCGTAGCCGGATCCACCTTCAGCGTCTGCGCCACGTGACTCCGATCCACCCTCGAGGTTCCAGTGGAATAACCCCCTTCTGAAAAATGGTTTCACCCGCTCCTTCTCTAGAACGGGTCGGGCCGCTACCACTGTCCGGCCCGGAGGGGAACTGTTTTCTCCGGA
0.7455215314224453 GGCTCAGGGACACAGGACCAGGTGACAGGCACAGGACACAACCTCCCATGTGACATCACGCTTGGCTACACACACTCTTGCAAAGCTGCAGGGTGACTCATACAATGTGGTCACACCATGATACACACAGCACATGACACTGAACCAGATAGGTACAACCACAAAGATCCAGTCACATGGTAAATTACAGTGATATCATAATCCAGAAACAGCCTCGGATGAATGGAAATGCCTAT
0.2401401879363771 AAGCATCAGGGAGATTGATGAATGCAAGGTATCTCACACACCCACGCCCCTTGTGGAGAATTGCCTTCCCATAGCACTAAGTGGCCATGTTTCATATCACATGACTCCAAGTAGCCACTGATTGGCTAAGATTTGGTCACCTGACTGGGATGCCATCAAATGATTGGCCATTCAGTGACCAATGATGTGGCTGAAGAAGAAAAGGTGAGCTAGATGAATCAGATTCTCTTTCATGA
0.3839901939199594 ATGAGTGTGAGCATGAGATAGAGTGAAGGTGTGACAGAGTCAATGTGTGAGAGTGGTTGTGAGATGGAGTGAACATGAGAGTGAATGTGTGATAGAGTGAGCATGTGATAGAGTGAACACGTGATAGAGTGAACACGTGATAGAGTGAGCACGTGACAGTAAACATGAGCTAGAGTGAATGTGTGAAGGTGAACGTGAGGTGGAGTGAACGTGAGATTGTCGATGCGTGAGAGTGT
1 CTCTGCCAGTCATCGGCTGCTGCTCCTGTCCCTTTGAGGAACTAACGACTGTTCTGTGAGTCAGTAACTAGGGGCAGAGGGAGGGGTGACAGACTCATTGCAGATATCAGGTGATCACTGCAGATATCATGTGATCGCTGCGGCCTTGGAGCCAGAGGCGTCCCTGTTTCTGCTTCCCCAAGAGGACATTCTCCTCCCATGGGGAAGGCCCCCACTCACTATACATTTGCGGCATC
0.8532098768521312 TTCTGCACTTTCTCTAGAGAAAGCTCTCACACAAAGGCGAACAGACAAACAGGGCCGCCTTCCCCTGGAGGCCTGGGGTAAAGACGAAATGAGAGCTGAGTTCACGTGAAGTGCCCCACGTGGTGGCAGTTTCCTCTCTTTTCCTGTGCAGCTAGGTCACCACCCACTTCTCTTTGTACCCAGTTCTCTACTAATCAAACATACAAGACAGCTCAAAAATTGTGCGTGGCGAGTTG
1 TGAAAGGGGTTCCAGGAGAGCATCCCCTGAAAAGAGACCTGGAATAAGGGGAACTGAAAGGAGACCACGGCCGAGCCACATCCTCTCCGGGGCCTTAGTCTCCTTCCTCATCTGAATCAACCAGCTGAGCATGTGTTCTATGTCAGCTGACTGCTGGAACCGTGACCGAGCCTCCACACCCTGATTAAGCCACTGTCCGTTGCATATTGGCAGAGCCTAGGCCACTGCCCACCCCG
0.7247857150886164 ACCCATAGGTTCCCGGGTCCCGCGTCGCGATCCCAGTGGGGCGGGGTCTCAGAGGAATCGGAGGGTGACTCATCACGTGACTCGCTCCGGCCGCAGCCCCCTCGGAAGCTGCTAGGCGGAAGTAGAAGTTCAGAAGAGGGCTAGGCGGAGCCGAGCCCACATCCGGGAGAGGAGAGCGGAAGTGGCGTTGGTCTGGCCGGAGCCCTTGGGTGAAATTGTTAGGCGTGGAGAGGGAG
0.2351328307146088 AGCCCCCCGGCCACCCGCTCAGCTGTTTCCTGCTCGTGTTTGTTGTGCCGAGGGAGGCCCCGCCGCCACCGCCGCCGCCGCGCTCTGCCGCCCCGGTCCCTCCCGATTGGCCGGCTGGCGTCACGTGGCCTCCATCAGCTGGGCCGGCGGGGGCGCTCGCGGGCCCCACTGCGGCTGCCGGGTGAGCCCACCCGGGGGTCGCCCGGGCCGGCCCAGCTCCGCCAGCTTCGGGCTGC
0.8003510391006662 GAGGCTCTATTTTCCAAAACAAATTTTGGTGGTCACTAGTGTTAGTTACGAATTTTATCTCTCTTCTTCAGGATTGCATTTCCTGCCTCTTTGAGATTAGGCATGGCCACATGGCTTGCTTTGGCCAATGAAACGTGAGAGAAAGTGTCAGGTGTCAGTCCTGGGTGAAAACTTTATGCATGAGTGTGCTATGAGTCACACTTTCTTTCTTTCTTTCTGATGTTATATCCAGAAAG
0.7900019619576285 AGATATGTGGCAAAGGACTATAGCCCAGTGCCTGGAACACCAAGACTAGTCTCGTTTCCCATTCCACACACAATATGTTAATGACATGTCACGTGAGGGGTTCGAGGAAAGTTGCCTAGAGAGTTCCCAATTCATTCCTTTCCTCCGGTTACTGAGCGCCTCCTACATGCCAGGCGCACTACAGAAGGTGCAGTTGATTCAGACAGGGCCACCATGACCGTGAAAAGGGTGCTTCC
0.2775544711104907 CATTCTGATGCCTGCTCAAGTTTGAGAAGCCCCGTTCTAAGACAGCCAATCAAACAACCAAACACCACCACCAACAACAACAAAGAGACAAAACTCATTTCTTCTTCCAGTGATTGGTTTGGGGTGGGCACGTGACCCTGCTCTGGCTAATGCAGTGCAATGGGAGGCTTGTTTAGGGGCTTCCGGGAGGCGGTCGTGCTCTTGAAAAAGATGCTTGGGAAGAGTAAGAGGCATTG
1 GGATATAAAGGATCCACACTCCAAACACAAGCAATGTACATCTGGAAAAAAATCAATTAGGTATTATGATGTAGTCATGTGAGAATCATGAGATGCAATGTGAAACTGAAAACGGAATCCTAAATGAGTCTGCCTGCTATGCAGCATAAAACTACAATCTTTAAGTTGACATTGGGGTGAAAGGAAGGGGCCATTTCCTATTTTCCTGACAAGATAAACTAGTCATTTATGACTGT
1 TTTTAAAGTTAATTTGGAAAGGAGCCGGCAAGCAACCTTCAGTCGGTGTGCGGTTTTTACAGTTGAACTGTTTCCAGCCGCTAATTATGATTGTTTTAGCGGTTCGTCATCTGAAAACTGCATTCTGCACGGCGGTGGTGGGGGGAGGACGAGGATGGAGAAGCCTGGGCGGACATATTTATTAGCTGCGGTCCTAAGTCACGTGTGACATTCTGTATCCAGTCTATCGGTTATCC
1 TAAAGATCACTCCAGCTAGCACATGGTTGAGTGGCCTTGCAGGATGGGGGAAGCTAAAAGTACAACTGTGACAAGTAATCAAAAGTAGCAAAGCAGAAAGAGCCCATGTGACCTCTGTGGTTTGAGGAACTTGTTACACAAACCCTATCTTGCTATTCACTCCCATTTCTCAAAGCTTTTTTTCTTTAAGCTCCTGAGAGAACCTGGAGCTAATTTTTACAATTTAAAGAAAAATC
0.203280904916565 GACAGAGAGACAAGCCGGGCCAACTCCTTCCCATGAAACCCCGCGCTCCAGCCGCTCGCCAATTGGCGCCGCGGTCGGCGCGCGCCGCTCCCCCGTCACGTGACCGTACCCTGGGCGGGTAGTTGTTGGGGCGGGTCGGCCGGGAGGTTAGGATCTTGTGTTTGTGGCCTCCGCAGCCAGCTTAGGCTGCTCGGTGTCGTGTCGCAGTTATGTACTGCCATTTATTATGACTCTTA
0.823699083468303 TGTCAATTATTTTGGAATAATTTTGTGATTTGTGTATTATTCCTTCCCTTTTATTACTTTGGATGATAACATTGCTTGTAATTGTTTTATCACATGGTTGTTTTATCACATGGTTGGTTATATCACATGGCCTGGAGTAGTGACTTCTTGAAATGCCATATTTTCATTCCTGTTACAGAATAGTCATGCATATGTTTCAACATTTATAGAGTAGTTGCTTTATGAAGGTCCTGTCC
0.6446633863659704 AGGAAGAGAAAGCTACCTTTCCACCCAATAACTCAACGCTGCGACCGAGAAAACCAGGGACGCGAGAGGCTCGCGTCATCCTGCAGCGCCGACACCACAGACACTAGAAAGCGACGCCTCCGGTGGGACGACTGGAGGTCACGTGGTACACTATACGCCACCTTTCCCTTCTGGCGGAAAAAGCCATAGAGTCAGGTTGACAAGGCCTGAGAGAAATATGTCTGTATTAAATAATT
0.9243351749181116 CCATCATCCGGTTGGAAGCCAGATGTGACAGAGAGCTCTTTATATTTCGGGAGTGGCTACCTCAGGCACGTGTAGAGCCATCTGGGGCACCGGAAACAATGTTTCAGAAGTGAGATTAGGAGGAATCCGGTCATGTGGCCGAGAAGATGGGGCACGCAGTATAGACCACCTGTTTGCATAAGGGACCAGCTTTGGCTTGTCAGGTCTTCCGTGAGATGGGGAGATTTTTAGAAATA
1 TGCAGTTTGAACCGCTTCGGAAACAGCTGGCCCGGCGCGCGCGGCGGGAGGGACGCGAGTGCTCGGAAGAGCCGCCCCACGTGCTTTCGGGGAAACTGCCCGGGAGCGAGAAGGACTGGGATTGAGAGGAAACCGAAAAGCGAAAGTTAGAGCCTGCGGGAGCAGTACGCAGGCGCAGCACGCAGGCGCAGCGGGGCTTTCCCGCAGCCCGCTTCCTCCCAACGGTTTCTCCCTGG
1 AATGTACTCTCTTTTCATAAAGTCCATCAGAGCACCAGGGGTATGAAGTCTTCCACAGAAATGCAAAATACAGAGCTAACCACCGACCGCGAAGCAGAGGAAGTGCAGTCATGTGCTCAGGCTGTAGGTCTCCATGGAGACACCCTTCTGTCTACATCCTTATTTATCATCTGGGTCTCTAGTCACTTCATAACCACAAGAGGAAAAAAGAGCCATGGATTCAACTTGCACTGGCT
0.1321163206416685 GCCGCCCCAGTCTCTCTGTCGCCGGCATCCAGGCCAACCTGCCCGCTGCGGGCCGCAGGGGGCGGGCCTGAGAGGAGGGTTCGGGTTCGCTCCAGAGCTTCAGCGCGGGGACCGCACCCGGAGTCACGTGACGCCCCTCCCGGCAAGCTCTGAGAGCGACGTGGGCTGCGTCGCTACCCCTCAGGCGCCGGGCCAGGCGGGCGTAGAGCTGCTGAGGAAAAGCCCGCGCCCCCGCA
0.4320890951488234 AAAGCTCCCAGCAGCCAGCGATGAATGAAAACCCGAGTCTGGGATAGCGGCGTGAGGGGCTGGGCAGCTGCCAGGCGGGGGCGGGGCAGCAGGTCACGTGCCTGGCTTCGAGGCGGGCGCCGGAGGGGGAACTCTGACCATGATTGGTTCCTCCTAACCAGGTGACCGCAGGTCGCGTTCCGGTTGGCAGGCACCGGCCAGGGCCAGCGGCCTTCAGTCGGTAGGCGGCGGCGGAA
0.3072916358842605 CCTCAAAAGAGCCGTCACCACACCCCCAATGGGTGAGGCTCAGCCGATGAGGCAAGAGGCGGGTCCAGGAAACCACGTGTTCTGCCTTCTGCGCACGCGCCAGCCAAAACAAAAGGGAGGTCTGCCAAGCCCCACCCCCCACGTGACCGGCGTCCAGGTCCGCCCCCACCCCTCCCTAGACCCCTTCCCTCCCCAGCTGCCAAGGCTGTTAGGTTTAGCCGTTTAAATTTGGCTGC
0.512670095273392 CCAGGCGCGCCAGGCAGAGCCCCACCCCATCCCGCCGTTCCCTTCAGCCCCGGGGCGCGGATCTTGCATCTGAAACTGAGCAGAGCAGGGCGCCGGGCAGGGCCGGCGGGCCACGTGATAAGCCCGGAAACAGCTCCGCCCCCTCGCTTCCTGAGCCGCCACATCCCGGCAGCCCTCCTACCTGCGCACGTGGTGCCGCCGCTGCTGCCTCCCGCTCGCCCTGAACCCAGTGCCTG
0.4815098593792445 CTTTGAAGAACATGCCCCCAATTCAATAGGCTGGCTATAACAATGAAGGTACCTTCCATCCCTCACCCCTAACCCTCAACAGGAAATGGACATGTGACCAAGAAATTGACATGTGACCAAGATGAGCCAATCAAACACTCTTTCTATAATTTGCTTCTTAACGGCAAAGACTCAAAGTTGGAAAACAGCTGGAGTTGAGGCATGAATTATTTTAAGGGTAGCATCTTGAAGAGCAG
1 GGAGCGGGGGGAATGGTGCAGGCAACGAATGCAAATTAGAGAAGCAGAGCCGGCTTGGTCACGTGCCCAGGGCGGGAAATCTGACGACCAGGCCGAGCTGGAAACCTCCACGGAATCGTGGCTCGGGGCTGGAAACAGACCTCACGGAATCCTGGCTCGGGGCAGGACACAGACCTCCACGGAACTGTGGGTCGGAAGCTGCCCTTCCGCCAGCCGCCTTGCTCAGCGTATCTGAG
0.3241601854457123 TGTGAATTAAACTTAACCGCAAGAGGAGTCACCTGCGGTCACCTCGTTTCGCCCACAACAAAGATGTCTGCGCATCGCTTACCGTGGAGCCGTTCCAGTGCGTGGGCCACGCGTCCGCCCTTTTCCGCGTCACATGACCACGAACACTCTTCCGCTACGGCTCCCAGAAGGGGCCAGCCCGCGCCTTTCGCGCTTCTGCCCTGGCCCTCTGCGGGCCGCTCCGCCGGTGCTGTCCC
0.9133915626018688 ATGCGATGTTATATAATGAAATGAAAGACAAGTAATGAGGAAATCAGATTTTTTAAACAGGAGCAGGACAGCTGTTGGTGTGAGTTCAACTTGCCATAACACACGTGACTTTCTTGTTTTGGATTTACTGCTCAGCTGACCGGGACACTCTAAACATAGCAGTTGTTGGTGGCTGGGATTAACTATTTCCTCATGATCTGTGAACCCTTTCACCCCTCAGCCTTCCTCTACCTTCA
0.2055837195281276 CGCGTGAACCTTCACCACTGCTGGGCTGTGGACCCTCACTTCCGCCGCCAGGAAGTTTCGGGGTCGCCCACCTTCCCTCCCAGGCTGCTCCGCGTCGGCGGCGCCCCGCGCGATTGGCTGCGCCGCCCCCACGTGACGCCGGGGTGGCGGCGGCGGTTGCCCGGGTGACGGCTGCGGAGGTGGCGGCCGGGCTGGGATAGCGCGAGTGTCCGCGGCCGAGCAGCAGGTAAGCGCGT
0.01059627534301803 ATCATTAAGGCACTTAAAAAAATGACTACCTTGATTTTCTCATGAAGCTTATGCCTTTCCCAGCGAGACAACCCCGCCCCTTAAAGAGGCGGCGCGGCCACGTGGGGGTACCTGGTAGGCCACCACGTGCCCGAAACACAGCGCAAAAGGCACGCGGCAGAGCCACCTTCCGGGGCCCACCACGTGTCGGCTTGCCAGGCCGGGGCGGAGACATCCGAGCGCAGCCGGGACTCCGA
0.8164613464962732 GGGTGCTGAAGATCCCGGAGCACGTACACCCGAAGGCCAGCGAGAGCTCGAGACTGAGGCGAAAGACTGAGCCTGCCCAGTAATCGCCTGTGGAAAGGCGACGACGGCGCCCTCGTGACTCCGCGCCGACCAACCAAAGCTCGCGGCCGTCCCCATGAGCCAATCGCGAGCCTCTAACCGTGAACGGCGCGGGGCGGGGAGTAGGCGGGCCGAGGCGGCCACGGGAGGGGGAGGGG
0.03140190661247234 AGGAAGGATGTCGTGGGAGACTGGAGAGTGGGGAGGGAAGCGGGAAGGGGCGGGGGCGGAGCAGGGGGCGTGGCGGAGCGGGAGCGCGGTCACGTGACGTGCGTGGCGACGTGTCGGCCATCTTGTGTTGTTGAGGCTGAGGACTGACTGGGGTTCTGAGACTCCCTGTCCCGGACCGCAGGTAACCAGCCGTTCCGTGTCGCTCCCCTGCCCGGCTCTGCTCCGCGCCCCGGCCC
0.6936526536934391 GGGCTGGGCTAGAGGAGTGGCCCTGTGTGCGGGGGCTGGACGGGGGCGTGGTCATGTGCGAGGAGGCTGAACAGGGGGCGTGACCACGTGTGGAAGGGGGCTGATCGGAGGTGTGGCCACATGTAAGGGGGCTGGGCAGGGGGTGTGGCCACGTGTGAGGGGGGGCTGGGCCGGGGCGTGGCCACACGTGTGCTGGCTCTGCTGTGGGCTTCCTTCCCTTCCTGTGCAGGTGGTGG
0.9562980300210208 AGTGACATCTAGGTTTTTGTCTGCTCACTGGTCATTTCCCCATATTCTTTTGGGAAACCACCTCTTCACCACTCTTGATTCTTGTAGCTCAGACCAGGCAAACCCCACACCCACTTCAGAGGTGGGCACATGACCAGACCTGGCCAATTAGAACACTTTATCCCTCTTGCCACAGAGACTGGCACATGGTTGGGCGCGTGACCCAAGGCAGGCCAGAGGGGGCCTTCCCCAGGAAT
0.4835970847794374 TTCTAAGAAAATGGATTTGTTCGAGTGAGAAACTAAAATGTCAGGTTTAGGAAGGCGGCTTTGGATTGAATGACTACTAGTGTCTCAGGCAGAACTGTCAGCCTGGGAGGTGTCACATGATTCCTGTGTCTTCACATGATCACTGTTTTGGGGGGGTGGGGCCAATCATGTGAATTATCCTGGGTGGGGGAGGCAAGAGAAGAAGTTTCTAAAGATTGCTTTTAGCACAAATGCTG
0.05960107670258622 CGCCACAGGGCGCAGGAGCCAGGGCTGGGCCCACTTGGCGGGCGCGAAGCCCAGGTACGGGCTGGGGTCTCGGGGCGGCAGCCAAGTGAGGCTGCCCACAGTGGTGATGGCCGCGGCGGCGGCCTCGCCACGTGACCCGGACGGGCGGAAGCGGAAGTGCCGGCCTGGAGCCCGCTCTAGGTGGGTGTCCCCTCGGTGCTTCCCAGCTGCCGTCTGCACCAGCCATGGACTGCTAC
0.9285364393086988 CGCGCCACACACACACACGCCCTCAAGCCCTTCATCTCGAGCTCTTCAACTCCAGTCCATCCCCACTCACCGTCCGCAGTCCTACCAAGCCTCACGTGGGGCTCACACCCACAATCCTCCGCGTGACGCTCCGCCGTAATGGCAAGCGAACTAGGCCAAACTACTTGCACGTTCCCTCGAGAAGATCTTTGGAGTAGACACAAAAGCCGCGCTGGCGCATGCGCACAAAAAGCGCC
0.04048902293397515 CTTAGCGTGGTAATGTGGCTTTGTACCATGTCAACCTAGCTAAGCGGGAACTACGTTTCCCAGAATTCCTTGCCTGTAGGTTTCCGGGGTTAGCACACGCCACGTGACCTGATGCGGGCTTCGTGAGGCGGAAGTGACGCAGTGTTGTCGTCTCGTAGGCTTGAAAGGTAGGTGCCCGACATTAGGGACTGTCGCAGCCCGGGGAATTGTCCCCATCTGCTGGCTTACCTTGTGGG
1 TCTATTGATTGCCTTTTTCTTTGAATATGTTTCTGTATTTTTTTGATATAATGGGATTGAATTCTGAAGATTGTAAAACTAGATTTTGTTTTGTTCCTCTGAAAATTTTGATAATTTTTTGTTGTATTTGTTGTATTTTGTTTGATTTTTTTTCTATTGTATACTTTGCAATATATTTTCCTCCAATGGTTTTAACATTTCTATTTCTCAAAATATTTATGTTTATGTTAAAAATT
1 TATTCTGAATCAATTTTAACATCTGCTGAAATCTACCAATTGTCATACCTTCACAAACTAAATCGATACTGAAGCTCAAACTTTGTTATACCTGAGATTTCACTAAATTTAAACATTGCATCCCCTAATCCTAGCAGAGTAACTGCATATAGAATAGAGGGCACATACTTATGCCTCACATTTGTTACCTTGACTAAATTTCCCGTAGTCATAGAAGTCTTTGTCCATAGGGGACC
0.5571661070737282 GCGAGACCTCCATACATCTCTAAGCAAAAAAAAAAAAAAATTCATTGTAAAAGCAATTTTCTTTTTGGTTACTGCCATAGGGATTTTGTAACTGAGTCACACCGGGCCGAGGCGGGACCTCATTGGCTGCGACCGACCACGTGCCGCAGTCGCCCCGGCGGTCGGGGCCCCGCCCCTCGGCTACCGTTCTGTGGATCAGGGGCCGAGCTCCGCCCCCGGCGCGCGGCTGAGACCCT
0.7573874952739647 ATGTTTGGATGGAAACATTGGGCTCCTTGTCAGCTGTTCCCTGGTGCTGTGCACAGCTTGCAGGAACGGCTCTGATTTTGTTTAATGACTCTGACAAGAACGCCAGACTTGGCCATGTGACTTGCTCTAGCCAATGAGACAGCAGCAAACATTATGCAAGCAGAAACTTGAAAAGTGCTTGCTCATTGGCCTTGCCCTCTCACTGCTCTTGGTCAGACCCATCACCATGAGAACAA
0.01314530984550197 CAGGGAGGAAGCCCAGACAATCAATTCATGGAGAGCCGGAGCCAGGAAGTTGCACACAGAACTTCTGCTCTTGTCTCATTGGTTAAAACTCAGTCACATGGTCACACCCAACTGCAAGGGAGGCTGGGAAATGTAGTCTATCTACATTTCATGTGCTATCACAAACATCCATCAGTCTTTGCCACAATGTCTTAAATATTTCACAATAAAGAAATGTCAAATGTTTGTGTTAGACA
0.212911567405591 TGGGTTCTCTGCATCTAGACAGACAGGGATGGAGAAGCTCACCTACTTCCTCGAGGCCCTGCCTGGAAGTGACACTCACCACTCCTGCTCACATTCCATTGGTGGAGACTAGTCACATGGTCACACCTAGATGCCAAGGATGCTGGGAAATGTAGTCTCCAGTGGGGCACATGTCTTCCAGAGACAATTCCACACTATGGAGTCTTTTCCAGAGTTAGTGCACAAAGTCCTCTTTA
1 AAGAAAACATCTATTATCTCACAGTTTCTGTGGGTTAGGAATCCAGAAGCAACTTAGCTGGGTGGTTCTGATTAGATCACCACTGGGATCAATGTGTCAGCTGGGGCTGAAGTCATATGAGGCTTGACTGCTGCGGGAGGGTCCACTTCCACTTCCACTTCCACTTTCACTTCCTATGTGGCTGAGGGCTGGAAGCTTTGAATCCTTGCCATATGGACTTCTCCATAGGCTGCCTG
0.05353859209183597 CATTCTAGCAGGTCTGGTATTTGAAGGCCAAGCTCAGAAGGCTATGTACATTACATTCTACTCACTTCCTGTTAGCCCCAGCTTAGTCACGTGGCCACAAGTAGCTGCCAGGGAAGCTGGGAAATGTAGTCCATAGCTGAGTGATTCATACTGTCACTCAATCTGGAATGCAGTGGCGAGATCATAGCTCACTACAGCCTCAAACTCCCAGCCTCAAGCAATCCTTCCACCTCAGC
0.04130574907619989 TGGGCAGAACAAGTGACTCTCTCCCATGTCCTCTCTCCCCTTAGCCACAGGAGTGACAAATCTGGGTACCGACATCCAGGATGAAGACTACATTTCCCAGCATCCCTTGCAGCAAACAGAGGTCATGTGACCAGGCTGTGGTCACTGGGAGGTTAGGCCTGTGCACAGTGGCTGCCTTTAGAGGAAGGAAGGTTTGTGCCCTCTTGTTCTCTTCTCCCCTCCCTGCTGGCTGGCAG
0.875530222752229 CCATCTCAAAAAAAAAAAAAAAAAAAAAGAAAGACCCTGACCCCACCCCACACTGTTCCTGAACCAAGCCTTTAAAGGCATGATTTAGAAATGGTGCACGTCACTTCCACTCAGGTCCTATTGGTCAGCATGCAGTCATATGGCACATCTAGTTGCAAGGGAAGTTGGGAAATGTAGTCTTTAGCCAGGCAGGCATGTGCCCAGTTACAATCCTGTTTCTATGAAAGCAGAGAACT
0.04195290499763118 CTAACTAAAGCCAATCAGCTCAGAGACATACATATGACAAGACCAAACCAAACAACTCAGGACGGCACACGTGACCAGGATGGACTAATCAGTGCAGGGATGCCCACATGACTGGACCTAACCAATCAGCTCAGGGATAGGCACATGACCAGGTTGAACCAATCAGCTCAGAGATTTACGCATGGCCAGGTCAATCAGGATTCCCCCTAAGTTGTACCCTGGTGACCATCAAGCCT
0.04315854164381053 TCAGCTGTTTCCACTTTTTGGTTCCTATGAGTGGTGCTGCTGTGAAATTTGTGTGCACGTTTTTGGTTGAAGGTCTGTTTTCAATTCTTTTGTGTCTGTCTATACCTAGAGGTAGAATGGCCGGGTCACGTGACAACTCCACGTTTACGAACTTTCTGAGAAACAACCGAACTGCTTTCCAGGGTGACTGCATCGCTACATTCCTACCAGCAGGGGGGGCGGTGTCCACACATCCT
0.357119219217092 GTCGCTGACAAACCAGACAGTCCGGACCATGCAAAGCACAGTGCATGGTGCTTTAGCCACAAAGTTGATTGAAAAGTCAGAGGCAGTGAGCCACAGGAAGCGCCACGTGACCCAGACTGCGAGGAGGACACAGGAAACCAACCCTCACTGTGTCCTGCTAGGGGGTTAACCCGTCTACAAGCATCAGGGTTGCCATTTCAGAGATCAGCAAACTGAACAGCAGTCGTGACTTGTCC
0.02499240956109259 GTGGAAAGGGGGAAAGGGACTGGGCACAAGGGGTCGATGATACTACCAATTTTTTGAGGGCAAGATCAGGATGTGACCCTCATCACTTCTGCTGGCTTTACCTCGTCACATGACCATGGCTACTGCAAGGGAGACTGGGAAATGTAGTCTTTGGCCAGGCAGCCATGTTGCCAGCTAAAATTTATACTACAGAAGTATAGAAAAACAAAAATTGGGAGACAACCAGCCACCTGCCA
0.5543129488712437 CCTTTCACCTTGTGATGCTGCCAGATGTATGACTTACAGAAGAAGCGAGAGGGTGGGTCATTCACACGGAGTTAGGCTCATCCCTTTGGTGTACATCTCATTGGCCAGGCCCAGTCATATGCCCTCAACTAACAGCAAGGGAAGCTGGGAAATGTAGTTTTCCTGCATGCTGAGGTGGAAGAATGACGTGGTCAGCACAGCGCAAGTCTCTGCCTCAGCATGTGATACCTGGAATT
0.3934969431878688 CCAGCCCCTAGGGCCGGCCACCGGCAGATCCAACGGTGGCCCCTTTAAGGCCGGCGCCGGTTGGGTTATTGTACCCCGCCCTTCCAGGAGACGGGGCCAATAAAGGAACGGAATTCTCTTCACGTGACCTTCCTTCTGCCGCCCGAAGCCCGAAGCCTCAGGGCGGCCATGTTGGTTAGGGGCAAAGTCCTCGTCCCCAGTTCCGCTTTTCTGACAGCTGGTGCCAGCTGAAGGAC
0.2256222504473182 ACCCCCACCCTGGCGCAGGCGCACAACGACCCTCCCCGGGTGGGAGCCAGCGAGCGCGGGGGCGGGCGTGATCCCGCGGCTCGCGACGGCGAAGGAGGGGGCGGTGGGGTGCGACTGCGCACGCGCGCTGCCAGCCCACGTGACGCACCTCGCTTCAACGCCGCCACCCGCTCCCTCCCGCCGTCGGCTGACGTGGAGGGCCGGAGGTGGCGGCGGCGGCGGCGGCGGCTGCTGCT
0.6127001570875477 TCCCCAGCCCCTACCCTCCCTCGGCCTAGCCGTCCCCCTCCTCTCCCCTCCCCCGGGCGAATCACGCGCCCTCCTCTGACACTCGTAGCGGACCCGAGCTCCGAATTTATCCTTCACGTGACCTGAGGGGGTTGGGTGGTTGGCTGGGGACAGAGGGGGAGACGGAAAGGAGGGAACGGAATCTGCCGTTACCTGAGCAACAGGCCCCGCCCGCCGGCTCGGGGCTGGGGGGCGGG
0.4043140016804624 ACCACGCCTCAGGGAATGAGACCTCTGATGCACATTACCTGTGCTCACAGCTCATTGGCCACAGCAGCCATGTGACCGCACCCAACCACAAAGCTGCACAGCTCATTGGCCACAGCAGCCATGTGACCACACCCAACCACAAAGCTGCACTTGTATGAGGGCAAGACCAACTTCTTCAAAGCCAGTCACTCAAAGGGGATTCCTTAGAAAGGAATTCCCCAGGGTTGGTTGTCAAC
0.9232330782685527 GCTCGAGTTTAGGTTTGAAAGGTGAGGTGAGAGAAATCGGCAAAGGGAACCCCTGCGCAGATCTCGGGTTCCTTTACTTTATAACCGCGGGTTCCGGTTCCTGCCAGGTGACTGCACAGTTCATCCTCATGACCCTTCTCAGCCAATGGGAAGAGAGCGACGCCCAGGAAGTCCCGCCCTGTCCCGGCCTGTGGGCGCGTCCTCGGGTCCTTCTACGTCGCTGACTCGTGACCTGA
0.1671764818083447 GCTAGACTGAGTACTACTCAAGCTACACGACAGTGGGGGTTACTGCAGTGAAAGATCCAGATGGGGAGCCAAGACGTAACCCTGCCTCTGACAGCCTGGGGAGAAAATGATCACGTGATATCAGGATCACATGACCAGAAACCTGAGCTCTCAAGGCGGTCTAAATGTTGCCTATCCTTAAAGAAAAAGGTAAACAGAAGGGTCTACATCAATATTTATTCCTGTTTGTGTCCAAA
0.9731938060346085 TCCCCTCAATTGCCCAACTCCCCCCCCCCACCGAACTGCCCAACTCCCCCTCCCCAACTGCCCAACTCCCCCACCCCCACAATCCCCTCCCGCCACAACTGAGGGAGGCGGTGCTGAAAAACAGCTGACTCCAGCAATGCTGCTCACGTGACCACTGCAGCTGCAGCTCCCGTTCCACTCCTTGTCCTGGGCTAGGTGGGCACTACCAGGGGCTCCTTTGGTAAGGAGTACCGGGT
1 TCAGCTTCCCGAGTAGCTGGGATTACAGGCGCGCGCCACCACTCCCGGCTAATTTTTTGTATTTTTAGTAGAGTCACCAGGTTGGCCAGGCCTGTCTCAAGTGATCCGCCCGCCTCTGCCTCCCAAAGTGCTGGGATTACAGGCTTGAGTCACCGCGCCCGGCCCACGTGGCGAGTCTTAACCACGTGACCCTCCCCGCTCTCCAGCCCGGCAGGTACCAGCAAAGGACTAGCAGC
0.61103386533253 GACTTCTAGGGGACTCTGGCCTCTTCACTGCAAAAGTCAACAAACTGGTTCATTTGTCTCCTGGCAGGAAAACTCCCCTGTCCAGCCCTAGGAAAGGGATAGGTCTAAGCAGGGTCATGTGACTCCCTCTGGCCACAGAATGTGAGCAGAAGGTCTATCAACCACTTCCACTTCTGACTCATCAAAATTTCTCCTTTCAACAGAAAACCAAATACTGAATGTTCTCACTCATAGGT
0.02245758623341449 TGTTTCCCAAGGGTCATATGACTGCTCCTCTCCACCCCACACTGGCCCGGGGCGGGCTGGGCGCGGGCCCCTGCGGGTGTTGCAACGCCCGGCCAGAAAGTGGGCATCAGCTGTTCCGCCTGGCCCACGTGACCCGCCGAGCATAAATGTGACCGGCCGCGGCTCCGGCAGTCAACGCCTGCCTCCTCTCGAGCGTCCTCAGCGCAGCCGCCGCCCGCGGAGCCAGCACGAACGAG
0.188606003003632 CACGCGCTGGGGGCGACGGGGGTGGGGCGGGGGAGGCGGGGCGACGCAGCGCGGGGCGGCCGGCGGTTGGTGCTCGCAGCCCGCGCGCCCGCCTTCCCGGCCACGTGACCTTTGGGCCCCGCCCAGATCGGGAGTTCCGCGCGGACTCTTGGTGCGACCCCGTCCCACTGAGCGCTCGGGTCGGGACCTTCCCGGTGTCCCTGTGGGGCAGAGTCCCGTTGTGCAGAAGAGGCGAG
0.1759557985850012 CGTGCGGCGCCTCGTGCACCGCCCCGGGCCCCGCCCCCGCCCTCCATTGGCTGTTCCCGCGCCTTCCTCCTCTGCCCCCTCCCCCCGCGACCAGACTCGGCTGCGGCTCCACGTGACCCGCGGGGGGTGGACACGCCGCGCGAGCAGGAGCTCGGATAGGTCGCTTTGGCCGGCCTGGCCGCTCCGAGCTCCGCCCCTCTTCGGTGGCGCGTCGGGAAGGTTGCAAGTCGGGGACA
0.7349544549695749 CAGGGCGGGCTCCCCTGGCGGAGGCCGCGGCCGCCTCGCAGGGGCCGAAAGCGGCTGGGCTCGGGGTTTTTTCTCTCCATTCTCCCAACACACAGGAAATAACAGAGCGTCAGGTGACGGCGCGCGGCCAATGGGGAGGCTCCGGGCCGCGGCGCGCGGGCGGGCGGGAGGGCGCGCGGCGGGGCGGGGCGCGCGGCGGGGGCGGGGCGCTGGGGGCGGGGCCGGGCGCGCGCGTG
0.6485116537277623 GGGGCCCTGGGGTTTGGAGGAAGCAGTGCAGGAAGTGTCTGAGAATGAGCTTCACGGTGGGCGTGATTAAGGCTGATGTGCTACGGGAGGCGTGTCACGTGGTGGCCTGGGTCAGAAAAGGGAACTGTGACCAACTGTGGGCATTCAGAAAATGGAAAGGAACGCCGGAAACCCCCAGGGCTCCCCACAGAAGCTCTGGGGACGTGAAAGGACAGCGTGTTTCAAACTTGGGTTCA
0.6558629568848088 GTTTCAGCGTGATTCCAAACACGAATGGGGATATCTGTGGCCACTATCCCCGGCACATCGTGTTCCTGGAGTATGAGAGTTCTGAGAAGGAGAAAGACACGTGAGCATCATGTGACCGTAGTGTACATGTCTGGGGAGTCCGTGGCAGCTAATCCCTGTGGCCAGGAAGTCTGTAGCTGGGCAGGGCAGAATCACTTTCCCCAGGTGTTAATCCTTATTGGCATTTTTATTTACTT
0.7175721046863959 GAGCTTCGGGCATCACACTTACATACACGCACAGACTAATACTCAAACAGGCTTGACACACACATGTCCAGGCTTACACACATGGCTGTCACGTGGTCACACCCCGTTCTGCCTCAACCTTGACCCAGTCTTGAAACAGAAATAAAGGGAGCAACTACTGAGCATCCTGGGGGTGGGAAGGGCGGAAGCCCATCTTTTCACCCCTAGGACGGCTGGGCTGGGAAGCTAAGGGCGCT
0.6096323747862302 CGCGTACCCCTCTACTGCCCACTGTCGACGAAAACAGCCTCGCCCTGCACCGCCACCGCCACGCATAAGGCGGTGTGTGGGCAGCTCGGACGTGGCACCTGCCCTCAGCTGCTCAATCCCGGGCGCCGCGACGGTCACGTGCACAGCGGCAGGCCTTTTTGCCCCGCCCCCGCGGCCCGGCTCCTGCGTGGGCCCGGCCCCGCCCACAGCCCGCGCAGTCCCGCGAGCCTGGCCTC
0.2433933367292362 AAAACGTCATAAACTTAATGGCTAAAAGTAATAACTGTTTTATCTCTTCAATTCTGTAAAATGACTAGACTCAGCTAGAAAGTTCTGCTCCATGTGATGCTAGCTGGCTGCCGTCACGTGGAAGGTTGACTAGGCTGGAACATCCAAGATGGCTTAGTCACATGGCCAGCAGTCAATGCTGCTGGCTGGGGGCTCACCTGGGGTTATGTATGGCCCAGGGCTCCTCAGTTCTCCTC
0.7272738732123509 TTAAAATAAGAGGGCAATGACATCTCTATTCTTTACAGTCCTTTTAGATCTGACAGCTCAGTAATTTAGACAGGAGAGAGAAAAGACAAAGCCCAGTGGTCAGAGGGAAATGGGAGGTGTGTCCCCTCCCAGCTACAGTGAGGGGGCCACGTGACGCCTGTGGCAGCATCTGTGGTCACATATGTTACAAGTGAAAAAAATATCACAATGAGGTTGGTAAAGCCTTGGGCATTACC
0.4947844236674273 GTGCTCAGTACACCACTGCGGCAGGAAGGAGGAAGGGAAGAATTCCAGATGGGGAGAAAGTAATATTTTGCAGCACAGTACAGGGTAAACTGGGTCCAGGTGGGCGTAGCCGCCGCGACACCTTCACGTGACCGCGGACAGCTTAAGGACCCCGCATCCAGTGCGCCTGCGCTGGAGCTCCCGGAAGTTGCCGGACCCGGAACGCAGGCGGAGCGCAAGTCTGTCAGCCAGTCAGT
0.9008392679683059 AGCAACAGACATGCACTGAGTGAGAAGTGTCATAAGTCATGTACACCCTGTGGAATGCAGCATTATCTACAGTCACACATGCCTACGTACACCCAGTTTGCATACAGCTTCATGCACACGTGACACATCCCAGCTATGCTCCCCTCTAGCGGATGCTGGTGGTATGACACTCTGTCTCTCTCCCTGGCTCTGGCAGGTGGAGCTCTCCTGGAACAGCTTTAATAAGGGTGACATCT
0.5369480436022513 GTTCAGACGTTCCACGCAAAAGCAAAGTTCCCTGCAGACGCTCCATTAAGTTCTGGGTGCAAGGAAGCGCGGATCCTTCAGTTCTGGGCGTTTTCACCAGGTGGCACTCAGAACACCCTCACGTGACAAGCGTCCCACCCGGAAGCGAAATCTCCCCTTCTACAGAGTTCCTCCGGCGCTTCCTCCACCCCGGGATACACAGAACCTCATCTCCTACGGTGCTGAAGCCTGCAGCA
0.5207196400456998 ACTTCGCGGGTCTTCCGCCCCGCGCTAGAGGACGCACTCCGTGACGGGAATTGCGGTCTCGGCCGCCCCCGGCCTCAGGCTTTCCGGGCTCTGCTGCCTCCAGAAAACTACAAGTCCCAGGATGCTCGGCGCGGGACGGTCACGTGGGAGGGGCCGCGGGCGCGGCTAAATAGTCTCCATCGGCCATTTTGTGCGAGAAGCCGCAGCGCCGCCTCTTCTCTCGCGCCCTCGCCTCT
0.4036178129694532 CAGGTTAGGCCGGAGGCCGCCACAGCCCAGGGTCTCTGCCACCTGGCCCGCCCCCTCCGAGGCGCCGGAGAGCGATTCCCAAGGGGCCTGCCGGAGCGTGGCGTCACAGGAGCGTCGCGTCACGTGAGGCTGCCATCCAATCGCGGCGCGCGCTCTGCCCTGCGGGCAGCGGGTGCCAGGCACGGTGTCAGCAGGCAACATGGCCGAGAGGCCGGGGCCTCCGGGCGGCGCCGTGT
0.9400608446049797 AAGCCTGGGATCGCCGAGGGTAGTTGGACCACAGAAAATGGGGAAGGAGGGTAGGTTGTTTAGAAGCCTCTGGTTGCTAACGGAAACCGAGGCACGTGGACTGCAATTATGCATTTTCATTGGTCCTCAGGATCACGCGACAGGAAGTATTGCGTAACCGGTTGACTGCCACATGCGCATTGGCTTCCAGGGCCGGAAGTCCCACCTTTTTGTGCCAGTTCACTTTTGGGAGCTGA
0.5119854701689996 AATTGTCCAAGAAGCCAGCGGAGCGCCCCGAACAAGCACTGTAAGGGGAGGCCAGCAGGCGCCTCCTTTTAACTGGCCGGCGGCGGGTCACGTGGCACAGGCAGTTTTCCGGGCCTGAGGGTCCCGCCTCATCCGGCCCCCGCCCTACCCGGAGGGCTCGGCCCCTCCTCAGCCAGGAAAAGGCTGGAGAGTGCGCCCGAGCGGGACGCGTGCTCCTCCTAAGCCGGAAGGAGCAG
0.3923245728976311 AGTCTTTTTGCTCGTCGCCAGGGGAAGTGCTTCCTGCTGACAGGTCAGCTCACGTGTCAGTCAGAGTCTGCCTCTCAGGGCCTCTGCCGAAAGCGTGGGGCACGTGACTGTGACGGCATGGGTTGGCGCATGCGCTTCGTTCCCGGAGTGGCTGGCGGCGGAGTTTTCGCTGGCTACTACGAGGCCGGAGCGCCCTTGGCCTCTCTGCGTCCCTGGCCCTCGTGCGGTACCGGCGG
0.5927071713110037 AGCGTGGGCGACAGCAAGACTGTTTCAAAAAAAAAAAAGAGGAAGAGTGAAAGGATGGACGAAAGGAACTCCTGTGGGGTGGGGCATCTGGGGCACTTGATGCCCCACGTGACCATTCCCTTCCCGGAGGTCTGCCCCAACTGCTCCAGCCCCCATAGCCTGAGGCTCCCGGCACCTCCCACCCAGCATCTGTCACAGCAAATCAATCTGGGCCACATGCTCCTGAAAGGTCCTTG
0.6513016767682797 GTGGAGAAATCCTAGAAAGGACCAGCTTTGGGAAGGGATCGCGAGCCCTTTAAGAAAGCTTTACAAGCGGGGTGGTGACAGGCGCCCAGTGAAGCGCCACGTGACTTTTTCCACGGGGCCGGTGGGAGGGGAATGCTCCTTTATAATCAGCTTTCCTTCCCCTGCCTCCCTCTCAACGGACCAATCAACTTCCGCGGTAGGCGGGCGCCTGCCATGCAGATGGCCAATCCTGGCCG
0.8991781764855198 TCCTAGCGCAGTCCAGTCCCGGGCGCAGGGAGGAGAGCTGGTCAGCCAAGATTCCAAGACAGGTGTCCACCTCCTCCAACGAAGCGGAACACGTGACACCACCCTATCCACTTCCGGCTTGGAGGGCATGCCCTCCCGTCACCAGCATGCACTTTCGACAAAACCGTGGAATCTAGTATTTTCCTCTGACACCTTTATATTTTCTTCACTTCCCTATAATTCTGACCTATCGTGTA
0.7651226900873943 GTTTGAAGCTTCCAGCCCTTAACTAAGATGGCGCCTGGAGGCCCGTTAAAAATTACCTTGCCCTTTTTTCTGCCCTCTACCAACACGGCTTCCGTGGCGTCGTTCACGTGACATTCCTGGACTACGGCGCGGGAGAGGGGGTAGGAGGGCCCTTGAAGGGTGCGCGTTCCCGTGGCGGTGCACCGGGTAGGTTTCAGTCAGAGTCACTATGGCGGCCGGCGCTGGCAAGGTAAGCT
1 TGTTCGCTGCCGGTGTGCGTCAGCAGATGTGGCAGGAGGAGGTAAATAGCCACGTGCCCTTGGGGTGAGTTTCGGTTTCTCCAGCTTTCAGGGACTTCTAAAAAGTGAGCCTGGTTGCAGCTTCTACAATGCAGTAATCCTGGCCCTTCTCTGAAGGTCCTTTGAATCATTGCTCTTGGAATCACTTCTGGGTTGCTCATCACCTCAGCTTTTCCACCCTCCCTTTCCTTACATCC
0.4607201483154498 GAAATCTGTGGAAAGCTCAAGTTTAAGTTAGGTGTTTTAAAACAAACGTAGTTAACAATCGGCCAGATAGATTGGCTACCCTCCAGCACGCCTCAAGTTTTAAGATCACGTGATTGGCCCAAACCTCAGAGCCTGGAATTTTACCGGCGGACTCCAGAGGGACGGAACGCCACCGCCATTTCCTGTCCCTCGATTGTGGCGTGAACGTCACTTCCTTAGCAATGCGCTTTAACTCT
0.5762462068669316 GGGCAATTCCAGGCTATTAAGCAAAGGCTTAGTTTACAGGCTGGACTAATCCGATTTGTGTGCTGTGTCCTGGGCTCCCCTGTGGCAGTGATGCAATCATGTGACAGTTGGTGGTCATGTGCTGGGTAAGGACACTTTCAGGAAGGATGATATCACAGAAGTGATATAATCACCAGATAACTTTCTGAGTAGGAGGCACATGTCAGGGCATGAATTCAATGGTGACAGACGTGAAA
0.02081449748157723 GAGGAGGAAACTAAGGCACAGAGAGGCTTGTCAACCTGCCTGCTGTTAGTTGCCCCAATTCTTGTTCTGCCCTACAGAACCTTGATGTTTCCTTCGGTACACAACTGCTCAGAATAGAGACTACATTTCCCAGTCTCCCTTGCAGCTAGGTGTGGTCACATGACCACGTTCTGGCCAATAGAAAGCAGGCAGGGGCTGTGTGCACATTCTGGGTTGACGGCTTATTTTCTCCTTGC
0.8327144357937295 AGGTCCGTCACCGCCGTCACGACGGCCAGAGATTATACCCGCCGAGATGCCCGCGGCCCAGGGCCTACAATTTCCTCCGGCCAGCTCCTTTGGCCGCGCAAGCGCAGTGGGGCCGGCGGGAAGCGTAGGCGTGTGACGTCATCAGGCGGCGCGGGCCAGCCAGGTGCACGTGACTAAGGCCTTGGGCGCGGCAGGTGGTAGCCTTCCCGCCCTTCTGGCCTCTCCATCCCCTGCTG
0.1008623286305176 TGTTACAATTGTATAATTTTAAGTACAATTGTTGGCACTCACTGATATTTCCAGTGCTGCTTCTCTTTCTGAACACACATGGAAGACTACATTTCCCAGTTCCCTTTGCAAGGCCATGTGACTAGTTCTGACCAATGGGTTGTGAAAAAAAGGAAGTGAGTGTGTAACCTAAGTCAAAGCATTTAATTGCTAATGTGAAGCTCTTTTATCCTCTCTTACCCTACCACTGAGATCAC
0.8578104897845186 GGGGGCTGGCCGGAGGAAAGCAGAATTTCAGGGAAAGAACGATCGGGACGGGGAGGACGGGGAGGGCGGGGCAGAAGACGGAAGAGTTGAAATCAGCTGACTGGGTCTCGTGACAGCCTGGGCGGTGGCGACGCAGGCGTATTAGAGCGCGCTCGCTCAAAGCCTGAGCGAAGATGGCGGCCTCCAGAGTGAAACTCTGAGAGGCAGAGGGAGGAGGCGGAGGGGGCGGGGAGGCA
0.1196320827239081 AGGGGTGTCTCCACTCCTCAGTGCAGTAAGAAAAGAGCATGAAAAAGTGCACATGGGAGTTTTTTATGGGCTCTGCCTAGAAGTGGTGCGTGTTACTTCTACTCACATTCCATTGGCTAAAACTCCATCACATGACCACAGCTAACCACAGAGGAGTCTGGGAAATGTAGTCCTTGGTGGAGCAGCCACTTAGCAGTGACAGCTCTGGAGGGGTTTCTGAAGAAGAGGTAGTTCTC
0.5597479532303079 CTGAATTCCCGGACCCAATAACGCGACCAAGCACCGTGACTCCCAGGAAAACTAGCGGAGTGAGCGCGGCTGAGGAAATTACTGACACCGGAAGTCACGTGAGCGGCTGCCCCTAAGGTCGCTATCTCGACAGTCGACTATTCAGCCTTGCAGGCGCCTCTGGCGGGCTTCACTGAGATCCGCTCTTTCGGTGCTCGACTCGCCCGTGCTGCTGCCGCCGCCGAAGGAGGGGCAAA
0.01951991953318802 GGCGGGACCCGGTTTGGCGAAGAGCAAGCGTCCCCAGGATTGGCCAGCTTGGCGCCACTAGATAGGCTTCCGGGCGTGATTGGGCGAGCGGGCCAGACTTCCGGATTCCTGACAAGCCACGTGACCCACCCACCTGGAGGAGAGAGAAGGGATTTGTAGTTTAGTCGGTGCTTTAAAAAAAATTAACAAAACTTTATTGATATTCCACTTCAGAGCTGCTGACAGACTCACGAGTT
0.8290316030574743 TTAACACGTTCTTTACTATGAGCCTGGAACATGATTTGTCTGTTTTAGTTCTAGCAGGAAGACTCAGCCATGCTTCACAGTTCCAGACCACAAAAGTGAGCTCAGGCAATCATGTGTTTTAGAAACAAGACACGTGATCAGAAATTCTTATGTTTGTCAGCTACATACATTTCCTTTGAAAACATTAGTAAAATTTAGCCTATTAGCTGTTTGAAAATCAGCATGGTGGTGGGGGC
0.7558557788304541 GCTTGGGAAAGTAAGAACAAGATGACTGCACATAGAAATTAATGAAATAGAAAAGGCAACATGGAGCAATGGGTTTGCCATCACGTGTTCGTGATGCTTATTTGTGTATCATGTGAAGGCTATTATTAGTATGTGAAGAGAAAGTGAAAGGTTTACAGGAGGCAGTGGGTGTTGTCTAGAAGGAAATCCAGAACTGCTTCACTGTTTCTGAGACTGAACTTTTTACTGTGACCTAA
0.08692582041407325 TATTTAAGATGGCAATAAGCCAATGAATAACGAGTGGCAAGATTTTTACTAAAAATAACTTGAAAAATGCTTCACTTCCTCTTTCCCTCTTTTTATTCATCTGATGCTCAGTGTACCGAAGAACTGTTTGGTCACGTGACATTTCACCTGCTATACTACCCAGCAAACAGAAGTTTCACAAAATGCCAGGTGTGAGTTACAGATGCTGTGGTGAGGGATAAAAAGAAATGCTTAAT
0.07326994683735383 CCCGCCCTTACCCGCCCCCACTCAGCCCTATTTCCGGGATAGGCCCCGGAGCGTCACAGGCACCGCCCTCTCGGGCTACCATTGGCTACCAGATTCCCGAGGCTCCGCCCAGTCACGTGAAGAGCGCCCTGGCAACCCCACGTGCTGCGGATTAGTGCACTTCCGGCGTGGAGCGCACTTTCAGCAGTCTGGTTGCCGAGGGTGAGCTCGCTGGCAGAGGAACTTGCGCCTTCCAA
0.4830307724985312 ACTTTATTCTGTGAGCACTTATCTCAAACTAGTTCAGAGCAGTGGTCCTTGATCTTTTTGTCTTTTCATCTCATCATATTTGAAGGAACACGTGTCCTTGTGAAACAGTAATTCTCAGTCTCTATGGAGGAAAGTGACATATCACGTGACGGGCCTGTTAGAATTTCTGAGTAATATGTGTAGTGTGAAAAGATTTCCCAGATGACTCTGACCTGCTTGATACCCACTTTTGAAAA
0.9908796405854674 GGAGCCTGAGCCTACCTTTGGGCTGATCCAAGAATGTGAGGGCGTCTCCACGAACACCAATCAAAGACCAGAGCCCGGCTTCAGTAGCGACGATTGGGCAGTCTGGCCACGTGCTCGTGGGGGTGTGGCCTTTGTTTCTGCGTCCCCTGGGGCCTGCTCTGACTAAGGCAAGGGTTTTCTCCATCCTCCCCCTCTTGGTTGCCTGTCACTGTTTCTTCCTGCATCCCGTGGGGTTT
0.6594870910475003 AAGCAGAGCGTCTCGGATTTGGAGGTTCCGGTTCGAGGCTCGAGGGGCCTGAAGGTGGCTCTCCCTCCCCGGGCCCAAGACGATGGTATGGCCTGCTCCGCCACCATCACGTGGGCTCCTCCTCTGTGACGTCGGCGCCTTCGCTGTAGCAAAGCTCGGCCTCTGGAATTCTGAGAACTAATTTGCTATTCGGTGACATAAGAGGGGGAGTGCGCTTTGCTTTCCCGGGGTCTGGG
0.7072256163883833 CACTTTGGTAAATGAAAGAACTGAAAAACTGCCTCAAGACACCCACATACGGCCAACGCCCGCTAGCCTTTCTTCCTCCCACAGCCCCACTCACGTGGGCCTCCAAACAGCATTTATTGGCCGGCTTCGCGCCACGAGACGCGATGGACGTGATCGCCGCCCTCATCTTCTGCGGCGAACTTCTAGCGGGTGACGCTGTCCAATCGGAAAGCGCCTTTCCGCCGGCTGGGCCCTCC
0.7989240625731385 TTACCTGAGAAGGCGGGAAGGTGCGGCCGCGGGGTGAGCGGCGGACTGACCCAGCTCCAGCGCCTCTGCAGAGGCTTGCAATGGCGTCTCTCGGGCTCTGATTGGTCAGGCCTCCACACGTGAGCCTCTAGGAGCCAATCATGTCGGCCCACCTAGCATGCGCTGATTGGCTCAGGCTGGCCAGGGGCGGGCGCGGTCCTTCCACGGCCCGGTCCCCGCTCCCTTCCCCAGGCCCG
0.9822368950160802 CACCCCCGGCAGCCTGCCTCGCCCTCGCCGGGAGCGCGCCTACGTCACCGCGCAGACCTCGGCCGCGTCTTTGCGCCTGCGCCTCCTGGGCTGGGGTGAGCCATTGGCTGTCGAGCTCAGGGCACGTGCTAGGGGGCGGGGCCTTGACCGGAAAGGGTGGGGCAACGGCGAGAAAGGCCGCGTCGAGCGGTAGGTGCAGTCGTCGCTGTGGTGACCCCAGGTCCTGATGCGTCCGG
0.6010230494697889 CACCTCACTGTGAGCATGGAGCTCCAGGAACATCCCAGACAGGAGTGGGCAGAAGGGCAGGGATGCAATGCAGCTGTCTCCTTATATCCTATTGGGCAAAATGTGGTCACATGCCACACCTGGCTGCAAAGGATGCTGGGAAATGTAGTTTTTATTCCCAAGGGTCCACTCCCTGCTGACAATTCTGTTCCTGCAGATGAAGGGAGAATGAATGCTTGGGGACACTAGCAACAGCT
0.3878224020587002 GGGCCCTTCTTCAGTTCTTAAGGGTGAATCTTGGTGAACCTAAACAGATCATGGTAATACCATCTCCCTTGCTAAGAAATGGTTAAGACATTGCCATGTGACATCATCATGTGACAAGGTCTCATGCGACCACAAGCCCCAGGTGATCATTCTGACCAATAAAATGTGATAGGAACTGGGTTTCTCGCTCTTGAAACACACACACACACGTATGTGGGAAGAAACTTCCTTCTGCC
0.692204119229768 AGGCCTCCTTTGTTTTCTCTGCAGCATGGGTAAATAAGTAAGCTTGTGCTGAACAGAAACTGAAACAAAATTTCACAGGACAACTTTCTAACTAGAAAAGATCACGTGAGGAGAATACCATTAAGTACTGCTTCATTTAAAGAAGAAACAAGTGAGCAAAATGGTTTAACTACCATTATATATTTAATCTGGCCAATACTTACAAGTAATAACTAAAATGATAAATTACAAGGTCC
0.5599257197833929 AAGCCAGGAGAAAAAAAGGAGTTGCTCAAATAAAGCGTCCCTGGCAGTAACGAATCATTAACTTTCAGCCCACTCCAAGGAATGGGTGGCCTGAGGGTCACGTGCTAAAGAGGAAACCCTGAGTGAGTCAATCATGAACACATGACTGTTCTTAGTTCCTTATAGGTTTGCTTCCTCAAATAGCCTTCCTGGAGTGCTGAGCCAAGAGATGGATTGGGACCAGTTTCAGTTCTGGG
0.9213180959061034 AGCCCCCTGCAATGTGCTTCTCACAAATGCATACTGCGCAGACCATTCAGTCAGCCCTGCCCATGAGAGCAAAGGAAGGTGTAACCCCAACATGATGGTCCCCATGTGACCCAGACACTGGGGTCAGGTGCAGGAAACTGTTCCACTTTTAGTCAAAGCTCACTGATGTATAAGTGAGTCTGAGACAGGGTGTCTGGGGCTCTGGAAATAAAGAACCAATATTTCCACCGGAGACA
0.4307209110847409 CCCCTCCAATGAGGCCTTGTTCCGCCTGGCCACGCCCGTCGGTTGGCGCCCCGCCCCTCCGCGTCTATTGGCCGCTCCCTTTTTCTCCCATCGCTGCTTCTTCCTTCTCTACGCGGTCAACTTCCGGCGCGGAGTTTGTCACGTGCCCGGATATAGGAAGTGTTGGGGGAACGGCCGCTTCCCGTTCAACGCTTTATTGAGGGGCGTATCCTAGTGGCCCCCATCCGGTCTCCGTT
0.7839692603815336 GCCGCCATCTCCTCCACCTCCCCTCACATTCCACCGATCCTTCCCCCAGGATAAAAACCACGCCCAGAGAAGCTGCGCCTCTCTAGCACACCCCTCCCAGCCCCAGCGGCCACTAGCGACAATATGGCTCCTAAGCACGTGACCCGGGGCAGACGGATTTCCGGTTCCCGGGGCTACGAGGCGGAAGCGAAGGCAGACGCAGTCTCCGTCGTTGACGTTAGTCGCAGTCTTCGCTG
0.2968065574049512 CGGAGCCCGCTTCTACATCCACCTTGGGAAAAGACCCCAAGTTAGCTCTCAGGGCTCGCGGACCGGAAGCACGCATAAACTTCTACCCTGTCCAATCATAAGCCTCACGTGACCTGCCGCGTAGGGAGGGCACGAACAGAAAGGTGCTGCGCATGCGTATTGAAAAACCTCACCTACTCTCGCGGGTCCTCAGCGTTCTCCTGCGGAACCTTTGAACGGGGTACTCGAGCCCACAG
0.7609358723354114 TACCACAACCCTGAGAGGTCGAGAGTTCCTTCCCATTGTGAGTTCTTTCGTGGAATGCGGTATACACAGGAAGTCAAGAAATGGTCACTGGGAAGTCAAAAATAGTCACATGGTCGTAACTCCATCACATGTTCTCCCTCTTTCAATTTTAGCAGTAATGTGATCCTCAAAAATGCATTAATACTAGTTGAAGTAAATAAACGGAAGAGCTCCAAAATGCCTGCATTAAATGCATT
0.3572059497579143 ATCTTAGATCGATCTGATCGCACAACCGCTCCAGAAGGGGGGGTAAGAGGAAAAAAATGAGATTCAAACCGGATTGGCCAGCTTCTGGCCACGTGACGGATATGTCCGTTTGGCCCTGGCGGCACCTGCGCAAGACTGCGGCTGCGTGAGTAACGAGAGGCTTCTGGGAAGTGGAGTCTCTCCCCCACCTTTTTTTTTTTTTTTTTTTTAAGGTAAAGAAATTTTTTTTAAAAAGG
0.9292229984067431 GACTAGGCCTCAAAACCAGGCAAAGTAGCGCCAGTTACCTGGGGTTTCTGGGCTGCCTGGTTCTCTCCGCTGTCACTTCAGGGACAGCTTTAAAGACAGGTTCCTCCTCAAGCCACCGTCACATGATTCATGACCTCGTCTGCGCTCCAGGAAGCACTTTCTAAGCCGCCGTCGCCCTACGATACGGGATTTCCGGAGGGGCCCGGCGGAAGCTGCGAGGGCGCGTCCGGCGGCCG
0.9148186900631053 CCACTGCTGTCACACAGCCTTGCCTATGCCTTGGTATATTAAAGAGTGGTGAGTCACTCACACTTATGATAACCATTCATAACTAGAATTTTAGAAGAGGGGAAAACCCCAGGGCTGTACAGAATGACACGTGACACTCTCCAATGGAAGGACAGAAAGAGCAGAAGCCTCTTGCTAAATCTAACCATGAGCTCTTTCAGAGAAAAGAGGGCCGTTCAGCTTTTCTGCGTCACTAT
0.5188685754507449 TAACTCCCCTGCAACCTCAGTAAGTTCTGATAGTAAGGCGAATTCTCGCGATATTTCCCACTCTGGCGGTCAGGGGGAGGTAGTAGGAAGGCTGGGTGTCGGTCACGCGACCCGGCGGGGGCTGACGTCATTCACATCACGTGAACACGTCTAGACTGTTTCGCTTTGCAAAGGGAAAAAAGAAAAGGGGCCGTCGTGTGTGCTTTTGCTTTCAGCCAGATAGTGGCAATTGAGTG
0.8169969085682525 TTCAGGGTTTACTTCCGTGGTTTCCCTCGCCGCTGCATCTGTGACCTCTGGCCCGGTTTCAGCACTGACTGCTGTGGTCTCCGGAGCAGCCTCCACGTGACCTGGACAGGCAGATGCCTCTTTTATGACCACAACTGTAGCACTGGGACTTTCTTCAGCATCTACCACCTCAGCTTCCACTATAAGTTCTTCTGGGGCTTCTGAACTTGCTTTCTCAGTTTCCGCAACATTCTCCT
0.1205949605593273 AAAAAAAAAAAAAAAGAAAAGAAAAGAAAAGAAAAAAGCAGGAGGTAGGGACTACTTTGCCAAATCCATTAAATCCATTTCGTCTTTTTTCTTGACAGTTCACCTATGGTTTCCAGCTTCCGTAACAGTCACGTGACCTAGAGTTTTCAATCTATAGAATGATAGACCAAAAAATTACCACCAGGTGGCGCCAGGCCCAAACAGTAGCTAGTACGGTAGCCCTTTTTTTTTTTTTT
0.8619984789970609 GACCTCACCAGGAAGGGAGATTCGCCCCCTGTGCCCCTGGGACGTCCGAGCGGAACCCATCGGCCCGGCTCCCGGAGACTCGCGGGGAGGAAGGGCTGTCAGGCCAGGCGCGCATCACGTGAAGCTGCCAGTTCCGGGATCAAAGACGTACCCCGCACGTGGGCTGGGCGCCAGCCTGGGACCCCCGGGGGCCGCGCGCCCACCGCCCAGGAGCCCACCCCAGCCTCCACTGGGAA
1 TTGGAAGATCTGGAATTTTAAGGTGGGTGGCTCACTTGACTTGAAAATCCAATATTTTTTCTGAAGTAGGTGTTGCCATGGTGACAGAACGGCTTAGCAACTGAAGACAGATTTCATTGGCTGGCTGTCTGCAGACTTGCTTGTTGAGTGGCATTAATATGTTGCCTCCTGCTGTTTTTTTTCTGAGGAGACCATCTGGCATTAGCTGTATTTAAAGGTACAGTTCTGTTAAACAA
0.5398883080164119 CCTCAGTGCAAACCCTCTGCCCAAAGCCTCGCTCCAGTACGGAGGAGCTGCGCCTTCAACACACTTTCTCTGTTGCCAGGTAACCACTTCTCCCTCAGCCTAGTCTCCAAGGGTCACGAGCCACTTCCGCCTCCCCCTCTCGGGCGCTCCAATCAGCGACCTGTGTAGCTGTCACGTGGGCCTCTGGGGCAGACCCTGGAGATCGGGCTCGCGGCGCCTTCCATCGTGGCTCCGCG
0.9796698726639929 CACGCGGCCGCGCACGCAGCACGCAGAAACCGGCCCGCCACGGCCAGAACTCTAGCCCTACACCTCCCGGGACTTCCGGCCGGAAACCAAGGCCCCACGTGTCCGGGCCTGGTCCTTTCGGGGACCTTTGGGGACCGTCCAGGAATAAGCCCAAAGCGCACAACCCGTCTTTCAGAAAAGCGGCGTGACAGGGAAAACAGCGAACAGCTCTAAGGGGAAAAAAATGCTCCAGGAAG
0.892971016680817 TATGAGGGCAAGGACTGCTTACCTTAGCATCCTTGGTTCCTGGTAGGATGCCCATCCCATAACAGGCTGGAGCTCCTGGGTGTGTGGGAGGGAGTAGGAAGGAAGCAACAGCTGCCAATCAAAGGCCCATTTGGGCATGTGACCCTTAGCTAGCCAATCAGAATCCTTTCCAGGGTTGTAGCAGTTGAAGCTGTGAGCAGCTCAGTTGGTTGGGTTGTCTGTCTTGTCTTGGCTTG
0.6761350137814356 CTGAAAGGACGTCTCCCAGTCCACAGTGCCTGTGATTGCCACATTCTGGTGAGAGCTATATGGCAGATTCAAAAATCATTGCGCAGCCTGTCAGCTGATTGGGGTGAATGATCAATGTAACCGGAACTAAAGTTGTATGACATCATCTTTGCCACAGCTTCACGTGACAAAGCTCACTTCAAAAGTGCTTCTTTCTCAGACAAAGCCCTTTAGTCAGAAAAGCCACAAGTAACAGT
0.1294527356394285 GAACGCTGACCAGTTCCTGGTAATGTAGAAAACACCCAAGTTAAAACGGCAACAGAGTGACACAGCAGCCATTGAAGATGCCCCACTTCAGGCACCGACAGGCGTCACGTGACGGGTGGGGAACGCCAACCGCCTGGGCCTAGCGCAGCTTCCTCCGCCCACCACGGAAGTGAGGCGGGGATACTAAAGCGACGGAGCCCGGTGGACGGAAGTGGGTGTTGGAGGCTTTAAGGTAG
0.3305942984090124 CCGGAGCCCGGACTCCAGCTCAGCGAACAGCACCCTCCTACCGCCCCGGCGCCCCACTCAGCTCGCTCACCTGGCAAGTAGCCTCCTCTCCGTGCGCGTGCGCCGCTGCCGCCGCGCGTCCTCCGGGCCACCACGTGACCGCGTGGGCGCAGTCCCAGACAGGAAACGCCGGTGAGGTCGCCCTGGGCCATGGAGGCAGCTCGCGCTACTTTTTCGCGACCTCACTGTGTTCCTGT
0.6893132806236297 TCACATTGGTGAGTAAAGAATTCAGTCCAGAAATGACATGTCATTTCTGCTCACAATTTATTTGCCTGAATCAGTCACATGGCCCTATTTAACCTCAAGGGGGCCAGGAAGTACGCTGCCATCATATGACCAGAAGAAAGAAGAACTGAAAATATTTGGCAAATAATTTGATGAGAGAACCTGTGTCATGATGTTGAAGCTGTATCATACTTGAGCCTTGGGAATGACTGTTTCTT
1 GGGCCGGGCGGCTGCGCCCGCCTTCCGCTCTTGCCCATTGGCTGAGGCCTCGAGGGTGCCCGGAGACCGGAGTGCAGCGGGATTGGTTGCAGAGGTTCGTGACAGTGGCGCCTATTGGCTGTGGCAGCCCCCGTGACGCGGGGTGGTGACTGGCTCCGGAGTCTGAGGGGTTCGGGCTTGTCAGGTTCTAGGTAGGTGCGTTTCGCGCCGCCGGCGGTAGGCGCTGTTGCCCGGGG
0.4586300681132527 CCACCTATTCCCTAACGACAACAAACTTTTAAGGTCCAGGTTACCGCCGCGTCTCCCTAGCAACCGTGCCCTTTAATGGTTGCCGGAAGAGGCTATAATCACGTGCTCCGAAGACTTCCGGGTTTCCAACGTGACTTCCGGTTGTCAGAATTTACCCCTGACGCGGCGGCGGCCGACGGGAAGCTGTGTGTGCTTAGGTCGTGGTGGCCCCGGTGGTGGTGGGCTCCGGGCGGGCT
0.8721995060205249 GAAGCAGCTGTGTAATCCGCTGGATGCGGACCAGGGCGCTCCCCATTCCCGTCGGGAGCCCGCCGATTGGCTGGGTGTGGGCGCACGTGACCGACATGTGGCTGTATTGGTGCAGCCCGCCAGGGTGTCACTGGAGACAGAATGGAGGTGCTGCCGGACTCGGAAATGGGGTAGGTGCTGGAGCCACCATGGCCAGGCTTGCTGCGGGGGGAGGGGGGAAGGTGGTTTTCCCTCGC
0.428256701614217 GACCGCACTGCTATTTATGTATACAAGGCAAAAGGGGCAGGGTAAGCAGTGTGAGTCATCTCCAACGATTGATAAGGTCACGTGAGTCACGTGTCCACCGGACAGGGGGCCTTTCCCTTTTAGGTAGCTGAGGTGGGGAGAGGACAGCTTACGTCATTATTTCTTCTACACTCTTCTCAGAAAGATCAAAGACTTTAACACTTTCACTAATTCTGCCACTGCTATCTAGAAGGCGG
0.01554670473002763 CTCAGTCATATGACAGAAATTAGTCACTTCAAACGGCCACGGCGCGCGGGGCGGGGCGCGAGGCAAGGCCGGCACTCATTGGCTGGAGGGGGGCCGCATCACGTGGCGGCGCGCGGAGCAAGGGGCAAGGTGGGGGCGTGGGGCGGAGCTGCCTCCCATAGGCTCACTGGCGGGTCCCGTCACGTGGCAGGGGCGGGGCGTGAGCCGAGAGGACAGGACTGGAAGGTGGCTAGGGA
0.6901518490311144 TCTCTAAGAATCCTTCCAGCTTGTGCTCTTCTGTCCAGGGCAGCCAATCGCGAGGAGGAGAGTAGTCAGAGGGCGGCACCCTCCCCGGTCTGGGCCGAGTTATTGGCTGGTGGTAGCGTCGCTCGCCCGGCAGTACCACGTGACGGCCTCGGCCGCGGGCGTTTACACTGGCTCTGCCTCCGGCATCTCTTCGCCGGTGCGTCCTCGCCGCGCCCGTAGGTCCCGGCAGCCGGGCC
0.2606018716011821 CAGTGGGGGGCGGAGGGAAAGAGAGAGGAAACTGTTACAGCATGTGGTCAATGCTGTAATTATGGTGACCATGTTCTCCAAACCACAAATCAGGTCACGTGGTCTGACAGAGGCTATTTTCTGCCTCCACTGAAGTCCAAACATGAAATCACATGTAGTTACACATTCATTGAATCACCTTTTCTTTTTTTTAAAGAAGCAAATGACATGAAATTTGGATTGTCCTTGACAAATCC
0.5036910873955422 GCTACAATAGCGGCAGAAGTAGAGTTGCGAGAGCGGGGCCCGAACCTTCTTTTCTCCCTGGACTAGATAGAGAACCCGGTCCGACTGCAGCAAGGACGCCATCTTGGGGAGGGAGGAGGCGATGACGCTCCCGGCGCATCACGTGACCCGAGAGCCAGCGTCTTCCTCGCTGCCTTCCCTACGACTTCCTACGTAGACTTTGACGTTAGGTTTCCCACCTCGTCCGGCTCTGCGCC
0.2954945323329276 TTAATGGTAGAGATTTTAAGCTGCTCAATAAAGTCCATTTTCTCTTCTTCCTAAAAGTCCATTTTCTCTTCTTCCTAAGTACACAACTGGACTACATTTCCCAGCAGCCCTTAGATGTGGCCACATGACTGAGTTTAGCCAATGAGAGATGAGCAGAAAAAGATAAGCGCCACTTCCAGACCTAAACCGTAAAAAAAGCCCCATGCATGGTACTTAATGCTCTTTTTCTCATACAG
0.3566508829097272 CCCCCGCAGCCGCTCCAAACAAAAGGCCCCGGTCCCCGGAGCCGCCGCCACCGCCGCCGCCGCCGCACTGAGAAATAGCCCGCCCAGGCCGAACGCCCACGTGACGCGAGCCCCCCCTCGCTCCGCTTCCGCCCGGCTGCTGGGGATTGTAGTTCTCCGGTTCGTGAGGCCCCGCTCTCTGGCTGTAGTTGTGCAGGTGGACTACAAAGCCCGAGATGCATCGCGGCCCCTCCTCC
0.7857688264545092 TTCTGGCCTCAGAGCCTGGAGCTGCCGGACGTAGACTTACCTCGCGTGCTTCGGCCAGTTACTGGGGGTGGGGAGGCGCGGCGCGGCGTGAGGAGGCCGCAACCGCTGGGAGCACGTGGTTGCCACGTGGTTGGGGGAGGGAGGGGGGTGTGGGCGCTACATCCGGGACTCACCGGCGTGTTGCCACTCGTGAGCCAGGGATGCTGTGGCTCTGTTGAAGTGGGAAATGTTAAGAG
